#include "feedforward.h"

fp_type_t w1[11][16] = {{0.646993, 0.239388, -0.000501, -0.913095, -0.916074, -0.904487, 0.865094, -0.118928, 0.000015, 0.853098, 0.555782, 0.940794, 0.013214, 0.704808, 0.000019, -0.798696},
{-0.494339, -0.310973, 0.034860, 0.866599, 0.878856, 0.848057, -0.661951, 0.131624, -0.000006, -0.499943, -1.173769, -0.936994, -0.010531, -0.655534, -0.000019, 0.579397},
{-0.011403, 0.003451, 0.029872, 0.295392, 0.071696, 0.075083, -0.370943, 0.170601, -0.000007, -0.263916, 0.092619, -0.054566, -0.004824, 0.161853, 0.000003, 0.008103},
{0.455022, 0.178917, 0.015927, -0.965582, -0.630750, -0.727501, 0.285310, -0.080376, -0.000004, 0.612905, 0.701158, 0.626045, 0.000377, 0.423531, -0.000058, -0.286262},
{0.471814, 0.471920, -0.013480, -0.062308, -0.207956, -0.233408, 0.481541, -0.276059, 0.000012, 0.431692, 0.550450, 0.312679, 0.046803, 0.262063, 0.000142, -0.365579},
{-0.537785, -0.407292, 0.006588, 1.076468, 0.616930, 0.622097, -0.157495, 0.158810, 0.000005, -0.727756, -0.358723, -0.707946, 0.013141, -0.822418, 0.000017, 0.681615},
{0.097458, 0.093858, 0.066367, 0.115270, 0.153052, 0.151027, 0.133377, 0.269460, -0.000019, -0.076108, 0.169644, -0.093110, -0.045549, -0.441217, 0.000058, 0.457357},
{0.807704, 0.616097, -0.015636, -1.192656, -0.850237, -0.831001, 0.849754, -0.387262, 0.000001, 1.025265, 1.218772, 0.950745, 0.054703, 0.968363, -0.000015, -0.670944},
{-0.684322, -0.107708, -0.007128, 0.993627, 0.535058, 0.541160, -0.681852, 0.067922, -0.000016, -0.437076, -0.560302, -0.674632, 0.033155, -0.251914, 0.000011, 0.841126},
{0.270205, -0.191818, 0.013685, -0.164040, -0.163579, -0.047479, -0.047942, 0.004525, 0.000008, 0.030393, -0.006619, 0.472600, 0.002154, 0.357109, 0.000014, -0.248236},
{-0.153589, -0.009683, 0.045013, -0.174672, 0.152421, 0.153914, -0.137614, 0.079041, 0.000018, 0.095882, -0.259692, 0.112702, -0.018349, -0.161779, -0.000011, 0.418314}
};
