#include "feedforward.h"

fp_type_t w1[178][72] = {{-0.000028, -0.000181, -0.000046, -0.000249, -0.000280, 0.000295, 0.000115, -0.000206, 0.093964, 0.037583, 0.000021, -0.011647, -0.001684, -0.000266, -0.000021, -0.000260, 0.001393, 0.000045, -0.322118, 0.020926, -0.000112, -0.000393, -0.000020, -0.001044, -0.235515, -0.000780, -0.047431, 0.000019, -0.000030, 0.000058, -0.002859, 0.000015, 0.000250, 0.000673, 0.000006, -0.000005, -0.000009, -0.117464, 0.000013, 0.050395, 0.000021, -0.000151, 0.000034, -0.000061, -0.000329, 0.000019, -0.000002, 0.000114, 0.000034, 0.028774, -0.000259, 0.000089, 0.000023, -0.000039, -0.000013, 0.000158, 0.000020, 0.173067, -0.000034, 0.000029, 0.052448, -0.000040, -0.001865, 0.000068, 0.000033, -0.000042, 0.000045, 0.000003, 0.000030, -0.000047, 0.000092, 0.000024},
{0.000022, 0.000129, -0.000009, 0.000069, -0.000137, 0.000275, -0.000020, 0.000011, 0.042779, 0.023826, -0.000058, -0.011238, -0.001470, 0.000050, -0.000020, 0.000081, 0.001316, 0.000071, -0.384668, 0.011054, -0.000088, 0.000049, 0.000005, -0.000754, -0.147191, -0.000353, 0.127018, 0.000098, -0.000009, -0.000049, -0.004244, 0.000014, -0.000005, 0.000484, 0.000046, -0.000010, -0.000095, -0.007321, 0.000022, 0.044762, 0.000009, -0.000064, -0.000018, 0.000005, -0.000440, 0.000376, 0.000035, 0.000034, -0.000026, 0.010473, -0.000018, -0.000050, -0.000053, 0.000068, -0.000036, 0.000113, 0.000024, 0.272901, -0.000023, -0.000080, 0.018375, -0.000027, -0.002045, 0.000034, -0.000100, -0.000025, -0.000031, 0.000020, -0.000002, 0.000010, 0.000031, 0.000056},
{0.000061, 0.000044, -0.000021, -0.000420, -0.000161, 0.000045, -0.000038, -0.000046, 0.112508, 0.027735, -0.000051, -0.012553, -0.001614, -0.000244, -0.000041, -0.000076, 0.000768, 0.000148, -0.281870, 0.004955, -0.000021, -0.000221, 0.000028, -0.000879, -0.059706, -0.000632, 0.028522, -0.000002, -0.000023, -0.000164, -0.003485, 0.000013, 0.000039, 0.000596, 0.000004, -0.000014, -0.000070, -0.174706, -0.000005, 0.040940, -0.000029, 0.000075, 0.000163, -0.000008, -0.000278, 0.000035, -0.000066, 0.000091, -0.000038, -0.052723, -0.000170, 0.000043, -0.000079, 0.000084, 0.000044, 0.000204, 0.000022, 0.142506, 0.000015, -0.000015, -0.003681, 0.000080, -0.002147, -0.000045, -0.000013, 0.000021, -0.000042, 0.000036, -0.000048, -0.000114, 0.000028, -0.000043},
{-0.000017, 0.000066, -0.000047, -0.000008, -0.000097, 0.000327, 0.000130, 0.000041, 0.054514, 0.022040, -0.000051, -0.013421, -0.001640, 0.000041, -0.000021, 0.000200, 0.001135, -0.000089, -0.024425, 0.001835, -0.000046, -0.000162, -0.000001, -0.000679, 0.121609, -0.000838, 0.117473, 0.000015, 0.000037, -0.000042, -0.003741, 0.000025, -0.000081, 0.000661, 0.000051, 0.000016, 0.000019, -0.348566, -0.000062, 0.015788, -0.000001, -0.000031, -0.000068, -0.000036, -0.000135, -0.000018, 0.000041, 0.000001, -0.000093, -0.062888, -0.000287, -0.000032, 0.000017, 0.000047, 0.000013, 0.000207, -0.000018, 0.249870, -0.000013, -0.000036, 0.012780, -0.000232, -0.002279, -0.000041, -0.000033, -0.000022, 0.000004, 0.000049, 0.000012, -0.000022, -0.000061, -0.000073},
{-0.000034, 0.000111, 0.000006, -0.000543, -0.000321, -0.000101, 0.000068, -0.000038, 0.009430, 0.008806, 0.000013, -0.015228, -0.001528, -0.000138, -0.000049, -0.000017, 0.001155, -0.000017, 0.015672, -0.000733, -0.000037, 0.000000, 0.000033, -0.001190, 0.034137, -0.001335, 0.075955, -0.000035, -0.000109, 0.000006, -0.003621, 0.000012, -0.000071, 0.000284, -0.000004, -0.000000, 0.000008, -0.514888, 0.000053, 0.028807, -0.000018, -0.000212, 0.000049, 0.000012, -0.000516, 0.000389, 0.000033, -0.000104, 0.000031, 0.093321, -0.000358, 0.000023, -0.000100, -0.000019, -0.000027, 0.000237, -0.000014, 0.222290, -0.000015, 0.000024, 0.041962, -0.000005, -0.002387, 0.000004, 0.000072, 0.000034, 0.000031, -0.000059, -0.000040, -0.000017, -0.000027, 0.000049},
{-0.000032, 0.000027, -0.000062, -0.000289, -0.000153, -0.000120, 0.000066, 0.000023, -0.124243, -0.001473, -0.000017, -0.015341, -0.001710, 0.000007, -0.000036, -0.000036, 0.001313, 0.000046, 0.012528, -0.001598, -0.000040, -0.000171, 0.000042, -0.001443, 0.160041, -0.000483, 0.077774, 0.000023, -0.000086, -0.000061, -0.003577, 0.000011, -0.000103, 0.000209, 0.000003, -0.000010, -0.000019, -0.452040, -0.000008, -0.001059, -0.000007, -0.000043, -0.000025, -0.000034, -0.000172, 0.000158, -0.000055, -0.000072, -0.000069, 0.363549, -0.000006, 0.000059, -0.000023, 0.000095, 0.000055, -0.000158, 0.000055, 0.095676, 0.000049, 0.000052, 0.033836, -0.000000, -0.002408, -0.000012, -0.000000, 0.000041, -0.000002, -0.000154, -0.000012, 0.000050, -0.000023, -0.000095},
{-0.000055, 0.000001, -0.000197, -0.000301, -0.000279, 0.000242, -0.000013, -0.000028, -0.159801, -0.000790, -0.000021, -0.015872, -0.001750, -0.000144, 0.000091, -0.000057, 0.001289, -0.000037, 0.215815, -0.001421, 0.000075, -0.000232, -0.000012, -0.001844, 0.194968, -0.001541, -0.004832, -0.000011, 0.000018, -0.000032, -0.003632, -0.000019, -0.000153, 0.000432, 0.000001, -0.000019, -0.000038, -0.362177, 0.000119, 0.000032, 0.000008, -0.000028, -0.000040, 0.000022, -0.000209, 0.000006, -0.000013, 0.000017, 0.000045, 0.322251, -0.000048, -0.000047, -0.000022, -0.000033, -0.000121, 0.000159, 0.000020, 0.241071, -0.000011, 0.000026, 0.094660, 0.000153, -0.002366, 0.000008, -0.000035, 0.000033, 0.000048, 0.000004, 0.000007, -0.000065, -0.000031, 0.000057},
{-0.000024, -0.000183, -0.000045, -0.000040, -0.000209, -0.000220, -0.000068, -0.000015, -0.133759, 0.017341, -0.000052, -0.014756, -0.001850, -0.000287, -0.000007, -0.000011, 0.001352, 0.000033, 0.087773, -0.000078, -0.000193, -0.000156, 0.000011, -0.001592, 0.211643, -0.001112, -0.176512, 0.000077, 0.000001, 0.000024, -0.003242, 0.000026, -0.000031, 0.000670, 0.000019, -0.000009, -0.000022, -0.332381, -0.000038, 0.010034, 0.000024, 0.000021, -0.000022, -0.000007, -0.000503, -0.000009, 0.000085, -0.000026, 0.000024, 0.516810, -0.000057, -0.000046, -0.000017, -0.000087, 0.000032, 0.000229, -0.000007, 0.136761, 0.000037, 0.000019, -0.085322, 0.000010, -0.002216, -0.000035, 0.000026, -0.000055, -0.000059, 0.000094, 0.000022, -0.000062, -0.000020, 0.000080},
{0.000018, -0.000083, -0.000013, -0.000463, -0.000227, -0.000005, -0.000035, 0.000051, -0.109486, 0.017863, -0.000045, -0.014150, -0.002343, -0.000203, 0.000061, -0.000036, 0.001232, 0.000022, 0.137843, 0.008086, 0.000076, 0.000042, -0.000005, -0.001311, 0.041014, -0.000194, -0.350127, -0.000034, 0.000059, -0.000046, -0.003279, 0.000009, -0.000058, 0.000532, 0.000015, -0.000010, 0.000063, -0.110016, -0.000046, 0.029927, -0.000016, -0.000028, -0.000009, -0.000023, -0.000103, -0.000092, -0.000010, -0.000071, -0.000018, 0.499479, -0.000101, 0.000024, -0.000026, -0.000035, -0.000001, 0.000200, -0.000066, -0.141034, -0.000019, 0.000019, -0.034723, 0.000157, -0.002135, 0.000025, -0.000044, -0.000027, 0.000079, -0.000032, 0.000047, -0.000029, 0.000054, -0.000072},
{-0.000002, 0.000111, -0.000041, -0.000255, -0.000047, 0.000250, -0.000035, -0.000074, 0.007921, 0.013151, -0.000052, -0.015027, -0.001726, -0.000277, -0.000008, 0.000035, 0.001360, 0.000099, 0.089291, 0.007234, -0.000017, -0.000249, 0.000031, -0.001511, -0.042718, -0.000175, -0.466143, 0.000007, -0.000001, -0.000032, -0.003884, -0.000036, 0.000076, 0.000484, -0.000000, 0.000000, -0.000041, 0.125393, -0.000028, 0.023156, 0.000009, 0.000027, 0.000010, -0.000043, -0.000212, 0.000174, 0.000174, -0.000034, -0.000009, 0.358451, -0.000126, 0.000089, 0.000004, -0.000002, -0.000049, 0.000121, 0.000036, -0.130224, -0.000020, 0.000048, -0.204452, -0.000015, -0.001870, -0.000022, 0.000015, 0.000067, 0.000045, -0.000063, 0.000006, 0.000061, -0.000031, 0.000003},
{-0.000054, -0.000069, -0.000045, -0.000437, -0.000197, 0.000292, -0.000018, -0.000007, 0.181305, 0.009192, 0.000016, -0.014045, -0.002362, 0.000066, -0.000016, -0.000110, 0.001227, -0.000011, 0.225907, -0.000858, 0.000060, 0.000020, -0.000008, -0.001283, -0.239337, -0.000111, -0.635081, 0.000076, 0.000032, -0.000056, -0.003063, 0.000006, -0.000164, 0.000003, 0.000003, -0.000011, -0.000019, 0.315662, -0.000074, 0.027235, -0.000033, 0.000321, 0.000075, -0.000007, 0.000081, 0.000061, 0.000048, -0.000034, 0.000047, 0.177383, -0.000010, 0.000063, 0.000024, 0.000039, 0.000050, 0.000125, -0.000023, -0.285571, -0.000013, 0.000012, -0.133870, 0.000122, -0.001756, 0.000044, -0.000015, -0.000148, -0.000029, 0.000025, -0.000051, -0.000029, -0.000031, 0.000055},
{0.000022, 0.000216, -0.000266, -0.000234, -0.000294, 0.000137, -0.000036, 0.000032, 0.238003, 0.001172, -0.000022, -0.014382, -0.002281, -0.000150, 0.000016, -0.000066, 0.001444, 0.000063, 0.204232, -0.000518, -0.000033, -0.000331, 0.000045, -0.001367, -0.320350, 0.000235, -0.628273, -0.000008, -0.000038, -0.000013, -0.004357, -0.000026, -0.000099, 0.000042, -0.000006, -0.000005, 0.000043, 0.453038, -0.000061, 0.024224, 0.000025, 0.000028, 0.000094, 0.000036, -0.000410, -0.000025, -0.000056, -0.000064, 0.000056, 0.093306, 0.000047, 0.000076, -0.000087, -0.000009, -0.000090, 0.000079, -0.000041, -0.231994, -0.000013, -0.000035, -0.109650, 0.000076, -0.001755, -0.000034, 0.000009, 0.000020, 0.000006, -0.000022, -0.000013, -0.000025, 0.000027, -0.000037},
{0.000035, -0.000048, -0.000145, 0.000077, -0.000363, 0.000479, 0.000008, -0.000005, 0.311334, 0.000092, -0.000049, -0.014571, -0.002115, -0.000256, -0.000000, -0.000032, 0.001192, -0.000048, 0.400299, -0.000938, -0.000068, 0.000307, 0.000045, -0.001122, -0.286330, -0.000955, -0.637907, -0.000044, 0.000010, -0.000015, -0.003160, -0.000007, 0.000048, 0.000175, 0.000036, -0.000030, 0.000038, 0.490075, -0.000069, 0.000879, 0.000026, -0.000290, -0.000025, -0.000025, -0.000230, -0.000050, -0.000057, 0.000019, -0.000033, -0.232699, -0.000390, -0.000110, -0.000020, -0.000067, 0.000031, 0.000164, 0.000009, -0.355044, 0.000010, -0.000015, -0.002616, 0.000172, -0.001871, 0.000028, 0.000016, 0.000026, 0.000052, 0.000063, -0.000065, -0.000060, 0.000117, 0.000003},
{-0.000033, 0.000087, 0.000046, -0.000251, -0.000113, 0.000047, 0.000055, 0.000033, 0.331443, -0.001475, -0.000036, -0.014173, -0.001987, -0.000054, 0.000037, -0.000023, 0.001378, 0.000023, 0.433562, -0.001724, -0.000036, 0.000156, -0.000054, -0.001271, -0.272368, -0.000943, -0.578568, -0.000095, -0.000014, -0.000061, -0.002871, -0.000009, -0.000067, -0.000108, -0.000008, -0.000010, -0.000032, 0.389124, -0.000043, -0.001321, -0.000017, 0.000271, 0.000101, -0.000054, -0.000388, 0.000006, 0.000085, -0.000006, 0.000001, -0.378699, -0.000331, -0.000040, 0.000040, -0.000012, 0.000026, 0.000184, 0.000025, -0.311286, 0.000025, -0.000015, 0.178527, 0.000003, -0.002138, 0.000001, -0.000024, 0.000096, 0.000048, -0.000034, -0.000029, 0.000055, 0.000098, 0.000005},
{-0.000036, -0.000075, 0.000046, -0.000011, -0.000156, 0.000258, 0.000024, 0.000204, 0.386858, -0.001753, -0.000038, -0.015604, -0.002105, -0.000072, 0.000055, 0.000005, 0.001357, -0.000081, 0.525593, -0.001875, -0.000066, 0.000079, -0.000044, -0.001379, -0.339103, -0.001129, -0.414647, 0.000023, 0.000049, 0.000028, -0.003312, -0.000021, 0.000139, -0.000217, -0.000007, -0.000005, 0.000007, 0.425049, 0.000032, -0.001649, -0.000025, -0.000022, 0.000095, 0.000087, -0.000139, 0.000182, -0.000004, 0.000011, -0.000086, -0.633552, -0.000240, -0.000012, 0.000014, 0.000051, 0.000077, 0.000185, 0.000069, -0.265782, 0.000017, -0.000124, 0.130873, 0.000085, -0.002235, -0.000004, 0.000076, -0.000011, -0.000022, -0.000088, -0.000013, 0.000071, -0.000053, -0.000081},
{-0.000020, 0.000086, -0.000102, -0.000457, -0.000160, -0.000017, 0.000038, 0.000037, 0.332586, -0.000942, -0.000038, -0.016097, -0.001830, -0.000012, 0.000040, -0.000196, 0.001067, -0.000149, 0.377113, -0.001340, 0.000138, -0.000125, -0.000060, -0.001576, -0.089764, -0.000644, -0.303210, 0.000025, 0.000027, -0.000026, -0.003245, 0.000032, 0.000157, 0.000041, 0.000016, 0.000020, -0.000026, 0.269299, 0.000047, -0.000595, 0.000008, -0.000248, -0.000021, 0.000036, -0.000390, -0.000169, 0.000057, 0.000040, -0.000084, -0.552674, 0.000067, -0.000051, -0.000035, 0.000093, 0.000015, 0.000226, -0.000001, -0.176844, 0.000023, -0.000018, 0.184671, 0.000061, -0.002200, 0.000017, -0.000028, -0.000015, -0.000051, -0.000053, -0.000010, 0.000078, -0.000087, 0.000043},
{0.000044, -0.000066, -0.000071, -0.000399, -0.000152, -0.000005, 0.000067, 0.000102, 0.310026, 0.021897, -0.000045, -0.015740, -0.002232, -0.000030, 0.000002, 0.000007, 0.001160, 0.000054, 0.310296, 0.002460, -0.000031, -0.000247, -0.000014, -0.001856, 0.091032, -0.001267, -0.389671, 0.000051, 0.000001, 0.000120, -0.004208, -0.000015, 0.000030, 0.000274, 0.000006, 0.000007, 0.000010, 0.094426, 0.000019, 0.017930, 0.000005, 0.000106, -0.000022, -0.000043, -0.000289, 0.000296, -0.000085, 0.000061, 0.000005, -0.688785, -0.000393, -0.000027, 0.000075, -0.000101, 0.000004, 0.000174, -0.000014, -0.181246, 0.000054, -0.000099, 0.207331, 0.000142, -0.002009, -0.000034, -0.000006, -0.000005, -0.000002, 0.000051, -0.000032, 0.000043, 0.000041, 0.000010},
{0.000017, 0.000050, -0.000127, -0.000541, -0.000276, 0.000192, -0.000036, 0.000106, 0.153249, 0.022285, -0.000064, -0.017280, -0.002294, -0.000133, -0.000109, -0.000036, 0.001037, -0.000018, 0.170129, 0.012649, 0.000023, 0.000108, -0.000018, -0.001838, -0.000598, -0.001458, -0.229864, -0.000105, -0.000043, -0.000002, -0.004792, 0.000038, 0.000144, 0.000364, 0.000005, 0.000015, 0.000122, 0.054398, 0.000061, 0.032889, 0.000044, 0.000140, -0.000074, 0.000029, 0.000001, 0.000320, 0.000138, 0.000108, 0.000108, -0.634514, -0.000103, 0.000017, -0.000012, -0.000088, -0.000008, 0.000157, 0.000042, -0.356924, -0.000034, 0.000019, 0.216644, 0.000074, -0.001882, 0.000057, -0.000074, 0.000017, -0.000011, 0.000020, -0.000005, 0.000039, -0.000038, -0.000118},
{-0.000021, -0.000148, -0.000053, -0.000603, -0.000165, 0.000183, -0.000019, -0.000004, 0.200921, 0.016369, -0.000034, -0.017952, -0.002232, -0.000359, 0.000051, -0.000061, 0.001233, -0.000048, 0.160574, 0.010188, 0.000017, -0.000032, -0.000014, -0.001725, -0.009103, -0.000594, -0.201446, -0.000022, 0.000001, 0.000062, -0.003535, 0.000002, -0.000239, 0.000469, -0.000014, -0.000002, 0.000057, 0.045775, 0.000094, 0.028259, 0.000009, 0.000038, -0.000061, 0.000039, -0.000233, 0.000136, -0.000021, -0.000066, 0.000092, -0.585908, -0.000236, 0.000083, 0.000075, 0.000012, -0.000006, 0.000148, -0.000018, -0.304262, -0.000017, -0.000026, 0.353066, -0.000137, -0.001695, 0.000035, 0.000120, -0.000043, -0.000030, 0.000063, -0.000000, -0.000055, -0.000052, 0.000046},
{-0.000030, -0.000131, -0.000319, -0.000434, -0.000102, -0.000113, -0.000062, -0.000045, 0.397092, 0.008275, 0.000026, -0.017869, -0.002256, -0.000187, 0.000020, -0.000225, 0.001057, -0.000102, 0.143047, 0.004702, -0.000124, -0.000068, 0.000007, -0.001458, -0.052838, -0.000994, -0.112521, 0.000090, -0.000019, -0.000022, -0.003510, -0.000039, -0.000156, 0.000482, -0.000014, -0.000010, 0.000038, 0.168279, 0.000067, 0.010112, -0.000013, 0.000264, 0.000031, -0.000036, -0.000580, 0.000116, -0.000132, 0.000210, 0.000024, -0.505472, -0.000333, 0.000053, 0.000002, 0.000033, -0.000007, 0.000095, 0.000015, -0.074805, 0.000065, -0.000090, 0.292881, 0.000115, -0.001726, 0.000041, -0.000071, -0.000008, -0.000029, 0.000018, 0.000000, -0.000080, 0.000009, -0.000062},
{0.000028, 0.000017, -0.000199, -0.000307, -0.000291, 0.000323, 0.000016, 0.000027, 0.197580, 0.006384, 0.000026, -0.017710, -0.002018, -0.000299, -0.000010, -0.000060, 0.001021, -0.000007, -0.045344, 0.003514, -0.000088, -0.000231, -0.000050, -0.001864, 0.046717, -0.001096, 0.005825, 0.000008, 0.000002, 0.000019, -0.004752, 0.000006, -0.000037, 0.000512, 0.000010, 0.000007, 0.000013, 0.211667, 0.000049, 0.007903, 0.000001, -0.000247, -0.000000, -0.000032, -0.000316, 0.000010, -0.000063, -0.000044, 0.000053, -0.311502, -0.000404, 0.000003, -0.000031, 0.000032, -0.000091, -0.000080, -0.000026, 0.148711, -0.000055, -0.000041, 0.332361, -0.000037, -0.001812, 0.000020, 0.000072, -0.000057, 0.000075, -0.000078, 0.000027, 0.000042, 0.000019, 0.000055},
{-0.000043, 0.000123, -0.000220, -0.000458, -0.000097, 0.000424, 0.000018, 0.000117, 0.152518, 0.009487, 0.000008, -0.017937, -0.002160, -0.000141, 0.000034, -0.000082, 0.001088, -0.000013, -0.172484, 0.005880, -0.000059, -0.000134, -0.000046, -0.001088, -0.016483, 0.000029, 0.031177, 0.000168, 0.000012, 0.000118, -0.003652, -0.000011, -0.000040, 0.000523, 0.000020, -0.000024, -0.000038, 0.222699, -0.000001, 0.011925, 0.000024, 0.000139, 0.000010, -0.000007, -0.000507, 0.000295, -0.000072, -0.000024, 0.000028, -0.373895, -0.000036, -0.000032, -0.000017, -0.000031, -0.000023, 0.000184, 0.000013, 0.250508, -0.000027, -0.000027, 0.184855, -0.000153, -0.001894, -0.000028, -0.000026, 0.000047, 0.000068, -0.000032, -0.000017, -0.000021, 0.000043, 0.000054},
{0.000018, -0.000078, -0.000195, -0.000109, -0.000363, 0.000232, 0.000014, 0.000100, 0.002180, 0.061194, -0.000018, -0.017717, -0.002359, -0.000216, -0.000100, 0.000010, 0.001112, 0.000056, -0.432767, 0.036876, 0.000057, -0.000121, 0.000033, -0.001092, 0.104130, -0.000995, -0.000899, -0.000030, -0.000058, 0.000133, -0.003759, -0.000004, -0.000022, 0.000649, 0.000004, 0.000011, -0.000097, 0.026998, 0.000043, 0.061289, -0.000019, 0.000041, -0.000076, 0.000025, -0.000347, 0.000061, -0.000001, 0.000167, -0.000070, -0.537800, 0.000022, 0.000047, -0.000125, -0.000083, -0.000029, -0.000057, 0.000058, 0.023470, -0.000020, -0.000004, 0.085669, 0.000098, -0.002064, 0.000014, -0.000045, 0.000006, -0.000033, 0.000047, -0.000029, -0.000021, -0.000030, -0.000074},
{0.000051, 0.000112, -0.000239, -0.000429, -0.000161, -0.000398, -0.000066, 0.000086, 0.165524, 0.089077, -0.000046, -0.018296, -0.002515, -0.000089, -0.000110, -0.000035, 0.000959, 0.000091, -0.392695, 0.062685, -0.000028, -0.000456, -0.000016, -0.001756, 0.086973, -0.000735, -0.033958, 0.000003, 0.000032, 0.000041, -0.004203, -0.000018, -0.000155, 0.000441, 0.000001, -0.000033, 0.000038, -0.035554, 0.000075, 0.097221, -0.000004, 0.000210, 0.000031, -0.000037, -0.000074, 0.000193, 0.000107, 0.000043, -0.000073, -0.481259, -0.000194, 0.000040, -0.000025, 0.000009, 0.000006, 0.000246, -0.000029, 0.219901, -0.000006, 0.000097, -0.194136, 0.000136, -0.002139, 0.000051, 0.000015, -0.000007, -0.000040, -0.000046, -0.000009, 0.000005, -0.000063, 0.000064},
{-0.000057, 0.000009, -0.000169, -0.000359, -0.000304, -0.000222, 0.000049, 0.000099, 0.159287, 0.069802, 0.000006, -0.018052, -0.002311, -0.000294, -0.000052, 0.000060, 0.001401, 0.000055, -0.542920, 0.053074, -0.000027, 0.000028, 0.000005, -0.001896, 0.205822, -0.000736, 0.003217, 0.000080, -0.000079, -0.000175, -0.004255, -0.000002, 0.000044, 0.000078, 0.000004, -0.000010, 0.000020, 0.014243, -0.000055, 0.080866, -0.000005, 0.000019, -0.000022, 0.000037, -0.000405, -0.000114, -0.000124, -0.000148, 0.000062, -0.387159, -0.000215, -0.000009, 0.000014, -0.000011, -0.000003, 0.000208, -0.000025, 0.311400, -0.000031, -0.000115, -0.178379, -0.000037, -0.002160, -0.000016, 0.000005, 0.000022, -0.000029, -0.000019, 0.000039, 0.000005, 0.000036, -0.000026},
{0.000030, 0.000039, 0.000054, -0.000534, -0.000259, -0.000270, -0.000033, 0.000000, 0.195551, 0.030723, -0.000016, -0.018237, -0.002247, -0.000012, 0.000046, 0.000065, 0.000878, -0.000002, -0.312094, 0.018321, 0.000074, -0.000130, 0.000016, -0.001672, 0.391582, -0.000716, 0.151660, -0.000002, 0.000002, -0.000126, -0.003196, 0.000023, 0.000143, 0.000101, 0.000002, 0.000007, 0.000064, -0.133358, 0.000035, 0.039315, -0.000033, -0.000108, 0.000107, -0.000002, 0.000029, 0.000173, -0.000029, 0.000054, -0.000003, 0.019744, 0.000051, 0.000003, -0.000031, 0.000065, 0.000121, 0.000109, -0.000039, 0.333811, -0.000007, -0.000003, -0.095054, 0.000224, -0.002036, 0.000015, 0.000097, -0.000007, -0.000014, -0.000027, 0.000071, 0.000050, -0.000055, -0.000033},
{0.000036, 0.000092, -0.000036, -0.000268, -0.000197, 0.000225, 0.000071, 0.000072, 0.194850, 0.023176, 0.000062, -0.019412, -0.002346, -0.000029, 0.000167, -0.000094, 0.001014, -0.000019, -0.447666, 0.013807, -0.000070, 0.000276, -0.000023, -0.001589, 0.370950, -0.001114, 0.086829, 0.000087, -0.000005, -0.000062, -0.003168, -0.000034, 0.000078, 0.000426, -0.000024, 0.000018, -0.000023, -0.353916, -0.000033, 0.034979, -0.000007, 0.000033, -0.000018, -0.000121, -0.000434, -0.000019, 0.000002, -0.000011, -0.000007, 0.148205, -0.000019, 0.000081, -0.000058, -0.000092, -0.000079, 0.000211, 0.000039, 0.494519, -0.000014, -0.000037, 0.015126, -0.000000, -0.002032, -0.000006, -0.000034, -0.000024, -0.000059, -0.000065, 0.000022, -0.000055, -0.000058, -0.000052},
{-0.000013, 0.000080, -0.000079, -0.000343, -0.000194, 0.000294, -0.000056, 0.000042, 0.252682, 0.026597, -0.000001, -0.018590, -0.002212, -0.000214, -0.000026, -0.000030, 0.001068, 0.000021, -0.381506, 0.014722, -0.000023, 0.000212, -0.000109, -0.001845, 0.158552, -0.000835, 0.142077, -0.000008, 0.000040, 0.000082, -0.004681, 0.000005, 0.000043, -0.000002, -0.000014, 0.000018, -0.000034, -0.364021, -0.000108, 0.035891, 0.000006, -0.000175, -0.000018, 0.000016, -0.000309, 0.000207, 0.000065, 0.000139, 0.000062, 0.353904, 0.000013, -0.000066, -0.000064, 0.000026, 0.000035, -0.000096, -0.000020, 0.602298, 0.000039, -0.000035, 0.128792, 0.000155, -0.002009, 0.000040, 0.000036, -0.000024, -0.000016, -0.000015, -0.000031, -0.000062, 0.000046, -0.000005},
{-0.000038, 0.000040, -0.000141, -0.000566, -0.000371, -0.000163, -0.000000, -0.000089, 0.078894, 0.047950, -0.000013, -0.016823, -0.002140, -0.000191, 0.000007, 0.000004, 0.000740, 0.000019, -0.415109, 0.023938, -0.000013, -0.000385, 0.000023, -0.001572, 0.190899, -0.000788, 0.090151, 0.000072, 0.000055, 0.000019, -0.003790, -0.000014, -0.000146, 0.000249, 0.000006, -0.000008, 0.000002, -0.585025, -0.000026, 0.052015, 0.000020, -0.000144, -0.000050, 0.000074, 0.000003, 0.000238, 0.000011, -0.000011, 0.000126, 0.302031, 0.000055, 0.000028, -0.000038, -0.000009, -0.000006, -0.000211, 0.000022, 0.610821, 0.000010, 0.000047, 0.002543, 0.000022, -0.001934, -0.000016, -0.000002, 0.000047, 0.000025, 0.000038, -0.000032, -0.000017, -0.000119, -0.000027},
{0.000086, 0.000107, -0.000112, -0.000005, 0.000057, -0.000163, 0.000057, 0.000028, 0.102652, 0.049999, -0.000065, -0.017542, -0.001774, 0.000007, 0.000020, 0.000116, 0.000930, 0.000017, -0.382378, 0.025925, 0.000023, -0.000222, 0.000050, -0.001527, 0.258895, -0.000707, 0.002062, 0.000031, -0.000014, 0.000040, -0.003141, -0.000021, -0.000138, 0.000261, 0.000008, 0.000007, 0.000073, -0.574436, 0.000055, 0.056360, -0.000003, 0.000201, 0.000117, 0.000022, -0.000558, 0.000207, -0.000030, 0.000034, 0.000026, 0.401554, 0.000131, 0.000025, -0.000055, 0.000128, -0.000078, -0.000310, 0.000015, 0.357093, 0.000031, 0.000063, 0.040204, 0.000057, -0.001937, 0.000018, 0.000012, -0.000077, -0.000000, 0.000047, 0.000020, 0.000074, -0.000088, -0.000066},
{0.000070, 0.000052, -0.000310, -0.000012, -0.000292, 0.000271, -0.000006, -0.000038, 0.119999, 0.038168, 0.000013, -0.016432, -0.001793, -0.000312, -0.000019, 0.000068, 0.001217, 0.000009, -0.521734, 0.023939, 0.000069, -0.000072, 0.000055, -0.001774, 0.336729, -0.000897, -0.071146, -0.000047, -0.000004, 0.000058, -0.004321, 0.000036, 0.000054, 0.000481, -0.000011, -0.000066, 0.000059, -0.660068, -0.000034, 0.050359, -0.000020, -0.000041, 0.000047, 0.000026, -0.000343, 0.000186, 0.000042, -0.000027, 0.000019, 0.438947, -0.000182, 0.000026, -0.000068, 0.000044, -0.000078, -0.000356, 0.000023, 0.380577, 0.000027, 0.000052, -0.013132, -0.000265, -0.002060, -0.000031, -0.000029, 0.000003, -0.000102, -0.000052, -0.000047, 0.000021, -0.000102, 0.000014},
{0.000044, -0.000052, 0.000015, 0.000072, 0.000005, 0.000049, -0.000042, -0.000022, 0.087011, 0.052795, 0.000033, -0.016240, -0.002015, -0.000263, 0.000021, -0.000037, 0.001335, -0.000070, -0.424784, 0.036548, -0.000060, -0.000059, 0.000006, -0.002136, 0.288881, -0.001153, -0.124883, 0.000093, -0.000004, -0.000035, -0.003521, -0.000031, 0.000121, 0.000444, -0.000034, -0.000037, 0.000016, -0.497199, 0.000045, 0.065013, 0.000010, 0.000135, -0.000009, 0.000047, -0.000175, 0.000034, 0.000050, -0.000024, -0.000169, 0.362299, 0.000135, -0.000011, -0.000051, -0.000035, -0.000050, 0.000164, 0.000012, 0.221772, 0.000041, -0.000053, 0.001228, 0.000030, -0.002335, -0.000025, 0.000008, 0.000043, 0.000006, 0.000024, -0.000012, -0.000038, 0.000046, 0.000002},
{0.000006, 0.000027, -0.000013, 0.000032, -0.000238, 0.000035, 0.000014, 0.000018, 0.006893, 0.087085, -0.000031, -0.015793, -0.001763, 0.000014, -0.000031, -0.000015, 0.001051, 0.000025, -0.368618, 0.070781, 0.000016, -0.000067, 0.000032, -0.001704, 0.385693, -0.001123, -0.032552, -0.000049, 0.000051, 0.000027, -0.003748, 0.000027, -0.000171, 0.000130, 0.000001, 0.000039, -0.000020, -0.623122, -0.000024, 0.114635, -0.000018, -0.000026, 0.000039, -0.000039, -0.000029, 0.000217, 0.000090, 0.000013, 0.000002, 0.486145, -0.000352, 0.000047, -0.000052, -0.000077, 0.000081, 0.000287, 0.000000, 0.273103, -0.000014, -0.000046, -0.208027, -0.000080, -0.002520, 0.000036, -0.000076, 0.000008, -0.000028, -0.000086, 0.000026, -0.000003, 0.000100, -0.000078},
{0.000017, -0.000022, -0.000062, -0.000051, -0.000286, 0.000065, -0.000007, -0.000170, -0.210224, 0.088984, 0.000008, -0.016629, -0.002128, -0.000177, -0.000029, 0.000035, 0.001049, 0.000005, -0.111616, 0.070536, 0.000067, 0.000063, 0.000042, -0.001858, 0.288044, -0.000642, 0.005421, 0.000006, -0.000004, 0.000012, -0.004216, 0.000039, -0.000049, -0.000095, 0.000005, -0.000008, 0.000057, -0.578785, 0.000025, 0.108762, 0.000017, 0.000038, 0.000024, 0.000037, -0.000554, 0.000137, 0.000065, 0.000047, -0.000053, 0.499296, 0.000027, -0.000086, 0.000031, -0.000084, 0.000019, 0.000162, -0.000031, 0.333646, -0.000018, 0.000044, -0.250612, 0.000164, -0.002674, 0.000009, -0.000073, -0.000035, 0.000013, -0.000111, 0.000024, -0.000074, 0.000005, -0.000073},
{-0.000042, 0.000152, 0.000005, -0.000406, -0.000207, -0.000108, -0.000069, 0.000031, -0.353845, 0.068672, 0.000047, -0.016333, -0.001980, -0.000009, -0.000009, -0.000034, 0.001184, -0.000035, 0.157601, 0.044312, -0.000022, 0.000109, -0.000006, -0.001215, 0.099651, -0.000526, -0.008990, 0.000104, -0.000077, -0.000037, -0.003028, -0.000000, -0.000072, -0.000200, 0.000005, 0.000033, 0.000002, -0.373316, -0.000065, 0.072317, 0.000009, 0.000225, 0.000124, -0.000057, -0.000158, -0.000072, -0.000015, -0.000002, 0.000026, 0.565583, -0.000104, -0.000021, 0.000053, 0.000095, 0.000059, 0.000124, -0.000060, 0.308728, -0.000107, 0.000015, -0.359994, 0.000067, -0.002817, 0.000014, -0.000015, -0.000043, -0.000017, 0.000024, 0.000009, -0.000033, 0.000020, 0.000091},
{-0.000014, 0.000061, -0.000168, -0.000070, -0.000255, 0.000048, 0.000038, -0.000053, -0.368703, 0.048042, -0.000030, -0.015161, -0.002283, -0.000119, 0.000009, 0.000077, 0.001204, -0.000013, 0.368124, 0.026324, -0.000044, -0.000280, -0.000050, -0.001879, -0.016765, -0.000610, 0.140901, -0.000006, 0.000006, -0.000017, -0.003651, 0.000008, -0.000039, 0.000019, -0.000052, -0.000004, 0.000064, -0.077446, -0.000009, 0.047378, 0.000024, 0.000101, -0.000021, 0.000006, -0.000515, 0.000030, 0.000009, 0.000061, 0.000019, 0.442419, -0.000362, 0.000047, 0.000024, 0.000088, 0.000059, 0.000013, -0.000010, 0.447953, 0.000023, -0.000055, -0.363347, 0.000054, -0.002817, -0.000031, 0.000091, -0.000036, -0.000016, 0.000071, 0.000049, 0.000058, 0.000262, 0.000039},
{-0.000012, 0.000055, -0.000251, -0.000364, 0.000001, -0.000237, -0.000006, -0.000002, -0.482514, 0.039850, 0.000159, -0.015652, -0.002078, -0.000102, -0.000017, -0.000043, 0.000986, 0.000003, 0.472737, 0.022276, -0.000050, 0.000028, -0.000035, -0.002009, -0.299993, 0.000122, 0.023053, -0.000076, -0.000012, -0.000032, -0.003945, -0.000002, -0.000020, -0.000131, 0.000014, -0.000013, 0.000023, 0.260617, 0.000051, 0.051053, 0.000014, -0.000182, 0.000059, -0.000121, -0.000016, 0.000327, -0.000024, 0.000173, 0.000029, 0.382124, -0.000269, -0.000153, 0.000053, 0.000043, 0.000002, 0.000112, -0.000068, 0.348451, -0.000032, -0.000025, -0.372061, 0.000121, -0.002716, -0.000003, -0.000025, -0.000005, 0.000031, 0.000069, -0.000010, -0.000017, -0.000060, 0.000120},
{0.000018, 0.000129, 0.000026, -0.000495, 0.000060, -0.000026, -0.000079, 0.000102, -0.619996, 0.061022, 0.000007, -0.015172, -0.001815, -0.000020, 0.000031, 0.000007, 0.001214, -0.000064, 0.466193, 0.036059, -0.000009, 0.000046, 0.000044, -0.001307, -0.451726, 0.000104, 0.120690, -0.000164, 0.000067, -0.000065, -0.003615, 0.000005, 0.000014, 0.000146, 0.000014, 0.000015, -0.000047, 0.386681, 0.000026, 0.061834, 0.000010, -0.000033, -0.000034, 0.000007, -0.000452, 0.000215, -0.000030, -0.000081, -0.000091, 0.271688, -0.000060, -0.000009, 0.000049, -0.000033, 0.000034, 0.000133, 0.000017, 0.153935, 0.000034, 0.000041, -0.471099, 0.000095, -0.002530, 0.000044, 0.000015, 0.000026, 0.000100, 0.000119, -0.000038, 0.000068, -0.000054, 0.000029},
{-0.000024, 0.000014, 0.000116, -0.000063, -0.000038, 0.000186, 0.000071, -0.000012, -0.572509, 0.062034, -0.000000, -0.015177, -0.002131, -0.000176, 0.000025, 0.000028, 0.001173, 0.000090, 0.405567, 0.048363, 0.000034, -0.000200, 0.000020, -0.001781, -0.462368, 0.000257, 0.011131, 0.000110, -0.000030, -0.000012, -0.003414, 0.000003, -0.000031, 0.000581, 0.000022, -0.000004, -0.000026, 0.303395, 0.000069, 0.096161, 0.000032, 0.000144, -0.000060, -0.000013, -0.000423, 0.000142, 0.000007, 0.000121, 0.000047, 0.048962, -0.000371, 0.000023, -0.000049, 0.000002, 0.000040, 0.000195, -0.000122, -0.038744, -0.000018, -0.000025, -0.501936, -0.000094, -0.002255, 0.000004, -0.000010, -0.000051, -0.000014, 0.000078, -0.000005, -0.000003, 0.000037, 0.000062},
{-0.000019, 0.000198, -0.000045, -0.000463, -0.000131, -0.000367, 0.000034, 0.000040, -0.620174, 0.080221, 0.000045, -0.015860, -0.001846, -0.000009, -0.000012, -0.000059, 0.001235, -0.000020, 0.194942, 0.061464, 0.000020, -0.000463, -0.000039, -0.001742, -0.383449, -0.000048, 0.057896, 0.000117, -0.000011, -0.000011, -0.003262, -0.000020, 0.000103, 0.000390, 0.000005, -0.000021, 0.000076, 0.318227, 0.000021, 0.116487, -0.000003, -0.000116, -0.000027, -0.000032, -0.000197, -0.000018, -0.000001, -0.000091, 0.000109, 0.048451, -0.000301, -0.000028, -0.000132, 0.000031, 0.000064, -0.000014, 0.000008, -0.027886, -0.000045, 0.000052, -0.367458, 0.000107, -0.001965, -0.000129, 0.000019, -0.000015, -0.000002, -0.000011, -0.000010, 0.000018, 0.000051, -0.000032},
{0.000012, -0.000003, 0.000062, -0.000303, -0.000113, 0.000270, 0.000017, 0.000028, -0.699339, 0.080307, 0.000010, -0.016585, -0.002010, -0.000164, -0.000077, -0.000024, 0.001256, 0.000025, 0.401536, 0.056615, -0.000016, -0.000252, -0.000054, -0.002273, -0.205057, -0.000722, 0.084484, -0.000094, 0.000019, -0.000033, -0.004649, -0.000014, 0.000091, -0.000247, -0.000003, 0.000000, 0.000020, 0.442213, -0.000043, 0.108217, 0.000003, -0.000060, -0.000065, 0.000008, 0.000046, 0.000299, 0.000002, 0.000044, -0.000047, 0.138633, -0.000262, 0.000016, -0.000132, 0.000063, -0.000081, 0.000034, 0.000082, -0.195216, 0.000008, -0.000029, -0.352742, 0.000042, -0.001625, 0.000039, 0.000001, -0.000055, -0.000001, -0.000026, 0.000027, -0.000029, -0.000019, -0.000052},
{-0.000008, -0.000009, -0.000120, -0.000332, -0.000220, 0.000049, -0.000060, 0.000012, -0.686314, 0.060395, 0.000026, -0.016221, -0.002172, -0.000149, -0.000046, -0.000079, 0.001164, -0.000017, 0.546707, 0.043409, -0.000058, -0.000106, -0.000008, -0.002091, 0.031800, -0.000613, 0.096916, -0.000001, -0.000028, -0.000036, -0.003491, -0.000011, -0.000345, -0.000191, -0.000010, 0.000024, 0.000026, 0.513565, -0.000064, 0.069772, -0.000002, -0.000035, 0.000033, 0.000120, 0.000062, 0.000282, 0.000017, 0.000046, -0.000092, 0.147154, -0.000274, 0.000088, 0.000007, 0.000085, -0.000022, 0.000154, 0.000040, -0.389659, 0.000002, 0.000058, -0.174790, 0.000162, -0.001346, 0.000005, 0.000068, 0.000042, 0.000015, -0.000046, 0.000001, 0.000100, -0.000016, 0.000009},
{-0.000024, 0.000133, -0.000049, 0.000026, -0.000126, 0.000260, -0.000067, 0.000036, -0.737104, 0.048557, -0.000019, -0.016242, -0.002225, -0.000016, -0.000030, -0.000024, 0.000969, 0.000064, 0.611622, 0.031149, -0.000042, -0.000294, 0.000026, -0.002170, 0.110567, -0.000617, 0.197129, 0.000024, 0.000003, -0.000030, -0.004030, 0.000012, -0.000136, 0.000309, -0.000012, 0.000027, 0.000009, 0.554907, -0.000047, 0.063668, 0.000002, -0.000160, -0.000029, -0.000007, 0.000099, 0.000176, 0.000032, 0.000018, -0.000016, 0.198066, -0.000257, 0.000003, -0.000130, -0.000127, -0.000128, 0.000246, -0.000042, -0.439308, -0.000011, 0.000032, -0.032000, -0.000143, -0.001123, 0.000011, -0.000080, -0.000007, 0.000101, 0.000003, 0.000006, -0.000136, 0.000104, 0.000096},
{0.000117, -0.000238, 0.000123, -0.000001, -0.000181, -0.000096, -0.000001, 0.000059, -0.722402, 0.034320, -0.000017, -0.016821, -0.001643, -0.000274, 0.000019, 0.000045, 0.001148, -0.000034, 0.627400, 0.021817, 0.000072, -0.000288, 0.000045, -0.001797, 0.302135, -0.000174, 0.256685, 0.000064, -0.000025, 0.000020, -0.003120, 0.000034, -0.000144, 0.000678, -0.000019, -0.000025, 0.000002, 0.494410, -0.000046, 0.055916, 0.000008, -0.000013, 0.000033, 0.000019, 0.000040, 0.000210, -0.000053, -0.000011, -0.000092, 0.282328, -0.000169, -0.000032, 0.000074, 0.000028, -0.000069, 0.000126, 0.000004, -0.493454, 0.000046, 0.000105, 0.122317, 0.000178, -0.000928, 0.000007, 0.000027, -0.000024, 0.000019, 0.000149, -0.000030, 0.000070, 0.000003, -0.000078},
{0.000007, -0.000119, 0.000124, 0.000004, -0.000072, -0.000328, 0.000054, 0.000055, -0.557567, 0.036929, 0.000011, -0.016974, -0.001830, -0.000179, -0.000143, -0.000031, 0.001090, 0.000062, 0.654264, 0.018508, -0.000015, -0.000376, 0.000007, -0.002040, 0.271101, -0.000208, 0.065291, -0.000040, 0.000073, 0.000018, -0.003256, 0.000022, -0.000086, 0.000599, -0.000023, -0.000007, 0.000022, 0.488322, 0.000011, 0.049022, 0.000006, 0.000023, -0.000056, -0.000025, -0.000061, 0.000361, -0.000049, -0.000027, 0.000028, 0.071855, 0.000051, -0.000033, 0.000096, -0.000012, 0.000087, 0.000072, -0.000008, -0.232171, -0.000033, 0.000022, 0.240054, 0.000042, -0.000865, 0.000058, -0.000013, 0.000014, -0.000016, 0.000083, 0.000008, 0.000023, 0.000020, -0.000092},
{-0.000016, 0.000027, -0.000141, -0.000418, -0.000240, 0.000049, -0.000052, 0.000019, -0.626500, 0.053697, -0.000031, -0.017070, -0.001343, -0.000100, 0.000019, 0.000125, 0.001129, 0.000021, 0.578785, 0.035770, 0.000054, -0.000235, -0.000001, -0.001732, 0.190251, 0.000040, 0.104360, -0.000019, 0.000005, 0.000008, -0.003109, 0.000011, 0.000059, 0.000544, 0.000007, 0.000043, 0.000026, 0.330985, -0.000024, 0.058640, 0.000001, -0.000020, 0.000053, 0.000037, -0.000284, -0.000024, 0.000099, 0.000152, -0.000046, 0.102797, 0.000082, 0.000026, 0.000002, 0.000005, -0.000029, 0.000178, 0.000042, -0.420641, -0.000031, -0.000031, 0.173569, 0.000102, -0.000925, 0.000060, -0.000026, -0.000015, 0.000006, 0.000062, -0.000001, 0.000047, -0.000053, 0.000086},
{0.000019, 0.000094, -0.000011, -0.000194, 0.000008, 0.000280, -0.000005, 0.000057, -0.638356, 0.085123, -0.000000, -0.016694, -0.001314, -0.000246, -0.000001, -0.000076, 0.000960, -0.000024, 0.435217, 0.063453, -0.000074, -0.000046, 0.000021, -0.001523, 0.051732, -0.000917, -0.089978, 0.000025, -0.000030, 0.000038, -0.003130, 0.000040, 0.000009, 0.000338, -0.000013, 0.000015, 0.000007, 0.307970, -0.000025, 0.102349, 0.000024, -0.000029, -0.000049, -0.000030, -0.000370, -0.000001, 0.000072, -0.000013, 0.000158, -0.000104, -0.000009, -0.000028, 0.000053, -0.000010, -0.000051, 0.000074, 0.000026, -0.267178, 0.000014, -0.000065, 0.085636, 0.000003, -0.000915, -0.000022, -0.000010, 0.000009, 0.000038, 0.000018, 0.000016, -0.000028, -0.000067, 0.000006},
{-0.000018, 0.000043, -0.000105, 0.000079, -0.000181, 0.000445, -0.000117, -0.000046, -0.476056, 0.102200, -0.000025, -0.015807, -0.001130, -0.000155, -0.000011, 0.000062, 0.001169, 0.000030, 0.059484, 0.074039, 0.000099, -0.000179, -0.000122, -0.002082, 0.078155, -0.000776, -0.003599, -0.000025, -0.000002, -0.000094, -0.003352, 0.000005, 0.000101, 0.000526, -0.000031, 0.000001, 0.000037, 0.297508, -0.000033, 0.129563, 0.000006, -0.000010, 0.000065, -0.000003, 0.000040, 0.000199, -0.000118, 0.000037, -0.000014, -0.124258, 0.000047, -0.000033, 0.000008, -0.000126, 0.000005, 0.000139, 0.000076, -0.170830, -0.000022, 0.000101, -0.002757, -0.000135, -0.001153, -0.000024, -0.000052, -0.000103, -0.000017, -0.000050, 0.000001, -0.000105, -0.000027, 0.000059},
{0.000038, -0.000000, 0.000097, -0.000522, -0.000311, 0.000030, 0.000050, -0.000044, -0.508977, 0.103363, -0.000035, -0.014160, -0.001047, -0.000226, -0.000044, 0.000036, 0.001062, -0.000037, 0.105912, 0.071900, 0.000037, -0.000047, 0.000035, -0.001420, 0.002467, -0.000651, 0.141912, 0.000034, -0.000024, 0.000052, -0.003299, -0.000087, 0.000029, 0.000643, 0.000027, -0.000056, -0.000026, 0.132188, 0.000011, 0.109826, -0.000007, -0.000074, 0.000081, 0.000051, -0.000274, 0.000215, 0.000025, 0.000031, -0.000049, -0.397071, -0.000306, -0.000014, -0.000047, -0.000013, -0.000015, 0.000213, -0.000009, -0.044886, -0.000046, -0.000116, -0.036241, -0.000033, -0.001324, -0.000025, 0.000034, 0.000017, -0.000046, -0.000003, -0.000013, -0.000082, 0.000037, 0.000039},
{0.000017, -0.000029, -0.000167, -0.000115, -0.000276, 0.000204, 0.000015, 0.000128, -0.430118, 0.092312, 0.000012, -0.013907, -0.001210, -0.000231, -0.000026, 0.000033, 0.001054, 0.000066, 0.028071, 0.061282, -0.000002, -0.000236, -0.000015, -0.001134, -0.037625, -0.001096, 0.174532, 0.000051, -0.000014, 0.000048, -0.003330, -0.000001, -0.000123, 0.000657, 0.000010, -0.000014, 0.000008, -0.007059, 0.000049, 0.122587, -0.000005, 0.000126, -0.000025, -0.000046, -0.000295, 0.000167, -0.000109, 0.000038, 0.000063, -0.395868, -0.000101, 0.000064, -0.000024, 0.000055, 0.000044, 0.000201, -0.000044, -0.024876, -0.000007, 0.000030, 0.036283, -0.000081, -0.001453, 0.000012, -0.000002, -0.000052, -0.000100, 0.000060, 0.000036, 0.000015, -0.000091, -0.000055},
{-0.000001, -0.000065, -0.000169, -0.000450, -0.000053, 0.000230, -0.000019, 0.000056, -0.373958, 0.026094, -0.000032, -0.013713, -0.000970, -0.000217, 0.000015, -0.000010, 0.001336, 0.000025, -0.122780, 0.015703, -0.000041, -0.000146, 0.000037, -0.002131, 0.036896, -0.001564, 0.173629, -0.000009, -0.000029, -0.000021, -0.003013, -0.000023, 0.000053, 0.000636, 0.000005, 0.000008, -0.000056, -0.027138, -0.000048, 0.038294, -0.000000, 0.000010, 0.000048, -0.000043, -0.000284, -0.000068, -0.000275, -0.000108, -0.000001, -0.477877, 0.000044, -0.000081, 0.000023, 0.000035, -0.000010, -0.000173, -0.000048, 0.075904, 0.000018, 0.000030, 0.062567, -0.000120, -0.001632, -0.000035, 0.000004, 0.000025, -0.000113, 0.000058, 0.000004, -0.000056, 0.000012, 0.000050},
{0.000028, -0.000056, -0.000144, -0.000109, -0.000323, 0.000257, -0.000019, -0.000132, -0.183357, -0.000337, -0.000033, -0.015278, -0.000865, -0.000241, 0.000018, -0.000114, 0.001154, 0.000025, -0.120015, -0.000290, -0.000096, -0.000195, -0.000018, -0.001497, 0.137246, -0.000451, 0.186100, -0.000017, -0.000044, -0.000050, -0.003656, -0.000054, -0.000056, 0.000535, 0.000002, -0.000024, 0.000056, -0.083515, 0.000004, 0.011681, -0.000019, -0.000031, 0.000069, -0.000071, 0.000025, 0.000072, -0.000050, -0.000228, -0.000066, -0.419509, -0.000031, 0.000032, 0.000014, 0.000023, 0.000073, -0.000006, -0.000015, 0.016843, -0.000015, 0.000052, 0.111650, 0.000134, -0.001633, 0.000001, 0.000013, 0.000015, 0.000034, 0.000006, 0.000018, 0.000001, 0.000053, -0.000037},
{-0.000036, -0.000105, -0.000040, 0.000108, -0.000077, 0.000054, -0.000013, 0.000034, -0.134157, -0.001825, -0.000035, -0.016309, -0.001189, -0.000220, -0.000013, 0.000157, 0.001042, -0.000067, -0.194191, -0.001305, -0.000032, -0.000318, 0.000052, -0.002048, 0.111688, -0.000056, 0.133732, -0.000070, -0.000015, -0.000001, -0.002609, -0.000007, 0.000079, 0.000623, -0.000010, -0.000003, 0.000019, 0.137650, 0.000029, -0.002265, 0.000042, -0.000053, -0.000098, 0.000026, -0.000290, 0.000177, -0.000069, 0.000081, 0.000020, -0.230448, -0.000306, 0.000091, -0.000007, -0.000050, 0.000082, -0.000190, -0.000198, -0.065394, 0.000023, -0.000018, 0.095712, 0.000004, -0.001706, -0.000003, -0.000039, -0.000019, -0.000013, -0.000033, 0.000003, -0.000025, -0.000029, 0.000003},
{-0.000007, -0.000104, 0.000018, 0.000100, -0.000361, -0.000202, -0.000045, 0.000041, 0.143348, -0.002097, 0.000010, -0.015976, -0.001440, -0.000021, 0.000147, -0.000055, 0.001024, 0.000023, -0.276414, -0.001603, 0.000008, -0.000306, 0.000007, -0.001262, -0.054758, 0.000097, 0.141131, 0.000066, -0.000009, -0.000131, -0.002649, 0.000014, 0.000064, 0.000671, -0.000020, 0.000029, 0.000011, 0.163969, -0.000048, -0.002588, 0.000014, 0.000080, -0.000008, -0.000120, -0.000242, 0.000256, 0.000124, 0.000156, 0.000049, -0.339294, -0.000208, 0.000048, -0.000031, -0.000150, -0.000106, 0.000128, 0.000010, 0.031065, -0.000001, -0.000030, 0.210909, 0.000127, -0.001723, 0.000001, -0.000017, 0.000003, -0.000043, 0.000019, -0.000062, -0.000025, -0.000027, -0.000027},
{-0.000029, -0.000017, -0.000147, -0.000346, -0.000225, -0.000100, -0.000059, 0.000245, 0.288415, -0.002003, -0.000009, -0.015325, -0.001167, -0.000253, -0.000020, -0.000201, 0.000982, 0.000016, -0.235087, -0.001669, -0.000012, 0.000243, 0.000014, -0.001789, -0.068071, 0.000152, 0.061490, -0.000002, 0.000034, -0.000050, -0.004220, 0.000024, 0.000053, 0.000585, 0.000012, 0.000021, 0.000016, -0.002353, 0.000024, -0.002396, -0.000001, -0.000049, 0.000014, 0.000019, 0.000124, 0.000053, -0.000156, 0.000227, -0.000004, -0.082715, 0.000048, -0.000067, 0.000026, -0.000103, -0.000103, 0.000022, -0.000019, -0.040133, -0.000003, -0.000078, 0.124459, 0.000063, -0.001845, 0.000019, -0.000006, -0.000031, -0.000113, 0.000000, -0.000014, 0.000012, 0.000029, -0.000013},
{-0.000034, 0.000053, -0.000285, -0.000401, -0.000205, 0.000072, -0.000016, -0.000147, 0.364411, -0.002460, -0.000038, -0.014098, -0.000932, -0.000199, 0.000040, -0.000011, 0.001210, -0.000019, -0.190026, -0.002092, 0.000011, 0.000011, -0.000015, -0.002461, -0.186568, -0.000126, 0.135557, 0.000046, -0.000010, 0.000004, -0.003767, -0.000037, 0.000044, 0.000341, 0.000014, 0.000027, 0.000025, 0.046199, 0.000049, -0.002845, 0.000012, -0.000051, -0.000056, -0.000050, -0.000095, 0.000150, -0.000067, -0.000130, 0.000030, -0.187027, 0.000100, 0.000071, 0.000008, -0.000088, -0.000032, 0.000099, 0.000000, 0.011812, 0.000065, 0.000079, 0.098102, 0.000130, -0.001862, -0.000029, -0.000022, 0.000014, -0.000007, -0.000004, 0.000018, 0.000052, -0.000093, 0.000024},
{0.000008, 0.000130, -0.000134, -0.000475, -0.000056, -0.000163, -0.000039, 0.000005, 0.493076, -0.001942, -0.000020, -0.013874, -0.000952, -0.000183, -0.000004, 0.000044, 0.001198, 0.000005, -0.127908, -0.001724, -0.000025, -0.000276, 0.000031, -0.001980, -0.096757, -0.000066, 0.151109, 0.000075, -0.000075, -0.000003, -0.003468, -0.000074, 0.000147, 0.000238, 0.000001, 0.000018, -0.000025, -0.183661, 0.000036, -0.002204, -0.000009, 0.000041, 0.000066, -0.000028, -0.000348, -0.000090, 0.000026, -0.000026, 0.000044, 0.007122, -0.000319, 0.000079, 0.000053, -0.000074, 0.000030, 0.000051, -0.000011, 0.016337, -0.000005, 0.000053, 0.249902, 0.000077, -0.001777, -0.000044, 0.000010, -0.000061, -0.000002, 0.000004, 0.000006, 0.000058, -0.000028, -0.000035},
{-0.000014, -0.000001, 0.000084, 0.000067, -0.000226, -0.000082, 0.000005, -0.000117, 0.479676, -0.000297, -0.000036, -0.013407, -0.001114, 0.000002, 0.000025, 0.000077, 0.001154, -0.000019, -0.334037, -0.000710, -0.000083, -0.000191, 0.000050, -0.002169, -0.148441, 0.000579, 0.291367, -0.000022, -0.000007, 0.000068, -0.002849, 0.000004, 0.000034, 0.000566, 0.000010, 0.000002, -0.000038, -0.380724, -0.000049, 0.008896, -0.000007, 0.000241, -0.000124, 0.000041, -0.000369, -0.000010, -0.000260, -0.000140, 0.000047, -0.088294, -0.000223, -0.000010, -0.000008, -0.000006, -0.000124, -0.000107, -0.000022, 0.062312, 0.000018, -0.000007, 0.295367, 0.000049, -0.001630, 0.000073, -0.000045, 0.000049, -0.000006, -0.000008, 0.000008, -0.000086, -0.000059, -0.000018},
{0.000038, -0.000002, -0.000039, -0.000275, -0.000336, 0.000421, 0.000029, 0.000089, 0.371503, 0.030466, -0.000053, -0.014175, -0.001378, -0.000050, -0.000011, 0.000072, 0.001192, -0.000061, -0.436007, 0.018194, 0.000017, 0.000108, 0.000011, -0.002095, -0.210910, -0.000128, 0.115159, 0.000018, 0.000019, 0.000058, -0.003753, -0.000012, -0.000048, 0.000665, -0.000009, -0.000014, 0.000007, -0.363861, -0.000023, 0.052043, 0.000014, 0.000136, -0.000075, 0.000032, -0.000442, 0.000028, -0.000017, 0.000014, -0.000020, -0.133428, 0.000004, -0.000154, -0.000034, -0.000052, 0.000046, 0.000086, 0.000066, 0.288230, -0.000015, -0.000053, 0.256824, -0.000077, -0.001444, 0.000050, 0.000027, -0.000062, -0.000052, -0.000047, 0.000017, -0.000062, 0.000073, 0.000008},
{0.000007, -0.000003, -0.000031, -0.000217, -0.000054, -0.000208, 0.000028, 0.000139, 0.163725, 0.060936, 0.000015, -0.014817, -0.001299, 0.000008, 0.000041, -0.000074, 0.000693, 0.000037, -0.465950, 0.043351, -0.000113, -0.000274, -0.000014, -0.001605, -0.264679, -0.000172, 0.170466, -0.000000, 0.000019, 0.000011, -0.004162, -0.000020, -0.000054, 0.000643, 0.000003, -0.000000, -0.000037, -0.397466, 0.000007, 0.073489, -0.000028, -0.000251, -0.000017, -0.000003, -0.000409, -0.000006, -0.000096, 0.000131, -0.000003, -0.268937, -0.000141, 0.000020, -0.000039, 0.000171, 0.000035, 0.000008, -0.000134, 0.214224, 0.000023, 0.000031, 0.109235, 0.000054, -0.001307, 0.000013, 0.000003, 0.000067, 0.000114, 0.000171, -0.000027, 0.000011, 0.000054, -0.000025},
{0.000031, -0.000036, -0.000226, 0.000031, -0.000186, -0.000113, 0.000040, -0.000037, -0.016734, 0.076239, 0.000002, -0.013692, -0.001331, -0.000093, -0.000034, -0.000018, 0.001209, -0.000048, -0.490754, 0.051634, 0.000071, -0.000208, 0.000000, -0.001908, -0.081731, 0.000332, 0.237339, -0.000012, -0.000015, 0.000009, -0.003526, -0.000004, 0.000120, 0.000399, -0.000019, -0.000011, -0.000072, -0.536135, -0.000046, 0.081154, 0.000025, -0.000070, -0.000089, 0.000071, -0.000344, 0.000206, 0.000139, 0.000030, 0.000040, -0.070006, 0.000039, 0.000025, -0.000019, 0.000012, 0.000068, 0.000069, -0.000008, 0.259267, -0.000031, -0.000048, -0.008466, 0.000096, -0.001212, 0.000023, 0.000028, -0.000068, 0.000059, 0.000026, 0.000000, 0.000012, -0.000055, 0.000005},
{-0.000020, -0.000014, -0.000192, -0.000153, -0.000285, -0.000076, 0.000036, 0.000015, 0.010550, 0.033984, -0.000015, -0.012838, -0.000967, -0.000028, 0.000013, -0.000102, 0.001129, -0.000035, -0.323262, 0.018940, -0.000032, 0.000100, -0.000069, -0.001475, 0.053373, -0.000665, 0.289996, 0.000006, 0.000014, -0.000013, -0.002748, 0.000013, -0.000062, 0.000643, 0.000002, 0.000017, -0.000008, -0.445038, -0.000028, 0.038566, -0.000004, -0.000151, 0.000080, 0.000087, -0.000027, 0.000052, -0.000021, -0.000009, -0.000036, -0.001618, -0.000171, 0.000012, 0.000073, 0.000038, 0.000038, 0.000149, -0.000049, 0.357209, -0.000156, -0.000052, -0.000218, -0.000165, -0.001234, 0.000012, 0.000098, 0.000009, -0.000059, 0.000024, 0.000026, -0.000018, 0.000020, -0.000016},
{-0.000019, 0.000063, -0.000145, -0.000196, -0.000152, 0.000373, 0.000046, 0.000031, 0.090549, 0.011052, 0.000016, -0.012882, -0.001152, -0.000186, -0.000026, 0.000023, 0.001371, -0.000007, 0.014448, 0.002280, -0.000128, 0.000096, 0.000112, -0.001627, 0.166593, 0.000039, 0.211497, 0.000093, 0.000002, -0.000047, -0.003139, 0.000057, -0.000096, 0.000674, -0.000013, 0.000014, 0.000018, -0.335500, 0.000090, 0.016552, 0.000019, 0.000041, 0.000049, 0.000040, -0.000025, 0.000198, 0.000001, -0.000035, -0.000031, 0.110954, -0.000352, -0.000047, 0.000038, 0.000057, -0.000031, 0.000162, 0.000019, 0.177148, 0.000051, -0.000036, -0.022969, 0.000025, -0.001371, -0.000065, 0.000042, 0.000028, -0.000021, -0.000023, -0.000045, 0.000093, 0.000078, 0.000023},
{-0.000003, -0.000017, -0.000217, -0.000245, -0.000306, 0.000067, 0.000017, 0.000068, 0.091365, -0.001437, 0.000034, -0.011275, -0.001259, -0.000197, -0.000009, -0.000033, 0.001214, 0.000101, 0.280257, -0.001278, 0.000146, -0.000150, -0.000012, -0.001124, 0.113689, -0.000101, 0.064821, 0.000025, -0.000023, -0.000030, -0.002705, -0.000021, -0.000051, 0.000602, -0.000024, -0.000007, 0.000140, -0.073850, -0.000002, -0.001422, 0.000025, 0.000098, 0.000039, 0.000036, -0.000099, 0.000075, -0.000032, 0.000097, 0.000038, 0.119437, -0.000103, 0.000027, 0.000027, 0.000006, -0.000062, 0.000138, 0.000011, 0.205950, 0.000009, -0.000079, -0.157097, -0.000070, -0.001645, 0.000019, -0.000029, -0.000087, 0.000006, -0.000006, -0.000012, -0.000073, -0.000064, 0.000017},
{0.000039, 0.000053, -0.000170, -0.000382, -0.000290, 0.000466, 0.000040, 0.000050, -0.081347, 0.003282, 0.000013, -0.010428, -0.001437, -0.000328, 0.000086, 0.000033, 0.000822, -0.000021, 0.429216, -0.000332, 0.000051, -0.000157, 0.000003, -0.000651, 0.059982, 0.000358, 0.105084, -0.000009, -0.000025, -0.000049, -0.002914, -0.000007, -0.000171, 0.000651, 0.000008, 0.000007, -0.000053, -0.044847, -0.000091, 0.008295, -0.000006, -0.000022, 0.000062, 0.000014, -0.000289, 0.000331, -0.000033, -0.000025, -0.000066, 0.203124, 0.000010, 0.000045, 0.000128, -0.000085, -0.000055, 0.000233, 0.000078, -0.009846, -0.000026, -0.000020, -0.165037, 0.000006, -0.001887, 0.000028, 0.000037, 0.000060, 0.000075, 0.000056, 0.000004, 0.000051, 0.000029, 0.000055},
{-0.000041, -0.000096, -0.000091, 0.000099, -0.000142, 0.000203, -0.000001, 0.000069, -0.122693, 0.028969, -0.000021, -0.010248, -0.001010, -0.000235, -0.000017, 0.000003, 0.001044, 0.000004, 0.537570, 0.010978, 0.000030, -0.000021, -0.000108, -0.000602, 0.214730, -0.000458, 0.060366, 0.000004, 0.000025, -0.000172, -0.002696, 0.000012, 0.000078, 0.000584, -0.000003, 0.000021, -0.000020, -0.087454, -0.000021, 0.028526, 0.000010, -0.000123, 0.000022, 0.000015, -0.000214, 0.000161, -0.000109, 0.000002, 0.000034, 0.169619, -0.000282, 0.000057, 0.000066, -0.000212, 0.000055, 0.000032, -0.000024, -0.107794, -0.000019, 0.000079, -0.315628, -0.000031, -0.002279, 0.000018, 0.000012, 0.000027, -0.000032, -0.000003, -0.000026, 0.000020, 0.000032, 0.000109},
{-0.000171, 0.000053, -0.000305, -0.000058, -0.000001, -0.000124, 0.000035, 0.000033, -0.272836, 0.060117, -0.000092, -0.010018, -0.001109, -0.000333, 0.000068, 0.000070, 0.001079, -0.000061, 0.315384, 0.045864, -0.000079, 0.000076, 0.000007, -0.000856, 0.315530, -0.000212, -0.069585, 0.000107, -0.000016, -0.000073, -0.002688, 0.000003, 0.000051, 0.000560, -0.000001, -0.000012, 0.000072, 0.020166, 0.000073, 0.097724, 0.000004, 0.000197, -0.000029, 0.000014, -0.000343, 0.000190, -0.000185, 0.000092, -0.000032, 0.078973, 0.000048, -0.000025, 0.000030, -0.000080, -0.000002, -0.000051, 0.000094, -0.117545, -0.000023, 0.000052, -0.302098, -0.000065, -0.002502, 0.000005, 0.000005, 0.000028, 0.000023, 0.000072, -0.000001, 0.000038, 0.000020, -0.000029},
{-0.000005, 0.000016, -0.000159, 0.000069, -0.000165, 0.000025, 0.000021, 0.000011, -0.349363, 0.090109, -0.000003, -0.010699, -0.001315, -0.000027, 0.000040, -0.000063, 0.001180, -0.000004, 0.225032, 0.061605, -0.000027, -0.000141, -0.000019, -0.001635, 0.309601, 0.000393, -0.095194, 0.000036, -0.000042, -0.000086, -0.002769, 0.000039, 0.000030, 0.000683, -0.000024, 0.000005, 0.000009, -0.123875, -0.000124, 0.098368, 0.000007, 0.000012, 0.000044, 0.000060, -0.000303, -0.000169, 0.000105, 0.000099, 0.000023, 0.082789, -0.000309, -0.000003, 0.000039, 0.000068, 0.000069, -0.000011, -0.000014, -0.001851, -0.000002, 0.000030, -0.461944, -0.000036, -0.002618, 0.000005, -0.000036, -0.000077, -0.000059, 0.000090, -0.000007, -0.000051, -0.000013, -0.000012},
{0.000004, 0.000022, 0.000019, -0.000408, -0.000244, 0.000282, 0.000003, 0.000087, -0.466573, 0.077672, 0.000019, -0.010537, -0.001629, -0.000090, -0.000053, -0.000045, 0.001124, -0.000017, 0.139639, 0.058161, 0.000038, -0.000162, -0.000055, -0.001683, 0.328259, -0.000425, -0.157764, 0.000037, 0.000021, -0.000170, -0.003113, 0.000058, 0.000021, 0.000530, 0.000003, -0.000001, -0.000014, -0.094793, -0.000025, 0.112824, -0.000019, -0.000198, 0.000053, 0.000035, -0.000354, 0.000162, 0.000092, -0.000035, 0.000024, 0.247176, -0.000088, 0.000014, -0.000015, 0.000090, -0.000035, 0.000180, -0.000034, 0.114824, -0.000027, -0.000135, -0.458439, -0.000074, -0.002548, -0.000041, 0.000022, -0.000015, -0.000031, 0.000031, -0.000008, -0.000021, 0.000022, 0.000046},
{-0.000001, -0.000020, -0.000008, -0.000487, -0.000265, 0.000303, 0.000021, 0.000023, -0.361079, 0.054187, -0.000024, -0.011222, -0.001315, -0.000233, 0.000001, 0.000022, 0.001103, -0.000076, 0.162261, 0.043340, 0.000129, -0.000221, 0.000048, -0.001666, 0.453730, 0.000376, -0.274047, -0.000096, 0.000008, 0.000012, -0.003411, 0.000028, 0.000061, 0.000530, 0.000015, -0.000004, -0.000020, 0.027427, -0.000018, 0.096061, 0.000015, -0.000063, -0.000049, 0.000069, -0.000353, 0.000268, 0.000086, 0.000065, -0.000046, 0.301746, 0.000147, -0.000091, -0.000016, 0.000063, 0.000053, 0.000109, 0.000011, 0.161418, 0.000022, -0.000024, -0.325020, 0.000100, -0.002441, -0.000018, -0.000022, 0.000034, -0.000034, 0.000006, 0.000030, 0.000018, -0.000001, -0.000088},
{0.000038, 0.000104, -0.000109, -0.000608, -0.000015, 0.000217, 0.000031, 0.000008, -0.329374, 0.041071, 0.000058, -0.011957, -0.001486, -0.000232, -0.000033, -0.000049, 0.001138, 0.000032, 0.293975, 0.023459, 0.000052, 0.000057, -0.000004, -0.001509, 0.297390, -0.000084, -0.288376, 0.000027, 0.000016, -0.000050, -0.002953, -0.000001, -0.000105, 0.000456, 0.000007, 0.000019, 0.000015, -0.065367, -0.000024, 0.070518, 0.000001, 0.000180, -0.000091, 0.000061, -0.000065, 0.000261, -0.000068, 0.000104, -0.000038, 0.351494, -0.000078, 0.000028, 0.000021, -0.000073, 0.000009, 0.000158, -0.000018, 0.093813, -0.000042, -0.000035, -0.227310, 0.000149, -0.002245, -0.000011, -0.000006, -0.000061, -0.000033, 0.000047, 0.000028, -0.000002, 0.000040, 0.000054},
{-0.000037, 0.000075, -0.000110, -0.000169, -0.000113, 0.000153, 0.000059, -0.000008, -0.240802, 0.025579, -0.000076, -0.011925, -0.001542, -0.000119, -0.000019, -0.000061, 0.000913, -0.000110, 0.307924, 0.010155, -0.000004, -0.000327, 0.000044, -0.001299, 0.271918, -0.000345, -0.154825, -0.000004, -0.000012, 0.000054, -0.003194, -0.000057, 0.000156, 0.000632, -0.000014, -0.000014, 0.000048, 0.122641, -0.000018, 0.045177, -0.000009, -0.000001, -0.000003, -0.000018, -0.000010, 0.000126, -0.000070, 0.000048, -0.000024, 0.226822, -0.000020, -0.000090, 0.000018, 0.000056, 0.000035, -0.000065, 0.000043, 0.044474, -0.000029, -0.000106, -0.058674, -0.000033, -0.001965, -0.000067, -0.000037, -0.000019, -0.000036, 0.000041, 0.000035, -0.000032, 0.000039, 0.000032},
{0.000117, 0.000013, -0.000108, -0.000351, -0.000083, 0.000151, 0.000007, 0.000006, -0.382865, 0.033455, -0.000030, -0.012800, -0.001187, -0.000197, 0.000013, -0.000095, 0.001107, 0.000017, 0.307159, 0.014556, 0.000009, -0.000051, -0.000053, -0.000964, 0.400017, 0.000247, -0.281226, 0.000012, 0.000018, -0.000061, -0.003357, 0.000000, 0.000066, 0.000529, -0.000001, -0.000073, -0.000019, -0.010768, -0.000028, 0.049475, 0.000034, 0.000083, 0.000093, 0.000037, -0.000092, 0.000130, 0.000043, 0.000058, 0.000047, 0.208763, -0.000047, -0.000008, -0.000032, -0.000035, -0.000022, -0.000202, -0.000037, -0.162447, 0.000030, -0.000019, 0.049740, -0.000044, -0.001654, 0.000040, 0.000024, -0.000012, 0.000020, 0.000152, 0.000032, 0.000059, -0.000029, 0.000072},
{0.000005, -0.000034, -0.000124, -0.000098, -0.000350, 0.000236, 0.000008, 0.000026, -0.257188, 0.057969, -0.000016, -0.012254, -0.001576, -0.000062, 0.000000, -0.000025, 0.001294, 0.000060, 0.161860, 0.037937, 0.000061, -0.000301, -0.000010, -0.001105, 0.212344, -0.000523, -0.297107, -0.000061, -0.000025, 0.000073, -0.002775, 0.000008, -0.000035, 0.000635, 0.000009, 0.000086, -0.000064, -0.077774, 0.000160, 0.059986, -0.000007, 0.000144, -0.000004, -0.000036, 0.000012, 0.000196, 0.000060, 0.000034, 0.000038, 0.197711, -0.000005, -0.000065, 0.000123, -0.000030, 0.000060, -0.000036, 0.000006, -0.205386, -0.000048, -0.000022, 0.049461, 0.000035, -0.001133, -0.000017, 0.000063, 0.000028, -0.000043, 0.000016, -0.000033, 0.000054, 0.000072, 0.000017},
{-0.000034, 0.000060, -0.000144, -0.000591, -0.000243, 0.000111, 0.000023, 0.000009, -0.320537, 0.100835, -0.000066, -0.013193, -0.001420, 0.000047, -0.000016, -0.000006, 0.001510, 0.000023, 0.124714, 0.068058, 0.000017, 0.000072, -0.000002, -0.000754, 0.330145, 0.000121, -0.291970, 0.000166, 0.000022, -0.000081, -0.002648, 0.000004, 0.000112, 0.000569, -0.000014, -0.000026, -0.000020, -0.313358, -0.000031, 0.116794, 0.000011, -0.000020, -0.000119, -0.000016, -0.000372, 0.000156, 0.000033, -0.000079, 0.000092, 0.039118, -0.000178, 0.000009, 0.000035, 0.000003, -0.000011, 0.000046, -0.000040, -0.368402, -0.000001, 0.000047, 0.170650, 0.000025, -0.000670, -0.000012, -0.000006, -0.000045, -0.000014, -0.000021, -0.000002, -0.000124, 0.000020, -0.000100},
{0.000035, -0.000004, -0.000143, -0.000067, -0.000058, 0.000256, 0.000059, -0.000016, -0.355371, 0.089176, 0.000039, -0.012610, -0.001443, -0.000199, 0.000048, 0.000060, 0.001209, 0.000006, 0.116905, 0.058713, 0.000035, -0.000224, -0.000046, -0.000945, 0.258952, 0.000185, -0.154902, 0.000037, 0.000042, -0.000022, -0.003918, 0.000038, 0.000059, 0.000665, -0.000004, 0.000003, -0.000038, -0.319136, -0.000055, 0.089377, -0.000003, 0.000075, 0.000002, -0.000072, -0.000111, 0.000433, -0.000032, -0.000212, 0.000023, -0.149318, -0.000129, 0.000058, 0.000027, 0.000003, -0.000119, -0.000311, -0.000006, -0.309353, -0.000005, -0.000011, 0.243948, -0.000345, -0.000209, 0.000006, -0.000074, 0.000027, 0.000013, -0.000007, -0.000030, -0.000052, -0.000062, 0.000045},
{-0.000007, -0.000051, 0.000168, 0.000027, -0.000253, -0.000228, 0.000050, -0.000053, -0.114398, 0.028584, -0.000038, -0.012471, -0.001487, -0.000139, 0.000049, 0.000087, 0.001362, -0.000004, -0.009041, 0.019198, -0.000008, -0.000337, -0.000038, -0.001095, 0.030690, 0.000198, 0.010082, -0.000038, -0.000016, -0.000069, -0.003409, -0.000002, 0.000171, 0.000511, 0.000026, -0.000010, -0.000139, -0.298579, 0.000019, 0.057802, -0.000018, -0.000013, -0.000094, 0.000019, -0.000337, 0.000315, -0.000011, -0.000083, -0.000046, -0.016954, 0.000044, 0.000020, 0.000024, 0.000003, -0.000156, -0.000071, 0.000022, -0.235390, 0.000017, 0.000038, 0.251074, -0.000004, -0.000448, -0.000010, -0.000025, 0.000077, -0.000013, -0.000062, 0.000049, -0.000029, -0.000006, -0.000051},
{0.000072, 0.000023, -0.000167, -0.000083, -0.000287, 0.000300, 0.000024, 0.000064, -0.053997, -0.000847, -0.000029, -0.013176, -0.001621, 0.000013, -0.000020, 0.000030, 0.000905, 0.000008, 0.039790, -0.000950, -0.000008, -0.000355, -0.000032, -0.001292, 0.232035, 0.000155, 0.034710, 0.000001, -0.000002, 0.000090, -0.004157, 0.000029, -0.000191, 0.000746, -0.000024, -0.000047, -0.000007, -0.203078, -0.000008, -0.000617, -0.000016, 0.000063, -0.000082, -0.000021, -0.000187, 0.000128, 0.000052, -0.000017, -0.000096, -0.121245, -0.000031, -0.000052, 0.000029, 0.000040, 0.000008, 0.000159, -0.000004, -0.306385, 0.000033, -0.000032, 0.480324, 0.000107, -0.001374, 0.000000, -0.000005, 0.000072, 0.000046, -0.000024, -0.000006, 0.000015, 0.000004, -0.000019},
{0.000003, -0.000002, -0.000262, -0.000256, -0.000042, 0.000460, 0.000040, -0.000016, -0.080974, -0.003202, -0.000034, -0.012790, -0.001327, -0.000261, -0.000046, -0.000024, 0.000883, 0.000032, 0.170053, -0.002737, -0.000033, -0.000136, 0.000011, -0.001763, 0.147404, 0.000202, 0.031499, -0.000018, 0.000016, 0.000027, -0.004284, 0.000001, -0.000014, 0.000591, 0.000008, 0.000015, -0.000038, -0.150389, 0.000124, -0.004001, -0.000008, -0.000069, 0.000024, 0.000009, -0.000356, 0.000348, 0.000011, 0.000107, -0.000014, -0.057931, -0.000078, 0.000049, -0.000017, 0.000019, -0.000005, 0.000168, -0.000056, -0.053161, 0.000033, 0.000174, 0.565834, 0.000088, -0.004421, -0.000012, -0.000033, 0.000017, -0.000030, -0.000037, -0.000001, 0.000027, 0.000039, 0.000029},
{0.000018, 0.000106, 0.000007, 0.000045, -0.000186, 0.000553, -0.000028, 0.000090, -0.061580, -0.002520, -0.000005, -0.011588, -0.001218, -0.000232, 0.000015, -0.000036, 0.001129, -0.000068, 0.087042, -0.002210, -0.000101, -0.000088, -0.000035, -0.001382, -0.109702, -0.000042, -0.123195, -0.000029, 0.000004, -0.000021, -0.003498, 0.000034, -0.000124, 0.000418, -0.000010, -0.000020, 0.000019, -0.094222, 0.000071, -0.002752, -0.000022, -0.000248, -0.000081, -0.000003, -0.000432, 0.000053, 0.000031, -0.000027, -0.000090, -0.198962, 0.000004, -0.000003, 0.000007, 0.000046, -0.000074, 0.000217, -0.000016, -0.193870, 0.000007, -0.000037, 0.638857, 0.000069, -0.007828, 0.000000, 0.000006, 0.000051, -0.000016, -0.000147, 0.000042, -0.000012, -0.000094, 0.000037},
{0.000047, 0.000019, -0.000027, -0.000375, -0.000285, 0.000495, 0.000054, -0.000056, -0.147591, -0.001581, -0.000018, -0.012081, -0.001272, -0.000279, 0.000023, 0.000024, 0.001091, -0.000014, -0.070858, -0.001473, 0.000053, -0.000336, 0.000009, -0.001584, -0.248825, -0.000122, -0.053225, -0.000054, 0.000043, -0.000059, -0.003558, -0.000038, 0.000096, 0.000204, 0.000029, 0.000049, 0.000019, -0.063578, -0.000006, -0.001612, 0.000034, 0.000085, -0.000055, 0.000003, -0.000217, 0.000402, 0.000111, -0.000104, -0.000029, -0.088079, -0.000209, -0.000021, -0.000003, 0.000034, -0.000000, -0.000011, -0.000009, -0.322820, -0.000012, 0.000036, 0.630560, -0.000000, -0.010118, -0.000072, 0.000004, 0.000007, -0.000005, -0.000077, -0.000013, -0.000077, -0.000013, 0.000006},
{0.000045, -0.000127, -0.000093, -0.000273, -0.000131, 0.000428, -0.000054, 0.000106, -0.085827, -0.002198, 0.000017, -0.012446, -0.001066, -0.000275, 0.000008, 0.000032, 0.001387, 0.000031, -0.024753, -0.001899, -0.000047, 0.000041, -0.000029, -0.001458, -0.475900, -0.001139, -0.064688, -0.000192, 0.000020, 0.000032, -0.003461, -0.000030, 0.000043, 0.000480, 0.000011, -0.000002, 0.000037, -0.179090, 0.000018, -0.002442, -0.000004, -0.000211, 0.000035, -0.000068, -0.000511, -0.000087, 0.000028, 0.000022, -0.000069, -0.042293, 0.000056, 0.000016, -0.000006, 0.000129, 0.000063, 0.000146, 0.000042, -0.353751, 0.000041, -0.000076, 0.464461, 0.000014, -0.010349, -0.000010, -0.000039, -0.000149, -0.000102, 0.000036, -0.000033, -0.000055, -0.000004, -0.000014},
{-0.000018, 0.000016, -0.000352, 0.000079, -0.000295, 0.000224, -0.000067, 0.000056, -0.082055, -0.002259, 0.000015, -0.012711, -0.001389, -0.000196, 0.000035, 0.000024, 0.000989, -0.000030, -0.130887, -0.001907, -0.000024, -0.000190, 0.000016, -0.002042, -0.687994, -0.001192, 0.032585, 0.000025, 0.000009, 0.000014, -0.003520, -0.000023, 0.000191, 0.000196, 0.000001, -0.000011, -0.000026, -0.167963, -0.000080, -0.002554, -0.000009, -0.000059, -0.000036, -0.000061, -0.000332, -0.000011, 0.000065, -0.000084, -0.000080, -0.021018, -0.000339, -0.000021, -0.000029, -0.000066, 0.000042, 0.000162, -0.000039, -0.337318, -0.000020, 0.000026, 0.492626, -0.000002, -0.010472, -0.000027, 0.000003, -0.000021, -0.000004, 0.000071, -0.000000, -0.000052, 0.000053, -0.000105},
{-0.000014, 0.000035, -0.000090, -0.000277, -0.000073, 0.000132, 0.000016, -0.000024, -0.117617, -0.003613, 0.000006, -0.012762, -0.001488, -0.000113, -0.000103, -0.000026, 0.000942, 0.000134, -0.027064, -0.002573, 0.000056, -0.000177, 0.000014, -0.002170, -0.725270, -0.001530, 0.185067, 0.000067, 0.000023, 0.000003, -0.003371, 0.000002, 0.000102, 0.000223, -0.000007, 0.000007, 0.000011, -0.195232, -0.000021, -0.005412, 0.000020, -0.000009, 0.000051, 0.000021, -0.000331, -0.000112, -0.000100, 0.000017, 0.000032, -0.117266, 0.000036, -0.000051, -0.000128, -0.000000, -0.000011, 0.000174, -0.000022, -0.102642, 0.000015, -0.000024, 0.480295, 0.000033, -0.010506, -0.000024, -0.000030, 0.000098, 0.000017, -0.000088, 0.000052, -0.000120, -0.000067, -0.000010},
{0.000017, -0.000001, -0.000170, -0.000328, -0.000107, 0.000267, 0.000016, 0.000107, 0.055033, -0.014202, -0.000039, -0.012825, -0.001544, -0.000194, 0.000023, -0.000048, 0.001351, 0.000033, 0.037470, -0.003837, -0.000074, -0.000191, -0.000035, -0.001961, -0.634085, -0.001144, 0.094317, -0.000094, -0.000030, -0.000092, -0.003529, -0.000023, 0.000043, 0.000321, -0.000035, -0.000005, 0.000026, -0.124154, -0.000093, -0.022051, 0.000018, 0.000213, 0.000092, -0.000017, -0.000076, 0.000321, -0.000084, 0.000006, 0.000047, -0.070465, -0.000202, 0.000020, 0.000010, -0.000029, -0.000006, -0.000088, -0.000008, 0.075202, 0.000016, -0.000016, 0.535078, -0.000026, -0.010537, -0.000040, -0.000053, 0.000075, -0.000016, -0.000088, -0.000016, -0.000038, -0.000005, 0.000014},
{-0.000038, -0.000184, -0.000323, -0.000533, -0.000031, 0.000050, -0.000070, -0.000024, 0.192441, -0.029547, -0.000027, -0.014673, -0.001712, 0.000039, 0.000019, 0.000085, 0.001397, 0.000022, 0.014166, -0.017292, -0.000116, -0.000165, -0.000014, -0.001740, -0.742359, -0.000908, 0.094069, -0.000054, 0.000003, -0.000003, -0.004324, 0.000033, 0.000002, 0.000655, -0.000010, -0.000014, -0.000054, -0.277103, 0.000028, -0.038619, -0.000016, -0.000018, -0.000037, 0.000070, 0.000086, 0.000193, -0.000035, 0.000015, 0.000056, -0.043455, -0.000073, -0.000071, -0.000073, -0.000005, -0.000087, 0.000113, -0.000014, 0.146908, 0.000066, -0.000048, 0.396671, -0.000025, -0.010559, 0.000015, 0.000022, -0.000063, -0.000012, -0.000008, -0.000034, -0.000022, -0.000030, 0.000013},
{-0.000003, 0.000069, -0.000004, 0.000037, -0.000163, 0.000206, -0.000015, 0.000039, 0.241542, -0.031377, -0.000020, -0.012360, -0.001782, -0.000166, 0.000047, -0.000042, 0.001108, 0.000111, 0.151921, -0.018773, 0.000014, -0.000340, -0.000029, -0.001663, -0.705445, -0.001141, 0.148287, -0.000046, 0.000043, 0.000050, -0.003080, -0.000022, -0.000088, 0.000458, 0.000003, -0.000014, -0.000019, -0.298180, -0.000023, -0.040767, -0.000031, 0.000098, -0.000025, -0.000016, -0.000307, 0.000134, 0.000040, -0.000114, 0.000012, 0.089716, 0.000043, -0.000048, -0.000008, -0.000043, -0.000003, 0.000112, -0.000001, 0.328990, 0.000011, 0.000005, 0.348545, 0.000063, -0.010550, -0.000027, -0.000084, 0.000020, -0.000074, 0.000045, -0.000002, 0.000010, 0.000038, 0.000031},
{-0.000035, 0.000031, -0.000201, 0.000043, -0.000375, -0.000083, -0.000015, 0.000106, 0.233460, -0.004406, 0.000017, -0.013814, -0.001786, -0.000174, 0.000039, 0.000086, 0.001277, 0.000056, 0.059175, -0.002510, 0.000058, -0.000287, -0.000035, -0.002537, -0.715801, -0.000787, 0.118115, -0.000004, -0.000011, -0.000030, -0.003677, 0.000040, 0.000066, 0.000706, -0.000021, 0.000029, 0.000034, -0.278848, 0.000011, -0.011671, -0.000013, 0.000047, -0.000049, -0.000014, 0.000055, 0.000059, -0.000111, 0.000014, -0.000051, 0.162655, -0.000302, 0.000030, 0.000013, -0.000062, 0.000063, 0.000184, 0.000018, 0.263208, -0.000020, 0.000051, 0.284490, -0.000043, -0.010470, 0.000059, -0.000005, 0.000028, 0.000016, -0.000038, -0.000005, 0.000035, -0.000039, 0.000045},
{0.000066, 0.000006, 0.000025, -0.000390, -0.000312, 0.000021, -0.000047, 0.000034, 0.326294, -0.000672, 0.000003, -0.012417, -0.001781, -0.000241, 0.000001, -0.000056, 0.000818, -0.000057, 0.123706, -0.000836, -0.000007, -0.000205, -0.000015, -0.002297, -0.672783, -0.000397, 0.208358, 0.000068, 0.000041, -0.000012, -0.003544, 0.000002, -0.000006, 0.000379, 0.000003, -0.000029, 0.000020, -0.181937, 0.000027, -0.000615, -0.000002, 0.000001, 0.000017, 0.000025, -0.000025, 0.000307, 0.000017, -0.000177, -0.000038, 0.033816, -0.000304, 0.000048, -0.000143, 0.000092, -0.000030, 0.000124, 0.000060, 0.167952, 0.000011, 0.000012, 0.115549, 0.000150, -0.009713, -0.000028, 0.000057, 0.000008, -0.000015, 0.000045, 0.000023, 0.000061, 0.000010, -0.000032},
{-0.000009, -0.000115, -0.000136, -0.000404, -0.000332, -0.000399, 0.000018, 0.000039, 0.298841, 0.001339, -0.000031, -0.013042, -0.001600, -0.000004, 0.000016, 0.000014, 0.000759, 0.000110, 0.077134, 0.000298, 0.000048, 0.000110, 0.000015, -0.002526, -0.666053, -0.000774, 0.111448, 0.000031, 0.000036, -0.000049, -0.003880, 0.000000, 0.000058, 0.000421, -0.000024, -0.000001, -0.000019, -0.116496, 0.000010, 0.002074, 0.000001, -0.000103, -0.000048, -0.000124, -0.000266, 0.000232, 0.000054, -0.000021, -0.000050, 0.128140, 0.000106, 0.000023, -0.000055, 0.000016, 0.000031, 0.000186, -0.000005, 0.038829, 0.000043, 0.000011, -0.215267, -0.000042, -0.009154, 0.000000, -0.000034, -0.000058, 0.000059, -0.000067, -0.000018, -0.000009, 0.000021, -0.000031},
{0.000020, 0.000008, -0.000134, -0.000066, -0.000126, 0.000230, -0.000018, 0.000113, 0.514607, 0.002869, -0.000010, -0.014297, -0.001330, -0.000158, -0.000011, -0.000108, 0.001027, 0.000064, 0.023770, 0.001155, -0.000009, -0.000262, 0.000026, -0.002594, -0.543850, -0.000769, 0.249142, -0.000021, -0.000002, 0.000001, -0.003851, 0.000001, -0.000099, 0.000095, -0.000009, 0.000006, 0.000020, 0.067579, 0.000005, 0.009117, -0.000043, -0.000010, -0.000019, 0.000009, -0.000119, 0.000205, 0.000041, 0.000118, -0.000016, 0.067303, 0.000113, -0.000018, -0.000055, -0.000037, -0.000020, 0.000007, 0.000001, 0.031691, -0.000033, -0.000116, -0.336811, -0.000043, -0.008608, -0.000086, 0.000005, -0.000016, 0.000059, -0.000102, 0.000009, -0.000022, -0.000046, 0.000044},
{0.000052, -0.000085, 0.000032, -0.000285, -0.000019, 0.000047, -0.000004, -0.000035, 0.374599, 0.000195, -0.000026, -0.015121, -0.001248, -0.000210, -0.000007, 0.000036, 0.001363, 0.000065, -0.061353, -0.000468, -0.000117, -0.000049, 0.000023, -0.002593, -0.430469, -0.000890, 0.282819, 0.000118, 0.000047, -0.000054, -0.003368, -0.000031, 0.000112, 0.000222, -0.000013, 0.000009, 0.000038, 0.382473, -0.000041, 0.000519, 0.000019, -0.000029, -0.000013, -0.000032, -0.000578, -0.000028, 0.000004, -0.000041, 0.000050, 0.090834, -0.000131, 0.000090, -0.000039, 0.000124, 0.000054, 0.000063, 0.000061, 0.105564, 0.000020, -0.000009, -0.438414, -0.000009, -0.008058, 0.000022, -0.000003, 0.000061, -0.000031, 0.000047, 0.000021, -0.000085, -0.000044, -0.000047},
{-0.000008, -0.000016, 0.000041, -0.000351, -0.000103, 0.000298, -0.000034, -0.000139, 0.369073, 0.001630, -0.000042, -0.016331, -0.001279, -0.000045, -0.000106, -0.000019, 0.000829, -0.000026, -0.008193, 0.000507, -0.000095, -0.000090, 0.000032, -0.003088, -0.256587, -0.001024, 0.237839, -0.000030, -0.000041, -0.000031, -0.004145, 0.000005, -0.000023, -0.000066, -0.000035, -0.000024, 0.000022, 0.592659, 0.000027, 0.002263, 0.000024, 0.000039, -0.000049, -0.000070, -0.000189, 0.000063, -0.000000, 0.000120, 0.000030, -0.057823, -0.000200, 0.000046, 0.000005, 0.000024, -0.000020, -0.000187, 0.000017, 0.032024, 0.000057, -0.000030, -0.446415, -0.000105, -0.007613, -0.000027, 0.000033, 0.000037, -0.000100, 0.000032, -0.000042, 0.000018, 0.000039, 0.000053},
{-0.000051, 0.000062, -0.000159, -0.000417, -0.000056, -0.000159, 0.000036, 0.000007, 0.260252, -0.000406, 0.000111, -0.014760, -0.001325, -0.000326, 0.000027, -0.000047, 0.001370, -0.000068, -0.079239, -0.000701, 0.000053, -0.000123, 0.000036, -0.002624, 0.172525, -0.000701, 0.386355, 0.000016, 0.000026, -0.000029, -0.004068, -0.000025, 0.000034, 0.000195, 0.000004, -0.000021, 0.000008, 0.714629, -0.000092, -0.000258, 0.000014, 0.000129, 0.000083, -0.000020, 0.000034, 0.000176, 0.000004, -0.000118, -0.000223, 0.145225, -0.000147, 0.000025, 0.000014, 0.000080, 0.000041, -0.000158, -0.000002, 0.106774, 0.000023, 0.000052, -0.586412, 0.000026, -0.007191, 0.000013, 0.000029, 0.000038, -0.000012, -0.000011, 0.000001, -0.000053, -0.000036, -0.000018},
{0.000053, 0.000108, -0.000037, -0.000098, -0.000204, -0.000244, -0.000011, -0.000094, 0.163090, -0.000050, 0.000003, -0.014155, -0.001295, -0.000096, -0.000021, 0.000062, 0.001223, 0.000010, -0.002681, -0.000405, -0.000077, -0.000246, -0.000003, -0.002777, 0.411264, -0.000392, 0.275577, -0.000047, 0.000049, 0.000032, -0.003710, 0.000027, -0.000081, 0.000362, -0.000014, 0.000012, 0.000014, 0.584421, 0.000039, 0.000142, 0.000005, 0.000101, 0.000019, 0.000003, -0.000583, 0.000247, 0.000014, 0.000120, -0.000067, 0.203985, 0.000149, 0.000037, -0.000100, -0.000008, 0.000069, 0.000119, -0.000082, 0.080210, -0.000015, 0.000022, -0.725491, 0.000007, -0.006806, 0.000005, -0.000045, -0.000017, -0.000014, 0.000078, 0.000008, 0.000038, -0.000020, 0.000013},
{0.000021, 0.000052, -0.000151, 0.000018, 0.000076, 0.000267, -0.000022, -0.000005, 0.284057, 0.000760, 0.000034, -0.012287, -0.001495, -0.000053, -0.000056, -0.000055, 0.000801, -0.000112, -0.108795, 0.000154, 0.000008, -0.000291, 0.000013, -0.002537, 0.427595, -0.000467, 0.320919, -0.000115, -0.000000, -0.000105, -0.002914, 0.000017, 0.000159, 0.000689, 0.000015, -0.000033, -0.000007, 0.635686, 0.000037, 0.001221, 0.000003, -0.000065, 0.000051, 0.000063, -0.000044, 0.000341, 0.000055, -0.000024, 0.000004, 0.154387, 0.000064, 0.000089, -0.000074, 0.000024, -0.000062, 0.000157, -0.000026, -0.154493, 0.000013, 0.000027, -0.813417, -0.000024, -0.006417, 0.000004, -0.000047, 0.000056, 0.000030, 0.000004, 0.000009, -0.000055, 0.000053, -0.000029},
{0.000090, -0.000023, 0.000027, -0.000144, -0.000053, 0.000374, -0.000034, 0.000017, 0.084588, 0.032292, -0.000034, -0.012643, -0.001223, 0.000063, -0.000050, 0.000043, 0.001103, 0.000010, -0.143785, 0.022472, 0.000150, 0.000016, -0.000022, -0.002764, 0.412729, -0.000793, 0.053116, 0.000121, -0.000023, 0.000028, -0.003048, -0.000036, -0.000091, 0.000017, 0.000022, -0.000032, -0.000037, 0.549839, -0.000050, 0.057706, -0.000016, -0.000040, -0.000022, 0.000053, -0.000409, 0.000018, -0.000016, 0.000054, -0.000009, 0.181606, 0.000089, -0.000028, -0.000026, -0.000045, -0.000018, -0.000100, -0.000000, -0.341893, -0.000068, -0.000112, -0.851037, 0.000026, -0.006036, 0.000010, -0.000022, -0.000016, -0.000002, 0.000072, 0.000025, -0.000017, -0.000054, -0.000024},
{0.000031, -0.000125, -0.000022, -0.000413, -0.000317, -0.000158, 0.000037, 0.000086, 0.082135, 0.062262, -0.000040, -0.013548, -0.001529, -0.000072, 0.000028, -0.000029, 0.000596, 0.000032, 0.012054, 0.044196, 0.000001, 0.000050, 0.000016, -0.002323, 0.442045, -0.000920, 0.061081, -0.000027, -0.000021, 0.000032, -0.003774, 0.000010, -0.000095, -0.000013, -0.000007, -0.000025, 0.000037, 0.346871, -0.000029, 0.074333, 0.000006, -0.000206, -0.000050, 0.000005, 0.000021, -0.000054, 0.000046, 0.000072, -0.000019, 0.226891, 0.000136, 0.000048, 0.000011, -0.000029, -0.000059, 0.000089, 0.000033, -0.365395, 0.000036, 0.000025, -0.771137, -0.000123, -0.005661, 0.000003, 0.000071, -0.000052, -0.000051, -0.000040, 0.000033, -0.000026, -0.000065, -0.000046},
{-0.000037, -0.000163, -0.000044, -0.000409, -0.000249, -0.000195, 0.000002, -0.000014, 0.102815, 0.063592, -0.000019, -0.012098, -0.001121, -0.000303, -0.000064, -0.000112, 0.001132, 0.000016, -0.173733, 0.035615, -0.000049, -0.000261, -0.000046, -0.003271, 0.346787, -0.000089, -0.181410, -0.000040, -0.000031, -0.000020, -0.003365, 0.000014, 0.000054, -0.000127, 0.000034, -0.000024, 0.000017, 0.072732, 0.000005, 0.076833, 0.000012, 0.000072, -0.000012, 0.000006, 0.000177, 0.000308, 0.000048, 0.000014, -0.000012, 0.304570, 0.000021, 0.000013, -0.000017, -0.000026, -0.000012, 0.000116, 0.000024, -0.247429, 0.000015, -0.000044, -0.489724, 0.000123, -0.005330, -0.000018, -0.000096, -0.000018, 0.000007, -0.000119, -0.000077, 0.000018, -0.000027, -0.000100},
{-0.000024, -0.000045, -0.000042, 0.000070, -0.000356, 0.000110, 0.000066, 0.000015, 0.174342, 0.030115, -0.000037, -0.013401, -0.001256, -0.000044, 0.000018, 0.000063, 0.000954, -0.000103, -0.181704, 0.017291, 0.000127, 0.000396, 0.000016, -0.002857, 0.178196, -0.000141, -0.305236, 0.000080, -0.000012, -0.000023, -0.003367, -0.000027, 0.000060, -0.000033, -0.000014, 0.000006, 0.000047, 0.213757, 0.000007, 0.043064, -0.000011, 0.000080, -0.000094, 0.000032, -0.000479, 0.000271, 0.000018, -0.000187, 0.000007, 0.350887, 0.000060, -0.000023, -0.000066, 0.000054, 0.000068, 0.000212, 0.000019, -0.393522, -0.000018, 0.000044, -0.458222, -0.000033, -0.005056, -0.000023, -0.000018, 0.000005, 0.000098, -0.000039, 0.000025, 0.000038, 0.000047, -0.000100},
{0.000035, 0.000065, -0.000228, -0.000332, -0.000196, -0.000237, 0.000083, 0.000058, 0.152052, 0.003963, 0.000017, -0.011441, -0.001077, -0.000020, -0.000020, 0.000029, 0.000748, 0.000047, -0.228530, 0.000156, 0.000011, -0.000186, -0.000003, -0.003044, 0.219133, 0.000376, -0.185939, 0.000070, -0.000058, -0.000000, -0.003119, 0.000028, 0.000038, -0.000000, 0.000012, -0.000029, -0.000037, 0.103266, -0.000027, 0.034801, -0.000018, 0.000100, -0.000023, -0.000018, 0.000045, -0.000033, -0.000026, 0.000079, 0.000026, 0.156105, -0.000364, -0.000024, -0.000015, -0.000116, -0.000006, 0.000163, -0.000048, -0.260440, -0.000021, -0.000034, -0.367249, -0.000033, -0.004790, 0.000027, 0.000032, 0.000041, -0.000020, -0.000047, -0.000000, -0.000021, -0.000051, -0.000053},
{-0.000046, -0.000212, -0.000021, -0.000492, -0.000282, 0.000253, 0.000004, -0.000020, 0.309296, -0.000732, 0.000035, -0.011628, -0.001350, -0.000036, 0.000015, -0.000089, 0.000941, 0.000002, -0.262474, -0.001262, -0.000035, -0.000247, 0.000072, -0.002725, 0.285959, 0.000009, -0.314564, -0.000004, -0.000093, -0.000006, -0.002490, 0.000014, -0.000044, -0.000003, 0.000013, -0.000011, -0.000006, 0.128692, 0.000117, -0.000662, -0.000007, 0.000280, -0.000077, -0.000028, -0.000348, -0.000024, 0.000015, -0.000031, -0.000092, 0.055217, 0.000128, -0.000033, -0.000058, -0.000020, 0.000007, -0.000098, -0.000025, 0.014673, 0.000023, 0.000013, -0.111938, -0.000005, -0.004673, -0.000027, -0.000002, 0.000021, -0.000014, 0.000066, -0.000017, -0.000014, -0.000079, -0.000043},
{-0.000024, 0.000082, 0.000001, -0.000032, -0.000227, -0.000186, 0.000067, -0.000132, 0.398498, 0.006412, 0.000035, -0.012193, -0.001409, -0.000176, -0.000044, -0.000070, 0.001055, -0.000029, -0.265185, -0.000811, 0.000098, -0.000295, 0.000016, -0.002552, 0.135657, 0.000288, -0.294418, 0.000005, -0.000034, -0.000057, -0.002764, 0.000012, -0.000104, 0.000003, 0.000010, 0.000023, -0.000019, 0.084849, 0.000039, 0.022215, -0.000011, 0.000214, -0.000070, 0.000003, -0.000210, 0.000284, -0.000055, -0.000076, -0.000227, -0.060091, 0.000052, 0.000056, -0.000067, -0.000095, -0.000006, -0.000040, -0.000047, 0.064634, 0.000037, -0.000009, -0.021008, -0.000021, -0.004428, -0.000019, -0.000001, -0.000038, 0.000031, -0.000055, 0.000007, -0.000096, 0.000090, 0.000040},
{-0.000003, -0.000044, -0.000151, -0.000326, -0.000280, -0.000299, 0.000020, -0.000005, 0.282014, 0.005678, 0.000038, -0.012682, -0.001522, -0.000147, 0.000039, -0.000121, 0.001171, 0.000071, -0.182356, -0.000543, -0.000098, 0.000045, 0.000026, -0.001918, 0.183129, -0.000564, -0.198710, -0.000030, 0.000073, 0.000025, -0.003348, 0.000011, -0.000193, 0.000121, 0.000002, -0.000017, -0.000019, 0.154370, 0.000121, 0.007617, 0.000003, -0.000273, 0.000063, 0.000034, -0.000184, -0.000031, 0.000116, 0.000170, 0.000051, 0.014873, -0.000010, 0.000051, 0.000027, -0.000075, -0.000003, -0.000031, 0.000023, 0.037335, -0.000015, 0.000028, 0.122810, 0.000009, -0.004318, -0.000019, -0.000013, 0.000022, -0.000015, -0.000154, -0.000030, -0.000012, 0.000055, 0.000054},
{0.000049, -0.000231, 0.000035, -0.000082, -0.000260, -0.000242, 0.000037, -0.000153, 0.245056, 0.000000, 0.000033, -0.014573, -0.001427, -0.000181, 0.000017, -0.000049, 0.000520, -0.000019, -0.233692, -0.000695, 0.000063, -0.000385, 0.000031, -0.002198, 0.193747, -0.000181, -0.132515, -0.000043, -0.000060, 0.000021, -0.003364, -0.000003, 0.000152, 0.000029, -0.000003, 0.000002, 0.000009, 0.147576, 0.000057, 0.011524, -0.000008, 0.000080, -0.000007, 0.000026, -0.000018, 0.000088, -0.000073, 0.000104, 0.000010, -0.166954, -0.000284, 0.000027, -0.000021, -0.000067, -0.000076, 0.000056, 0.000031, 0.115676, 0.000032, -0.000053, 0.159709, -0.000036, -0.004206, -0.000002, -0.000009, 0.000036, 0.000017, 0.000066, 0.000001, -0.000035, -0.000060, -0.000046},
{-0.000012, -0.000028, -0.000005, -0.000299, -0.000279, -0.000068, 0.000020, 0.000116, 0.040270, 0.006694, 0.000036, -0.014560, -0.001656, 0.000008, -0.000088, 0.000026, 0.000889, 0.000049, -0.216564, -0.000099, 0.000023, -0.000140, 0.000033, -0.002826, -0.057941, -0.000062, -0.265628, 0.000064, 0.000044, -0.000194, -0.003011, 0.000022, -0.000081, 0.000111, 0.000025, 0.000010, 0.000033, 0.251592, -0.000117, 0.031721, -0.000024, -0.000058, 0.000009, -0.000018, -0.000081, 0.000140, 0.000125, 0.000043, 0.000104, -0.130526, -0.000216, 0.000040, 0.000029, 0.000141, -0.000009, 0.000124, 0.000003, 0.149624, 0.000029, -0.000030, 0.059701, 0.000031, -0.003944, -0.000042, -0.000019, -0.000077, 0.000033, -0.000058, -0.000027, -0.000039, -0.000053, 0.000060},
{0.000050, -0.000165, 0.000061, -0.000343, -0.000095, 0.000371, -0.000036, 0.000002, -0.052161, 0.002048, -0.000044, -0.015810, -0.001146, -0.000201, 0.000039, 0.000075, 0.000744, -0.000016, -0.419345, -0.000079, -0.000045, -0.000309, 0.000080, -0.003326, -0.154134, -0.000911, -0.251485, -0.000088, 0.000050, -0.000026, -0.003358, -0.000000, 0.000055, 0.000556, -0.000015, 0.000009, -0.000038, 0.128677, 0.000089, 0.030484, 0.000017, 0.000014, -0.000018, 0.000120, -0.000399, 0.000075, 0.000001, -0.000010, -0.000077, -0.017799, -0.000146, -0.000010, -0.000037, -0.000036, -0.000004, 0.000238, -0.000005, 0.338269, -0.000027, -0.000100, -0.040858, 0.000067, -0.003621, 0.000016, 0.000018, -0.000046, -0.000042, -0.000055, 0.000019, -0.000024, 0.000019, 0.000031},
{-0.000012, 0.000186, 0.000013, 0.000091, -0.000029, 0.000052, 0.000066, -0.000192, -0.307924, 0.007617, 0.000014, -0.015051, -0.001468, -0.000189, -0.000024, -0.000029, 0.000798, 0.000110, -0.288487, -0.000135, 0.000004, 0.000058, -0.000011, -0.003415, -0.250437, -0.000534, -0.207342, 0.000025, 0.000040, 0.000050, -0.003419, 0.000007, -0.000087, 0.000503, 0.000001, -0.000008, 0.000063, 0.278537, -0.000078, 0.016001, 0.000033, -0.000063, -0.000036, 0.000047, -0.000403, 0.000128, 0.000068, 0.000112, 0.000002, 0.150541, 0.000034, 0.000018, -0.000049, -0.000006, -0.000081, 0.000127, -0.000023, 0.386943, 0.000033, -0.000020, 0.011911, 0.000138, -0.003418, 0.000030, 0.000002, -0.000028, -0.000021, -0.000026, 0.000016, -0.000058, -0.000082, 0.000035},
{0.000020, -0.000062, -0.000186, -0.000640, -0.000107, 0.000242, -0.000039, -0.000080, -0.432272, 0.012666, 0.000016, -0.013650, -0.001346, -0.000053, -0.000012, 0.000087, 0.000802, 0.000064, -0.312904, -0.000284, 0.000144, -0.000187, -0.000025, -0.002921, -0.324380, 0.000058, -0.278032, -0.000003, -0.000001, 0.000173, -0.003293, 0.000013, -0.000100, 0.000396, -0.000011, -0.000008, 0.000020, 0.250156, 0.000126, 0.014344, 0.000018, 0.000057, 0.000092, -0.000016, -0.000063, 0.000172, -0.000016, -0.000026, -0.000012, 0.101501, 0.000099, -0.000020, -0.000058, -0.000124, -0.000039, 0.000045, 0.000021, 0.284971, 0.000012, -0.000059, 0.108907, -0.000023, -0.003151, 0.000029, -0.000052, 0.000041, 0.000061, -0.000046, 0.000006, -0.000008, 0.000012, 0.000085},
{0.000017, -0.000123, 0.000004, 0.000004, 0.000114, -0.000058, -0.000020, 0.000032, -0.415332, 0.006845, 0.000063, -0.013570, -0.001300, -0.000095, 0.000049, -0.000022, 0.000975, 0.000042, -0.261243, -0.000800, 0.000041, -0.000284, 0.000116, -0.002755, -0.335826, 0.000317, -0.354524, -0.000165, 0.000026, -0.000112, -0.003382, 0.000042, 0.000065, 0.000475, -0.000004, 0.000011, 0.000003, 0.012746, -0.000048, 0.008596, 0.000012, -0.000099, 0.000074, -0.000052, -0.000485, 0.000254, -0.000021, 0.000118, -0.000031, 0.329639, -0.000408, -0.000023, 0.000001, 0.000037, -0.000095, 0.000102, 0.000045, 0.349231, 0.000047, -0.000036, 0.224386, 0.000041, -0.003005, 0.000017, -0.000057, 0.000076, -0.000045, -0.000075, -0.000008, -0.000024, -0.000005, -0.000007},
{-0.000012, -0.000102, -0.000172, -0.000441, 0.000009, 0.000023, -0.000067, 0.000019, -0.434149, 0.008949, 0.000035, -0.013492, -0.000978, 0.000049, -0.000016, -0.000043, 0.001087, -0.000044, -0.205106, 0.000039, -0.000022, -0.000204, 0.000075, -0.001983, -0.539353, -0.000317, -0.435654, -0.000051, -0.000034, -0.000007, -0.003187, -0.000033, -0.000118, 0.000602, -0.000024, -0.000007, -0.000019, 0.111863, -0.000018, 0.020286, 0.000010, 0.000218, -0.000052, -0.000065, 0.000052, 0.000300, 0.000055, 0.000019, 0.000092, 0.393541, 0.000056, 0.000047, -0.000014, 0.000028, 0.000037, 0.000106, -0.000043, 0.436202, 0.000036, 0.000035, 0.162287, -0.000092, -0.002826, -0.000018, 0.000009, 0.000078, 0.000010, 0.000024, 0.000008, 0.000041, 0.000054, -0.000123},
{0.000001, 0.000003, 0.000148, -0.000484, -0.000016, 0.000351, 0.000034, -0.000022, -0.315395, 0.016540, -0.000057, -0.012897, -0.001108, 0.000044, -0.000026, -0.000055, 0.001209, -0.000043, -0.208451, 0.005130, -0.000050, -0.000039, 0.000004, -0.002489, -0.470107, 0.000170, -0.420453, 0.000023, -0.000025, 0.000125, -0.003983, -0.000038, 0.000036, 0.000294, -0.000021, 0.000051, 0.000022, -0.198619, -0.000005, 0.021605, 0.000019, -0.000099, -0.000079, 0.000045, -0.000008, 0.000214, 0.000039, 0.000012, 0.000014, 0.299098, 0.000037, 0.000050, -0.000058, -0.000139, 0.000045, -0.000172, -0.000020, 0.368628, -0.000037, -0.000079, 0.285490, 0.000078, -0.002882, -0.000001, 0.000032, -0.000022, 0.000016, 0.000022, -0.000048, 0.000008, 0.000019, -0.000100},
{-0.000016, 0.000028, -0.000096, -0.000149, 0.000057, 0.000242, 0.000023, -0.000077, -0.268493, 0.011353, -0.000055, -0.013198, -0.000844, -0.000094, 0.000019, 0.000020, 0.000610, 0.000062, -0.066646, 0.000575, 0.000013, -0.000201, 0.000018, -0.002148, -0.575872, -0.000336, -0.338231, -0.000132, 0.000046, -0.000044, -0.004041, -0.000007, 0.000150, -0.000144, 0.000009, 0.000018, -0.000022, -0.226065, -0.000003, 0.020821, 0.000010, 0.000107, 0.000083, -0.000084, -0.000498, 0.000224, 0.000055, 0.000031, -0.000045, 0.266379, -0.000464, -0.000011, -0.000025, 0.000018, -0.000023, 0.000105, -0.000035, 0.490524, -0.000058, 0.000058, 0.276099, 0.000087, -0.002943, 0.000004, -0.000003, -0.000031, 0.000012, 0.000078, -0.000000, 0.000011, -0.000106, -0.000114},
{0.000034, 0.000038, -0.000024, -0.000459, 0.000000, 0.000432, 0.000036, 0.000010, -0.166276, 0.011925, -0.000057, -0.013066, -0.001096, -0.000350, -0.000033, 0.000085, 0.001214, -0.000004, 0.026129, 0.001451, 0.000066, -0.000276, -0.000044, -0.002969, -0.425675, -0.000968, -0.216767, 0.000090, 0.000026, 0.000004, -0.003299, -0.000000, 0.000105, -0.000068, -0.000010, -0.000022, 0.000018, -0.296294, 0.000019, 0.027070, -0.000014, -0.000048, -0.000058, -0.000012, -0.000089, 0.000017, 0.000053, 0.000007, 0.000084, 0.129478, 0.000001, -0.000032, 0.000055, -0.000025, -0.000150, -0.000134, 0.000029, 0.312022, -0.000036, -0.000038, 0.400374, -0.000216, -0.003079, 0.000024, 0.000003, -0.000063, -0.000035, 0.000035, -0.000001, -0.000067, -0.000027, 0.000099},
{-0.000006, -0.000052, -0.000231, -0.000042, 0.000022, 0.000067, -0.000020, -0.000071, -0.003359, 0.000024, 0.000006, -0.014360, -0.001122, 0.000043, -0.000042, -0.000027, 0.000751, -0.000029, 0.177975, -0.001074, -0.000045, 0.000049, -0.000056, -0.003123, -0.308357, -0.000894, -0.129142, 0.000015, 0.000007, -0.000196, -0.003261, -0.000028, -0.000092, 0.000030, 0.000001, -0.000010, -0.000057, -0.178724, -0.000011, 0.004159, -0.000020, 0.000108, -0.000008, 0.000024, 0.000077, 0.000009, -0.000040, -0.000067, 0.000051, 0.014433, -0.000464, -0.000032, -0.000077, -0.000046, -0.000054, 0.000046, -0.000080, 0.349363, 0.000049, -0.000053, 0.335077, 0.000020, -0.003185, 0.000041, -0.000027, -0.000014, 0.000041, 0.000020, 0.000023, -0.000026, 0.000090, 0.000090},
{0.000020, -0.000120, -0.000014, -0.000395, -0.000120, -0.000399, 0.000020, -0.000115, 0.208818, 0.005844, -0.000020, -0.015153, -0.000855, 0.000005, -0.000032, 0.000014, 0.000231, 0.000008, 0.184344, -0.000132, 0.000081, -0.000100, 0.000064, -0.003919, -0.348377, -0.000516, -0.143628, 0.000012, 0.000022, 0.000008, -0.002821, 0.000032, 0.000099, 0.000238, -0.000015, -0.000043, 0.000064, -0.032195, -0.000006, 0.010901, -0.000003, -0.000000, -0.000069, 0.000024, -0.000432, 0.000018, 0.000083, -0.000040, 0.000021, -0.053830, -0.000336, 0.000003, 0.000066, 0.000203, 0.000049, -0.000214, -0.000009, 0.278488, -0.000013, 0.000052, 0.199287, -0.000182, -0.003111, 0.000010, 0.000040, -0.000032, -0.000033, -0.000024, 0.000031, -0.000034, -0.000003, 0.000040},
{-0.000016, 0.000187, -0.000146, -0.000443, -0.000098, -0.000049, 0.000012, 0.000096, 0.239532, 0.014087, 0.000026, -0.015856, -0.000951, -0.000219, 0.000068, -0.000009, 0.000772, -0.000098, 0.253476, 0.004835, 0.000061, 0.000123, 0.000060, -0.003596, -0.308538, -0.000446, 0.021685, 0.000024, 0.000037, -0.000177, -0.002945, 0.000015, 0.000093, 0.000292, 0.000022, -0.000008, -0.000038, -0.024477, -0.000062, 0.020698, 0.000011, -0.000023, -0.000025, -0.000039, -0.000608, 0.000099, -0.000055, -0.000049, -0.000028, -0.158259, -0.000288, 0.000068, -0.000008, -0.000026, 0.000024, -0.000226, -0.000080, 0.136707, -0.000079, 0.000069, 0.130148, 0.000046, -0.002888, 0.000022, 0.000029, -0.000004, -0.000043, -0.000062, -0.000014, -0.000038, 0.000091, -0.000038},
{-0.000007, -0.000035, -0.000037, -0.000057, 0.000051, 0.000165, 0.000034, -0.000115, 0.136676, 0.039068, -0.000026, -0.015837, -0.001022, -0.000210, 0.000034, -0.000063, 0.000746, 0.000086, 0.282354, 0.026799, 0.000009, -0.000237, -0.000054, -0.003265, -0.297062, -0.000177, 0.221481, 0.000170, 0.000020, -0.000048, -0.003518, 0.000006, -0.000060, 0.000531, 0.000001, 0.000017, 0.000048, -0.142951, 0.000049, 0.047582, -0.000015, 0.000213, 0.000049, 0.000020, -0.000072, 0.000029, 0.000140, -0.000136, 0.000005, -0.419358, -0.000047, 0.000063, 0.000026, 0.000123, 0.000060, 0.000087, 0.000002, 0.084684, 0.000061, 0.000023, -0.109559, -0.000011, -0.002528, -0.000011, -0.000015, 0.000080, -0.000007, 0.000024, -0.000006, 0.000018, -0.000031, -0.000030},
{-0.000023, -0.000051, 0.000123, -0.000332, -0.000009, 0.000088, -0.000058, -0.000020, 0.089716, 0.065068, 0.000048, -0.015871, -0.001375, -0.000162, 0.000016, -0.000124, 0.000998, -0.000078, 0.100362, 0.038217, -0.000024, -0.000216, -0.000016, -0.002731, -0.261155, -0.000415, 0.386986, 0.000092, -0.000003, -0.000041, -0.003768, -0.000012, -0.000058, 0.000638, 0.000007, -0.000054, 0.000058, -0.010846, -0.000024, 0.061337, -0.000019, 0.000147, -0.000007, -0.000005, 0.000008, 0.000256, -0.000052, 0.000099, -0.000020, -0.323358, 0.000053, 0.000052, 0.000012, -0.000010, 0.000050, 0.000011, -0.000012, 0.242111, 0.000023, 0.000080, -0.234924, 0.000098, -0.002247, 0.000029, -0.000033, -0.000016, 0.000083, 0.000057, -0.000027, 0.000002, 0.000044, 0.000006},
{0.000038, 0.000104, -0.000003, -0.000188, -0.000049, -0.000050, -0.000059, -0.000023, 0.021896, 0.046322, -0.000030, -0.015275, -0.000907, -0.000316, 0.000046, 0.000075, 0.001260, -0.000015, 0.189187, 0.030783, 0.000012, -0.000214, -0.000033, -0.002080, -0.045480, -0.001022, 0.530307, -0.000011, 0.000000, 0.000056, -0.003360, -0.000052, 0.000039, 0.000640, -0.000002, -0.000027, -0.000002, -0.027043, 0.000178, 0.063595, 0.000023, 0.000006, 0.000044, 0.000053, -0.000151, 0.000271, -0.000152, 0.000035, 0.000046, -0.495658, -0.000288, -0.000121, -0.000072, -0.000038, -0.000213, -0.000179, 0.000190, 0.168028, 0.000018, -0.000129, -0.302734, -0.000035, -0.001868, 0.000000, -0.000025, -0.000044, -0.000031, 0.000020, 0.000015, 0.000043, 0.000036, -0.000049},
{-0.000020, -0.000032, -0.000173, -0.000254, 0.000010, 0.000321, 0.000045, 0.000011, -0.021730, 0.043252, -0.000016, -0.017261, -0.001223, 0.000011, 0.000019, 0.000011, 0.001170, 0.000085, 0.181852, 0.020940, 0.000017, -0.000172, 0.000011, -0.001397, 0.034576, -0.000189, 0.624863, -0.000023, -0.000005, -0.000067, -0.004189, -0.000005, -0.000138, 0.000396, 0.000014, 0.000009, -0.000038, 0.004494, 0.000045, 0.046799, 0.000015, -0.000063, 0.000004, -0.000055, 0.000083, -0.000003, 0.000161, 0.000003, -0.000034, -0.350037, 0.000007, 0.000034, -0.000035, -0.000054, -0.000079, 0.000110, 0.000043, 0.210487, 0.000016, -0.000054, -0.337995, -0.000039, -0.001594, 0.000028, -0.000049, 0.000021, 0.000018, -0.000023, 0.000017, -0.000045, -0.000015, -0.000120},
{-0.000018, -0.000007, -0.000147, -0.000252, -0.000135, 0.000274, -0.000038, 0.000090, -0.010932, 0.024814, 0.000009, -0.015337, -0.001349, 0.000022, -0.000091, 0.000022, 0.001079, 0.000008, 0.258098, 0.013184, 0.000070, 0.000014, 0.000037, -0.001048, 0.202226, -0.000798, 0.514739, 0.000039, 0.000004, -0.000046, -0.004330, 0.000011, -0.000060, 0.000448, 0.000014, 0.000019, -0.000019, 0.092684, -0.000050, 0.033318, 0.000036, -0.000259, 0.000028, -0.000090, -0.000213, 0.000177, 0.000053, -0.000060, 0.000036, -0.376515, -0.000368, 0.000078, -0.000024, 0.000138, -0.000055, 0.000211, 0.000075, 0.059300, 0.000001, 0.000019, -0.373047, 0.000135, -0.001358, 0.000017, -0.000047, -0.000012, -0.000021, -0.000046, 0.000028, -0.000023, 0.000002, -0.000058},
{-0.000069, 0.000002, 0.000005, 0.000020, -0.000022, 0.000439, 0.000008, 0.000022, 0.068652, 0.041345, -0.000049, -0.013865, -0.001196, -0.000059, 0.000033, -0.000031, 0.001275, 0.000023, 0.114282, 0.021346, 0.000004, -0.000253, 0.000035, -0.001100, 0.324054, -0.000670, 0.597384, -0.000012, -0.000041, -0.000050, -0.003571, 0.000005, -0.000115, 0.000463, 0.000014, -0.000002, 0.000011, -0.042509, 0.000062, 0.064592, -0.000017, 0.000034, -0.000050, -0.000067, -0.000014, 0.000120, 0.000046, -0.000050, 0.000063, -0.243431, 0.000014, -0.000005, -0.000074, 0.000067, 0.000070, 0.000043, 0.000034, -0.136810, 0.000002, 0.000076, -0.490812, -0.000090, -0.001278, 0.000046, -0.000000, 0.000042, -0.000039, -0.000046, 0.000046, -0.000003, 0.000065, -0.000041},
{-0.000024, 0.000027, -0.000056, -0.000239, -0.000165, 0.000119, 0.000007, -0.000121, 0.287472, 0.063435, -0.000048, -0.014585, -0.001282, -0.000035, 0.000029, 0.000030, 0.001152, -0.000024, 0.012043, 0.044847, 0.000038, -0.000398, -0.000033, -0.000845, 0.343283, 0.000350, 0.550353, -0.000022, 0.000006, 0.000107, -0.004176, -0.000004, -0.000038, 0.000388, -0.000002, 0.000034, -0.000063, -0.004637, 0.000008, 0.074508, 0.000003, 0.000001, 0.000083, 0.000030, -0.000585, 0.000384, 0.000107, -0.000206, 0.000060, -0.269812, -0.000055, -0.000010, 0.000020, 0.000024, 0.000121, 0.000127, -0.000003, -0.498579, 0.000028, 0.000051, -0.383212, -0.000165, -0.001179, 0.000024, -0.000036, -0.000151, 0.000079, 0.000001, -0.000024, 0.000037, 0.000036, 0.000048},
{-0.000091, -0.000094, -0.000224, -0.000458, 0.000016, -0.000461, -0.000058, 0.000089, 0.403219, 0.096961, -0.000006, -0.013191, -0.001356, -0.000035, 0.000061, -0.000037, 0.001312, 0.000056, -0.054913, 0.068992, -0.000031, -0.000106, -0.000021, -0.001105, 0.217494, 0.000744, 0.376135, -0.000023, 0.000021, 0.000034, -0.003999, 0.000004, 0.000115, 0.000453, -0.000016, 0.000018, 0.000022, -0.108350, 0.000027, 0.122478, 0.000023, 0.000085, 0.000042, -0.000002, -0.000461, -0.000074, 0.000082, 0.000106, -0.000007, -0.249786, -0.000052, 0.000033, 0.000031, -0.000083, 0.000104, 0.000013, 0.000042, -0.645493, 0.000036, -0.000027, -0.347920, -0.000003, -0.001246, 0.000003, 0.000035, 0.000041, -0.000043, -0.000056, -0.000006, -0.000025, 0.000023, 0.000048},
{-0.000014, -0.000049, -0.000046, 0.000065, 0.000045, 0.000193, -0.000012, -0.000119, 0.486641, 0.079831, 0.000000, -0.011530, -0.001198, 0.000046, -0.000027, -0.000116, 0.001055, -0.000072, 0.040455, 0.063052, -0.000015, -0.000146, 0.000007, -0.001556, 0.326191, 0.000352, 0.491449, 0.000048, 0.000003, -0.000043, -0.003472, -0.000044, -0.000105, 0.000314, 0.000003, 0.000025, 0.000009, -0.178285, -0.000042, 0.101481, 0.000027, -0.000044, -0.000184, 0.000006, 0.000060, 0.000087, -0.000068, -0.000034, 0.000009, -0.352759, -0.000112, 0.000008, 0.000009, 0.000020, 0.000082, -0.000166, -0.000005, -0.546087, -0.000061, -0.000053, -0.135194, -0.000001, -0.001255, 0.000045, 0.000015, -0.000100, -0.000068, 0.000079, -0.000056, 0.000039, -0.000054, -0.000058},
{-0.000048, -0.000008, -0.000097, -0.000044, 0.000076, 0.000408, 0.000031, -0.000062, 0.492524, 0.060610, -0.000014, -0.011389, -0.001108, -0.000155, -0.000028, -0.000069, 0.001111, 0.000005, 0.090763, 0.042015, 0.000045, -0.000216, -0.000015, -0.001366, 0.264625, 0.000381, 0.510974, 0.000009, 0.000066, -0.000014, -0.003835, -0.000015, -0.000106, -0.000156, 0.000003, -0.000018, 0.000011, -0.078514, -0.000085, 0.070612, -0.000002, 0.000079, 0.000003, -0.000055, -0.000006, 0.000290, 0.000151, 0.000079, 0.000022, -0.283642, 0.000047, 0.000003, -0.000039, -0.000012, 0.000055, -0.000223, 0.000000, -0.692732, -0.000028, 0.000019, 0.020201, -0.000062, -0.001343, 0.000051, 0.000043, 0.000009, -0.000030, 0.000024, 0.000017, 0.000034, 0.000089, 0.000089},
{0.000002, -0.000043, 0.000089, -0.000036, -0.000028, 0.000190, 0.000024, 0.000072, 0.695999, 0.016588, -0.000066, -0.011157, -0.001358, -0.000113, -0.000136, -0.000024, 0.001407, -0.000017, 0.093455, 0.007469, 0.000029, 0.000121, 0.000021, -0.000828, 0.391198, 0.000269, 0.606950, -0.000044, 0.000065, 0.000065, -0.003470, 0.000031, 0.000052, 0.000463, -0.000024, -0.000048, -0.000047, 0.086021, -0.000043, 0.022381, 0.000002, -0.000026, 0.000021, -0.000003, -0.000147, -0.000164, -0.000042, 0.000110, -0.000011, -0.271464, 0.000010, -0.000054, 0.000032, -0.000139, -0.000021, -0.000064, 0.000014, -0.450433, -0.000014, 0.000032, 0.193165, 0.000034, -0.001279, -0.000005, 0.000089, -0.000019, -0.000005, 0.000090, 0.000022, 0.000052, 0.000037, 0.000021},
{-0.000029, 0.000022, -0.000081, -0.000379, 0.000041, 0.000277, -0.000025, -0.000064, 0.486101, 0.005295, 0.000014, -0.011641, -0.001209, -0.000258, -0.000015, -0.000033, 0.001008, 0.000034, 0.008116, -0.000116, -0.000086, -0.000245, -0.000013, -0.001310, 0.355148, 0.000289, 0.537922, 0.000065, -0.000046, 0.000015, -0.003585, -0.000018, 0.000080, 0.000526, 0.000004, -0.000010, 0.000026, 0.072538, 0.000047, 0.009782, -0.000029, 0.000066, -0.000009, -0.000018, -0.000420, 0.000158, -0.000087, -0.000044, -0.000020, -0.390527, -0.000071, 0.000024, -0.000047, 0.000051, -0.000030, 0.000217, -0.000023, -0.283104, -0.000026, 0.000104, 0.193012, -0.000018, -0.001169, -0.000018, -0.000017, -0.000019, -0.000001, 0.000041, -0.000027, -0.000040, -0.000107, 0.000053},
{0.000001, -0.000046, -0.000120, -0.000077, -0.000106, -0.000240, 0.000059, 0.000093, 0.284341, 0.023802, 0.000060, -0.009946, -0.001063, -0.000280, 0.000042, 0.000012, 0.001176, 0.000072, 0.138008, 0.003466, 0.000012, -0.000178, -0.000024, -0.000868, 0.429427, 0.000215, 0.297246, 0.000076, 0.000025, 0.000003, -0.004644, -0.000030, -0.000018, 0.000552, -0.000022, 0.000032, -0.000019, -0.009791, -0.000067, 0.022452, -0.000018, -0.000097, 0.000095, -0.000029, -0.000464, 0.000194, 0.000117, 0.000125, -0.000116, -0.316971, -0.000084, -0.000027, 0.000066, -0.000013, -0.000078, 0.000256, 0.000019, -0.181684, -0.000032, -0.000030, 0.128271, 0.000138, -0.001160, 0.000023, 0.000045, 0.000051, -0.000012, 0.000079, -0.000003, 0.000097, 0.000076, -0.000060},
{-0.000034, -0.000015, -0.000004, -0.000359, -0.000112, 0.000322, -0.000034, -0.000048, 0.235506, 0.047946, 0.000036, -0.011602, -0.001009, 0.000023, 0.000074, -0.000062, 0.001068, 0.000026, -0.014646, 0.024837, -0.000114, 0.000177, 0.000016, -0.001144, 0.287101, 0.000348, 0.173877, 0.000057, -0.000008, -0.000069, -0.003387, 0.000018, -0.000044, -0.000196, -0.000012, 0.000010, 0.000025, -0.024054, -0.000040, 0.042954, 0.000044, 0.000126, 0.000083, 0.000036, -0.000156, 0.000248, 0.000031, 0.000016, 0.000024, -0.287665, 0.000039, -0.000153, 0.000003, -0.000014, -0.000012, 0.000112, -0.000012, -0.239677, -0.000016, -0.000037, -0.008277, -0.000090, -0.000989, 0.000012, -0.000028, -0.000022, 0.000102, -0.000072, -0.000020, 0.000065, -0.000013, -0.000115},
