#include "feedforward.h"

fp_type_t w1[178][72] = {{0.000070, -0.000513, -0.000018, 0.000059, -0.000011, -0.000003, -0.000008, -0.000051, 0.000066, -0.000006, 0.000039, -0.000040, -0.000018, -0.000003, 0.000012, -0.000005, -0.000002, -0.000069, 0.000001, -0.000094, 0.000063, -0.000027, 0.000001, -0.000029, -0.000038, -0.119035, 0.000184, -0.005841, -0.015358, -0.000063, 0.000765, 0.000009, -0.000064, 0.009233, 0.000010, -0.000021, -0.000395, -0.000023, 0.000017, 0.142022, -0.000082, -0.000385, 0.000066, 0.001703, -0.286911, 0.000010, 0.000046, -0.000026, 0.000006, 0.000010, 0.000078, -0.000128, -0.068306, -0.000001, -0.001023, 0.000014, -0.000061, 0.000005, 0.000005, 0.000033, 0.000004, 0.002021, -0.000018, 0.017817, -0.000009, -0.000085, -0.000005, 0.000002, 0.000091, -0.048984, 0.004436, 0.000019},
{0.000105, -0.000851, 0.000030, 0.000031, -0.000030, -0.000057, -0.000028, -0.000002, 0.000036, -0.000000, -0.000014, 0.000054, 0.000021, 0.000019, 0.000016, 0.000012, 0.000052, -0.000048, 0.000002, 0.000027, 0.000058, -0.000062, 0.000032, 0.000136, 0.000027, -0.007072, -0.000033, -0.006018, -0.015808, 0.000002, 0.000389, -0.000003, 0.000001, 0.002566, -0.000045, 0.000009, -0.000554, -0.000036, -0.000047, 0.220372, 0.000017, -0.000342, 0.000042, 0.001129, -0.400954, -0.000014, -0.000005, 0.000003, 0.000011, 0.000009, 0.000038, -0.000110, 0.117736, -0.000089, -0.001128, 0.000170, -0.000025, -0.000008, 0.000005, -0.000044, 0.000002, 0.002090, 0.000061, 0.017681, -0.000139, 0.000118, -0.000014, -0.000073, 0.000021, 0.100025, 0.002201, 0.000015},
{0.000040, -0.000946, 0.000044, -0.000039, -0.000018, -0.000086, -0.000024, 0.000028, -0.000023, -0.000001, -0.000071, -0.000381, 0.000017, 0.000004, 0.000006, -0.000018, -0.000031, 0.000040, 0.000014, 0.000004, -0.000025, 0.000033, -0.000057, 0.000136, -0.000008, -0.021483, 0.000028, -0.005839, -0.016063, 0.000044, 0.000562, -0.000050, -0.000060, 0.003169, 0.000014, -0.000010, -0.000589, 0.000030, 0.000030, 0.195315, 0.000017, -0.000726, 0.000093, 0.001306, -0.362023, 0.000010, -0.000027, 0.000023, -0.000016, -0.000013, -0.000115, -0.000052, 0.187406, -0.000104, -0.001165, 0.000072, 0.000024, 0.000001, 0.000035, -0.000051, 0.000002, 0.002047, 0.000036, 0.016373, -0.000142, 0.000069, -0.000022, -0.000049, -0.000066, -0.001120, 0.002560, 0.000008},
{-0.000040, -0.001176, -0.000019, 0.000032, -0.000055, 0.000053, -0.000008, -0.000035, 0.000026, -0.000002, -0.000015, -0.000245, -0.000021, -0.000003, 0.000005, -0.000018, -0.000025, 0.000062, -0.000001, 0.000072, -0.000039, 0.000070, 0.000007, 0.000051, 0.000014, -0.001246, -0.000110, -0.006236, -0.016339, -0.000068, 0.000776, -0.000034, -0.000066, 0.004298, 0.000018, 0.000001, -0.000433, -0.000050, -0.000002, 0.196796, 0.000069, -0.000041, -0.000046, 0.001551, -0.458394, -0.000037, -0.000039, 0.000025, 0.000011, 0.000027, 0.000055, -0.000135, 0.265418, -0.000032, -0.001108, 0.000007, -0.000045, 0.000005, 0.000012, -0.000010, -0.000015, 0.001549, 0.000004, 0.014079, -0.000039, -0.000076, 0.000026, 0.000137, 0.000103, 0.138947, 0.003227, 0.000043},
{-0.000043, -0.001075, -0.000024, 0.000050, 0.000079, -0.000145, 0.000020, -0.000043, -0.000020, -0.000000, 0.000030, -0.000102, 0.000004, 0.000020, 0.000013, 0.000030, 0.000010, -0.000061, 0.000008, 0.000011, -0.000004, 0.000040, 0.000012, -0.000023, -0.000097, -0.158057, 0.000024, -0.005836, -0.016490, -0.000022, 0.000737, -0.000015, -0.000053, 0.006008, -0.000014, 0.000009, -0.000389, 0.000019, -0.000004, 0.173114, 0.000004, -0.000586, 0.000065, 0.001450, -0.802906, -0.000024, -0.000041, -0.000085, -0.000048, -0.000031, 0.000056, 0.000081, 0.071490, -0.000180, -0.001334, -0.000036, 0.000056, -0.000013, 0.000034, 0.000005, -0.000007, 0.002230, 0.000044, 0.013168, -0.000047, 0.000093, 0.000030, 0.000059, -0.000013, -0.045789, 0.002961, -0.000019},
{-0.000064, -0.001035, 0.000034, -0.000060, -0.000005, 0.000155, 0.000011, 0.000020, -0.000025, 0.000006, -0.000010, 0.000069, -0.000050, 0.000003, 0.000013, 0.000068, 0.000023, 0.000129, 0.000132, -0.000036, 0.000022, 0.000028, -0.000024, -0.000056, 0.000042, -0.018522, 0.000185, -0.005963, -0.016035, 0.000023, 0.000503, 0.000032, 0.000063, 0.002175, 0.000008, 0.000005, -0.000098, -0.000021, -0.000152, 0.207062, -0.000049, -0.000035, -0.000052, 0.001033, -0.773715, 0.000028, -0.000040, 0.000103, 0.000089, -0.000044, -0.000105, -0.000196, 0.202428, -0.000008, -0.000936, 0.000037, 0.000035, -0.000003, -0.000010, 0.000017, -0.000001, 0.002155, 0.000033, 0.012587, 0.000048, -0.000070, -0.000017, -0.000094, -0.000143, -0.101689, 0.001906, 0.000025},
{-0.000058, -0.001011, -0.000010, 0.000007, -0.000156, -0.000011, 0.000035, 0.000015, 0.000028, -0.000001, 0.000047, -0.000169, -0.000052, 0.000002, 0.000073, 0.000057, -0.000026, 0.000043, 0.000022, 0.000098, 0.000081, -0.000115, -0.000007, -0.000035, -0.000070, 0.092300, -0.000047, -0.006697, -0.015137, -0.000084, 0.000110, -0.000019, 0.000018, -0.000164, -0.000039, 0.000055, 0.000006, 0.000061, -0.000061, 0.271304, 0.000023, -0.000034, 0.000029, 0.000363, -0.830082, 0.000013, 0.000036, -0.000024, -0.000020, 0.000020, 0.000058, -0.000017, 0.220354, -0.000081, -0.000784, 0.000015, -0.000068, 0.000001, 0.000011, 0.000017, -0.000008, 0.002780, -0.000156, 0.011604, 0.000003, -0.000059, 0.000053, 0.000014, -0.000125, -0.023575, 0.000418, -0.000006},
{0.000000, -0.000981, 0.000027, -0.000019, -0.000014, 0.000129, -0.000001, -0.000097, -0.000054, 0.000029, 0.000013, -0.000471, -0.000006, -0.000011, -0.000043, -0.000046, 0.000008, 0.000053, -0.000018, -0.000123, -0.000017, 0.000093, -0.000038, 0.000069, -0.000057, 0.100940, 0.000107, -0.006910, -0.014438, -0.000026, 0.000003, 0.000077, -0.000055, -0.002022, 0.000014, -0.000033, -0.000190, -0.000056, -0.000010, 0.216459, 0.000006, 0.000139, -0.000010, 0.000196, -0.686028, -0.000088, 0.000084, 0.000090, -0.000022, 0.000003, -0.000085, -0.000051, 0.163762, 0.000008, -0.001049, -0.000002, -0.000015, -0.000003, 0.000007, -0.000187, 0.000003, 0.002596, 0.000007, 0.011772, -0.000062, -0.000010, 0.000070, -0.000000, -0.000054, 0.001962, -0.000029, -0.000014},
{-0.000091, -0.001281, 0.000000, 0.000032, -0.000024, 0.000001, -0.000015, -0.000072, -0.000016, 0.000016, 0.000047, -0.000023, 0.000028, -0.000012, 0.000003, -0.000027, -0.000007, 0.000034, 0.000064, 0.000006, -0.000016, -0.000012, 0.000034, 0.000005, 0.000059, 0.317166, 0.000087, -0.006269, -0.014205, -0.000031, 0.000009, -0.000006, -0.000084, -0.000957, -0.000014, -0.000002, -0.000104, 0.000030, -0.000066, 0.154815, -0.000007, -0.000249, -0.000025, 0.000259, -0.648081, 0.000019, -0.000015, 0.000034, 0.000008, 0.000005, -0.000052, -0.000101, 0.292479, -0.000217, -0.002788, -0.000029, 0.000015, 0.000005, 0.000011, -0.000020, 0.000003, 0.002953, 0.000077, 0.011580, -0.000082, 0.000111, 0.000040, -0.000009, -0.000061, -0.149654, 0.000206, 0.000000},
{0.000009, -0.001231, -0.000009, -0.000025, -0.000009, 0.000092, 0.000012, 0.000032, 0.000091, 0.000008, 0.000015, -0.000481, -0.000037, -0.000002, -0.000012, -0.000012, -0.000025, 0.000082, 0.000021, -0.000044, 0.000021, 0.000056, 0.000011, 0.000104, 0.000017, 0.370049, -0.000058, -0.006392, -0.014468, 0.000109, 0.000142, -0.000017, 0.000027, 0.000589, 0.000066, -0.000011, 0.000119, -0.000046, -0.000027, 0.097276, 0.000028, -0.000159, 0.000004, 0.000555, -0.635483, 0.000026, 0.000065, 0.000060, 0.000036, 0.000019, -0.000060, -0.000104, 0.208322, 0.000018, -0.001059, -0.000024, -0.000003, -0.000005, -0.000007, -0.000005, -0.000008, 0.003163, -0.000081, 0.011765, 0.000153, -0.000022, -0.000039, 0.000012, -0.000049, -0.044480, 0.000942, 0.000015},
{-0.000031, -0.001130, 0.000004, 0.000061, -0.000063, -0.000105, 0.000074, -0.000072, 0.000016, 0.000019, 0.000015, -0.000369, 0.000019, -0.000018, -0.000004, -0.000012, -0.000083, -0.000082, -0.000064, 0.000019, -0.000022, 0.000002, 0.000029, 0.000031, 0.000021, 0.401096, -0.000012, -0.006570, -0.015273, 0.000001, 0.000348, -0.000018, 0.000078, 0.001891, -0.000010, -0.000023, 0.000188, -0.000144, 0.000028, -0.007779, -0.000063, -0.000431, 0.000012, 0.000998, -0.499272, 0.000001, 0.000026, -0.000051, 0.000000, -0.000009, -0.000075, -0.000180, 0.114381, -0.000138, -0.002148, 0.000041, -0.000007, -0.000001, 0.000004, -0.000050, 0.000003, 0.003111, 0.000176, 0.012105, -0.000046, -0.000023, 0.000055, 0.000019, -0.000084, 0.116633, 0.001861, -0.000017},
{0.000103, -0.001029, -0.000027, -0.000040, -0.000102, -0.000045, 0.000033, -0.000024, -0.000015, 0.000012, -0.000019, -0.000211, -0.000036, 0.000001, 0.000001, -0.000016, 0.000018, 0.000081, -0.000035, 0.000077, 0.000012, -0.000016, 0.000030, -0.000012, -0.000007, 0.340002, 0.000026, -0.006946, -0.014997, -0.000021, 0.000751, -0.000042, 0.000023, 0.030319, -0.000010, 0.000027, 0.000141, 0.000113, -0.000039, -0.182423, -0.000024, -0.000593, 0.000035, 0.001658, -0.509668, 0.000017, -0.000019, 0.000097, -0.000051, 0.000005, -0.000046, -0.000127, 0.100331, 0.000005, -0.001519, -0.000017, -0.000017, -0.000005, -0.000043, -0.000007, -0.000008, 0.003089, 0.000066, 0.012483, 0.000004, 0.000067, -0.000019, 0.000027, -0.000012, 0.147781, 0.004020, 0.000014},
{-0.000019, -0.000860, 0.000048, 0.000059, -0.000042, -0.000089, 0.000002, 0.000014, 0.000010, 0.000011, 0.000011, -0.000297, 0.000086, -0.000004, 0.000016, -0.000033, 0.000007, 0.000015, -0.000018, 0.000003, -0.000022, -0.000004, -0.000064, 0.000054, 0.000005, 0.228734, 0.000033, -0.006685, -0.014953, 0.000085, 0.000827, 0.000021, -0.000080, 0.012280, 0.000020, 0.000008, 0.000282, -0.000224, 0.000089, -0.225209, -0.000075, -0.000701, 0.000070, 0.001687, -0.333538, 0.000037, -0.000016, -0.000002, 0.000027, -0.000007, -0.000058, 0.000071, 0.202208, -0.000090, -0.001443, 0.000052, 0.000034, -0.000000, 0.000028, -0.000064, -0.000002, 0.002699, 0.000057, 0.012347, -0.000087, 0.000112, -0.000023, 0.000058, 0.000309, 0.199701, 0.003615, -0.000005},
{-0.000051, -0.000790, 0.000089, -0.000011, -0.000047, -0.000070, -0.000014, 0.000002, -0.000021, -0.000002, -0.000054, -0.000397, 0.000029, -0.000030, 0.000005, -0.000044, -0.000011, 0.000056, 0.000012, -0.000062, -0.000024, 0.000014, 0.000031, 0.000010, -0.000020, 0.252198, 0.000056, -0.006745, -0.014709, -0.000046, 0.000565, 0.000017, -0.000003, 0.002685, -0.000018, -0.000008, 0.000284, -0.000003, -0.000037, -0.396317, -0.000054, -0.000397, -0.000070, 0.001236, -0.089911, 0.000050, -0.000006, -0.000010, -0.000031, 0.000004, -0.000020, 0.000135, 0.258604, -0.000034, -0.001356, -0.000072, 0.000013, 0.000002, -0.000011, 0.000040, 0.000002, 0.003049, -0.000083, 0.013135, 0.000084, -0.000052, 0.000053, 0.000061, -0.000228, 0.231984, 0.002238, 0.000003},
{-0.000004, -0.000799, -0.000030, 0.000053, -0.000031, -0.000062, 0.000010, -0.000022, 0.000101, -0.000005, -0.000042, -0.000379, 0.000001, -0.000022, 0.000022, 0.000017, -0.000021, 0.000069, -0.000020, 0.000005, -0.000041, -0.000017, -0.000016, -0.000208, -0.000039, 0.119169, -0.000041, -0.006160, -0.014011, 0.000001, 0.000511, -0.000020, -0.000070, 0.001678, -0.000016, -0.000013, 0.000300, 0.000058, 0.000025, -0.410499, -0.000021, -0.000338, 0.000024, 0.000949, 0.002216, -0.000036, -0.000033, -0.000063, -0.000033, -0.000006, 0.000005, 0.000120, 0.056487, 0.000030, -0.001677, 0.000062, 0.000014, 0.000009, 0.000037, 0.000050, 0.000002, 0.002970, 0.000103, 0.012061, 0.000045, 0.000097, -0.000035, -0.000006, -0.000061, 0.170420, 0.001620, -0.000016},
{-0.000027, -0.000560, -0.000018, 0.000047, -0.000065, -0.000069, -0.000015, 0.000052, 0.000045, -0.000032, -0.000043, -0.000273, 0.000041, 0.000012, -0.000012, -0.000007, -0.000006, -0.000027, 0.000023, 0.000014, -0.000028, 0.000103, 0.000040, -0.000016, -0.000021, 0.074718, 0.000085, -0.006029, -0.014074, 0.000020, 0.000768, 0.000015, 0.000062, 0.003698, -0.000033, 0.000018, 0.000235, -0.000077, -0.000004, -0.560509, 0.000104, 0.000119, 0.000059, 0.001317, 0.213552, 0.000040, -0.000002, 0.000034, 0.000025, -0.000029, -0.000017, -0.000005, -0.024701, 0.000050, -0.001984, -0.000009, 0.000013, 0.000008, 0.000001, 0.000113, 0.000000, 0.003045, -0.000108, 0.008824, 0.000090, -0.000058, -0.000037, -0.000027, 0.000028, 0.032131, 0.002778, 0.000004},
{0.000028, -0.000592, -0.000003, 0.000035, -0.000006, -0.000000, 0.000012, 0.000040, 0.000038, 0.000004, -0.000017, -0.000384, -0.000016, 0.000002, 0.000021, -0.000019, 0.000006, 0.000061, -0.000037, -0.000058, -0.000040, 0.000015, 0.000000, -0.000014, -0.000018, 0.150389, 0.000183, -0.006320, -0.013111, -0.000036, 0.001242, 0.000011, -0.000044, 0.032725, -0.000008, -0.000008, 0.000209, -0.000012, 0.000104, -0.665015, -0.000063, 0.000179, -0.000025, 0.002247, 0.380657, -0.000008, -0.000030, 0.000012, 0.000008, 0.000032, -0.000081, -0.000127, 0.062640, -0.000157, -0.001874, 0.000065, 0.000020, 0.000001, -0.000016, -0.000017, -0.000005, 0.003127, 0.000113, 0.006929, 0.000014, 0.000044, -0.000026, 0.000048, -0.000155, 0.145367, 0.009188, -0.000015},
{-0.000038, -0.000346, -0.000010, -0.000014, -0.000028, -0.000018, -0.000023, -0.000042, -0.000016, -0.000016, 0.000091, -0.000148, -0.000004, 0.000014, -0.000004, 0.000034, -0.000003, -0.000059, -0.000031, -0.000085, -0.000041, -0.000021, -0.000028, -0.000052, 0.000027, 0.148891, -0.000030, -0.006077, -0.012292, 0.000014, 0.001779, -0.000047, 0.000002, 0.052687, -0.000013, 0.000011, 0.000233, 0.000040, -0.000048, -0.715648, 0.000015, 0.000045, -0.000021, 0.004655, 0.324165, -0.000022, -0.000036, -0.000023, -0.000007, -0.000016, 0.000037, 0.000277, 0.037144, -0.000151, -0.001694, -0.000019, -0.000045, 0.000000, -0.000009, 0.000018, 0.000018, 0.003527, 0.000044, 0.003891, -0.000041, 0.000054, -0.000042, -0.000057, 0.000085, -0.044658, 0.041472, -0.000022},
{-0.000011, -0.000517, 0.000022, -0.000018, 0.000036, 0.000025, -0.000009, 0.000038, 0.000019, -0.000001, 0.000027, -0.000319, -0.000026, 0.000010, -0.000005, -0.000032, -0.000014, -0.000000, 0.000013, -0.000117, -0.000053, 0.000000, 0.000006, 0.000043, 0.000099, 0.078622, 0.000001, -0.006020, -0.013968, 0.000037, 0.001670, 0.000023, 0.000058, 0.038572, 0.000049, 0.000008, 0.000162, -0.000058, -0.000102, -0.756288, -0.000007, -0.000527, -0.000029, 0.003239, 0.403552, 0.000024, -0.000067, -0.000034, 0.000075, -0.000037, -0.000114, 0.000260, 0.042498, -0.000040, -0.001012, 0.000008, -0.000070, 0.000009, 0.000020, -0.000022, -0.000007, 0.002789, -0.000131, 0.003190, 0.000025, 0.000090, -0.000034, 0.000001, 0.000043, 0.061285, 0.028079, -0.000033},
{0.000018, -0.000571, -0.000076, -0.000003, 0.000050, 0.000006, 0.000019, -0.000030, 0.000001, -0.000009, -0.000053, 0.000002, 0.000007, 0.000004, 0.000019, -0.000021, -0.000023, 0.000009, 0.000033, 0.000061, -0.000019, -0.000004, -0.000011, -0.000055, -0.000058, 0.094091, -0.000043, -0.006385, -0.012244, -0.000105, 0.001391, -0.000007, 0.000034, 0.023696, 0.000002, -0.000005, 0.000084, -0.000111, 0.000018, -0.746377, -0.000007, -0.000854, 0.000029, 0.002193, 0.303140, -0.000001, -0.000023, 0.000002, 0.000013, -0.000030, -0.000078, 0.000053, 0.035380, 0.000175, -0.001074, -0.000063, -0.000033, -0.000004, -0.000019, -0.000037, -0.000004, 0.002438, -0.000012, 0.003473, -0.000003, -0.000017, -0.000026, -0.000109, 0.000056, 0.151954, 0.007636, 0.000017},
{0.000040, -0.000794, -0.000016, -0.000005, -0.000034, -0.000050, 0.000008, -0.000003, 0.000004, -0.000004, 0.000068, -0.000185, -0.000043, -0.000016, -0.000004, 0.000031, -0.000035, -0.000012, 0.000059, 0.000007, -0.000067, -0.000031, 0.000026, 0.000047, 0.000025, 0.148452, 0.000083, -0.006288, -0.012878, -0.000033, 0.001191, 0.000051, 0.000106, 0.014968, 0.000032, 0.000010, 0.000035, 0.000059, -0.000020, -0.535759, 0.000020, -0.000151, -0.000063, 0.001887, 0.545368, 0.000012, 0.000008, -0.000059, 0.000065, 0.000021, 0.000033, 0.000028, 0.079720, -0.000130, -0.000152, 0.000032, -0.000048, -0.000009, -0.000011, 0.000003, -0.000001, 0.002524, -0.000064, 0.003573, 0.000129, -0.000118, 0.000095, 0.000066, 0.000054, 0.096756, 0.004199, -0.000008},
{0.000061, -0.001034, 0.000008, -0.000033, 0.000035, 0.000063, 0.000043, 0.000026, -0.000018, -0.000006, -0.000012, 0.000056, 0.000047, 0.000006, -0.000008, -0.000020, 0.000017, -0.000060, -0.000023, -0.000064, -0.000031, -0.000020, 0.000020, 0.000096, -0.000057, 0.177561, -0.000085, -0.006193, -0.012350, 0.000016, 0.001540, -0.000067, -0.000004, 0.065563, -0.000013, -0.000010, -0.000073, -0.000025, 0.000062, -0.459992, -0.000004, -0.000027, 0.000030, 0.003475, 0.436064, -0.000039, 0.000041, 0.000035, 0.000008, 0.000004, -0.000041, -0.000069, -0.119888, 0.000100, -0.000514, -0.000038, 0.000031, -0.000006, -0.000005, -0.000029, -0.000000, 0.002528, -0.000076, 0.003624, 0.000158, -0.000023, 0.000039, 0.000009, -0.000050, -0.098484, 0.023008, 0.000010},
{-0.000042, -0.001004, 0.000021, 0.000060, -0.000001, -0.000118, 0.000026, -0.000015, -0.000015, 0.000008, 0.000046, -0.000384, 0.000022, -0.000014, -0.000024, -0.000038, -0.000046, -0.000019, -0.000002, -0.000014, -0.000041, 0.000017, 0.000027, -0.000051, 0.000042, 0.032015, -0.000021, -0.006195, -0.012545, -0.000044, 0.019432, 0.000016, 0.000064, 0.122399, -0.000017, -0.000070, 0.000167, -0.000039, 0.000092, -0.364527, -0.000010, 0.000089, 0.000010, 0.032435, 0.402702, 0.000011, 0.000026, -0.000018, 0.000006, 0.000008, -0.000034, -0.000080, -0.294932, 0.000025, -0.000745, -0.000005, 0.000023, -0.000016, 0.000004, -0.000004, -0.000002, 0.002640, -0.000073, 0.004083, 0.000152, -0.000066, -0.000016, 0.000003, -0.000083, -0.327802, 0.081286, -0.000002},
{-0.000017, -0.000941, -0.000030, -0.000011, -0.000017, 0.000036, 0.000022, -0.000062, 0.000030, -0.000020, 0.000011, 0.000061, 0.000013, 0.000001, 0.000013, 0.000051, 0.000004, 0.000001, -0.000103, 0.000070, -0.000006, -0.000079, -0.000029, 0.000001, 0.000003, 0.061250, 0.000058, -0.006382, -0.012836, -0.000058, 0.040010, -0.000112, -0.000062, 0.162924, -0.000011, -0.000020, 0.000185, -0.000106, 0.000014, -0.253779, -0.000042, -0.000079, 0.000043, 0.054368, 0.403638, -0.000055, 0.000023, 0.000014, 0.000022, 0.000014, 0.000066, -0.000189, -0.331004, -0.000097, -0.001752, 0.000022, 0.000048, 0.000013, -0.000037, -0.000016, 0.000004, 0.002879, -0.000063, 0.002737, 0.000017, 0.000096, -0.000014, -0.000077, 0.000090, -0.258107, 0.103378, 0.000018},
{0.000020, -0.000756, 0.000056, 0.000025, 0.000044, 0.000122, 0.000025, 0.000064, 0.000079, -0.000006, -0.000028, -0.000144, -0.000014, -0.000008, -0.000022, -0.000003, 0.000086, -0.000010, -0.000009, -0.000097, -0.000003, -0.000105, -0.000049, -0.000040, -0.000074, 0.031189, -0.000061, -0.006283, -0.014013, 0.000057, 0.012186, -0.000027, 0.000010, 0.104004, -0.000009, -0.000036, 0.000281, 0.000084, 0.000051, -0.088512, 0.000039, 0.000106, -0.000067, 0.020825, 0.402859, -0.000053, 0.000057, -0.000044, 0.000017, 0.000019, -0.000005, 0.000233, -0.216181, -0.000048, -0.001361, -0.000019, -0.000038, -0.000003, 0.000064, -0.000021, 0.000018, 0.002404, -0.000036, 0.003359, 0.000235, 0.000062, -0.000004, -0.000047, -0.000074, -0.212684, 0.061597, -0.000008},
{-0.000023, -0.000612, 0.000025, 0.000012, 0.000015, 0.000110, 0.000021, 0.000031, -0.000007, -0.000016, 0.000028, -0.000377, 0.000066, -0.000000, 0.000001, -0.000031, -0.000056, -0.000051, 0.000066, -0.000026, 0.000017, -0.000005, -0.000037, 0.000038, 0.000022, 0.007517, 0.000032, -0.006971, -0.013817, 0.000004, 0.001076, -0.000021, -0.000045, 0.024385, 0.000032, 0.000013, 0.000172, -0.000061, -0.000069, 0.115742, -0.000049, -0.000113, 0.000025, 0.002125, 0.499818, -0.000033, 0.000033, 0.000002, -0.000026, 0.000054, 0.000047, -0.000142, -0.161345, -0.000080, -0.001777, -0.000000, -0.000036, 0.000006, -0.000027, 0.000001, -0.000006, 0.002727, 0.000000, 0.003702, 0.000039, -0.000070, -0.000065, -0.000093, 0.000064, 0.006821, 0.009172, 0.000016},
{0.000051, -0.000572, -0.000016, -0.000016, 0.000083, -0.000113, 0.000018, -0.000028, -0.000040, 0.000002, 0.000002, -0.000279, 0.000025, 0.000021, -0.000011, -0.000012, 0.000041, 0.000024, -0.000024, 0.000061, 0.000017, 0.000007, 0.000015, 0.000043, 0.000015, -0.091890, 0.000028, -0.006234, -0.014316, -0.000009, 0.000973, 0.000017, 0.000056, 0.026424, 0.000013, 0.000005, 0.000189, -0.000039, 0.000036, 0.171460, 0.000075, 0.000055, 0.000073, 0.001892, 0.453254, -0.000020, 0.000017, 0.000050, -0.000015, 0.000000, -0.000085, 0.000214, 0.015852, 0.000029, -0.002171, -0.000088, -0.000015, -0.000010, 0.000012, 0.000014, -0.000008, 0.002260, -0.000114, 0.004311, -0.000024, 0.000035, -0.000003, 0.000031, -0.000080, 0.150875, 0.005119, 0.000008},
{0.000036, -0.000457, -0.000040, -0.000014, -0.000030, 0.000010, 0.000044, -0.000036, 0.000005, 0.000015, 0.000022, -0.000242, -0.000026, -0.000001, -0.000001, -0.000030, -0.000007, 0.000018, 0.000024, -0.000045, 0.000034, -0.000156, 0.000013, -0.000030, 0.000044, -0.339908, -0.000051, -0.006552, -0.014450, 0.000017, 0.002099, -0.000040, -0.000061, 0.055852, 0.000007, 0.000024, 0.000287, -0.000039, 0.000051, 0.186691, -0.000031, -0.000156, 0.000043, 0.008236, 0.277856, -0.000019, -0.000046, 0.000008, 0.000048, -0.000010, 0.000185, 0.000090, 0.181611, -0.000067, -0.001222, 0.000006, 0.000039, -0.000008, 0.000015, -0.000016, 0.000000, 0.002437, 0.000246, 0.004431, -0.000043, 0.000067, -0.000014, 0.000048, 0.000120, 0.141300, 0.034924, 0.000041},
{-0.000001, -0.000542, -0.000033, 0.000016, -0.000025, -0.000026, 0.000036, -0.000009, -0.000034, 0.000002, -0.000027, 0.000072, -0.000055, 0.000015, -0.000031, 0.000005, 0.000020, -0.000066, 0.000035, -0.000022, -0.000020, -0.000028, -0.000061, 0.000009, 0.000071, -0.355754, -0.000008, -0.006848, -0.014057, 0.000020, 0.022434, -0.000033, 0.000026, 0.118038, -0.000038, 0.000021, 0.000243, 0.000111, -0.000072, 0.190505, -0.000062, 0.000237, -0.000068, 0.035279, 0.183517, -0.000017, -0.000066, -0.000017, -0.000009, 0.000003, 0.000021, 0.000197, 0.135998, -0.000037, -0.000810, 0.000003, -0.000005, 0.000007, -0.000023, 0.000002, 0.000002, 0.002633, -0.000047, 0.005803, -0.000015, 0.000020, 0.000012, 0.000013, -0.000019, -0.080665, 0.077507, 0.000021},
{0.000012, -0.000773, -0.000018, 0.000012, -0.000045, 0.000015, -0.000015, -0.000009, -0.000081, -0.000003, 0.000045, 0.000114, -0.000034, 0.000027, 0.000012, -0.000012, -0.000052, -0.000016, 0.000001, -0.000040, -0.000029, 0.000029, -0.000020, 0.000048, 0.000027, -0.422126, 0.000043, -0.006430, -0.013748, 0.000043, 0.039092, -0.000012, 0.000094, 0.134730, -0.000011, -0.000022, 0.000295, 0.000062, 0.000057, 0.298799, -0.000040, -0.000392, 0.000022, 0.049457, 0.220118, 0.000037, 0.000065, 0.000057, 0.000087, -0.000004, -0.000096, 0.000163, 0.265975, 0.000191, -0.001566, -0.000079, -0.000025, -0.000001, 0.000009, -0.000022, -0.000002, 0.002634, 0.000182, 0.006348, 0.000004, -0.000015, -0.000033, 0.000022, -0.000058, -0.188387, 0.101751, 0.000005},
{-0.000052, -0.000836, 0.000009, 0.000045, -0.000018, 0.000166, 0.000009, 0.000001, 0.000070, -0.000005, 0.000013, -0.000347, 0.000017, 0.000027, -0.000002, 0.000026, 0.000038, -0.000040, 0.000013, 0.000046, 0.000043, -0.000003, 0.000027, 0.000032, 0.000027, -0.191043, 0.000056, -0.006787, -0.013381, 0.000085, 0.032412, 0.000030, 0.000072, 0.136444, 0.000033, 0.000048, 0.000241, 0.000087, 0.000019, 0.297509, 0.000015, 0.000124, 0.000058, 0.046764, 0.043825, 0.000069, -0.000016, -0.000040, -0.000011, -0.000011, 0.000067, 0.000068, 0.070535, 0.000055, -0.001309, 0.000023, 0.000062, 0.000016, -0.000003, -0.000025, -0.000002, 0.002691, 0.000083, 0.007959, -0.000014, -0.000003, 0.000009, 0.000089, -0.000108, -0.187120, 0.098280, -0.000002},
{-0.000043, -0.000887, 0.000007, 0.000007, 0.000083, 0.000121, 0.000019, 0.000019, -0.000052, 0.000007, -0.000014, -0.000089, -0.000065, -0.000008, -0.000013, 0.000001, 0.000080, 0.000028, 0.000066, -0.000044, -0.000009, -0.000030, 0.000009, -0.000036, 0.000026, -0.173775, 0.000182, -0.006310, -0.013148, -0.000023, 0.030331, -0.000023, -0.000039, 0.141518, -0.000019, -0.000016, 0.000084, 0.000061, -0.000034, 0.425419, -0.000018, 0.000149, -0.000039, 0.040040, -0.123072, 0.000042, -0.000016, -0.000058, 0.000058, 0.000003, -0.000079, 0.000213, 0.214994, -0.000028, -0.001282, -0.000058, 0.000033, -0.000005, 0.000020, -0.000034, 0.000000, 0.002768, 0.000157, 0.009404, -0.000077, 0.000046, -0.000007, 0.000033, 0.000040, -0.296369, 0.087328, -0.000009},
{-0.000013, -0.000884, -0.000033, -0.000039, -0.000049, 0.000030, 0.000040, -0.000032, -0.000043, -0.000014, 0.000016, -0.000435, 0.000028, 0.000014, 0.000037, -0.000046, -0.000008, -0.000046, 0.000113, -0.000113, -0.000081, 0.000001, -0.000043, -0.000079, -0.000007, -0.296782, 0.000013, -0.006151, -0.013233, 0.000085, 0.034451, 0.000000, -0.000093, 0.133400, -0.000007, 0.000010, -0.000030, 0.000051, 0.000037, 0.442856, 0.000032, -0.000441, 0.000074, 0.051141, -0.225714, 0.000046, 0.000003, -0.000017, 0.000024, -0.000012, 0.000112, 0.000127, 0.148552, -0.000057, -0.001261, -0.000079, -0.000066, -0.000006, -0.000011, -0.000013, 0.000006, 0.002996, -0.000000, 0.008607, -0.000119, 0.000158, 0.000012, -0.000114, 0.000061, -0.054591, 0.097037, 0.000006},
{-0.000014, -0.000925, 0.000055, -0.000011, 0.000049, -0.000108, -0.000025, 0.000001, -0.000003, -0.000002, 0.000051, 0.000050, -0.000019, -0.000007, 0.000034, -0.000018, 0.000007, -0.000020, 0.000015, -0.000099, -0.000026, 0.000003, 0.000008, 0.000005, 0.000028, -0.349614, -0.000007, -0.006439, -0.013419, 0.000166, 0.028410, -0.000013, -0.000061, 0.127828, -0.000011, -0.000021, 0.000038, -0.000040, -0.000002, 0.471376, -0.000150, -0.000120, 0.000056, 0.040045, -0.312396, -0.000012, -0.000047, 0.000139, 0.000011, 0.000011, -0.000235, 0.000042, 0.303989, -0.000171, -0.001101, -0.000080, 0.000018, -0.000010, 0.000008, -0.000040, -0.000002, 0.002361, -0.000106, 0.008067, -0.000130, -0.000105, 0.000046, -0.000009, -0.000021, -0.017404, 0.085335, 0.000028},
{-0.000043, -0.000961, -0.000009, 0.000002, -0.000018, -0.000078, 0.000041, -0.000013, -0.000081, -0.000003, 0.000100, -0.000017, 0.000024, -0.000024, -0.000043, -0.000018, -0.000025, 0.000066, 0.000062, -0.000026, -0.000070, 0.000047, -0.000022, -0.000020, -0.000029, -0.380882, 0.000069, -0.006283, -0.013808, -0.000008, 0.009231, -0.000014, -0.000069, 0.081533, -0.000008, 0.000011, 0.000123, -0.000025, -0.000009, 0.474371, 0.000005, -0.000119, -0.000092, 0.018273, -0.256688, 0.000006, -0.000141, 0.000143, 0.000020, -0.000018, -0.000066, -0.000166, 0.341693, 0.000046, -0.000342, -0.000012, -0.000016, 0.000006, 0.000011, 0.000013, -0.000003, 0.002316, -0.000040, 0.007648, 0.000014, 0.000047, 0.000021, 0.000054, -0.000180, 0.106957, 0.053948, 0.000001},
{0.000108, -0.001018, -0.000052, 0.000006, 0.000048, 0.000163, 0.000009, 0.000005, -0.000018, 0.000021, 0.000044, 0.000003, -0.000031, -0.000011, -0.000004, -0.000018, -0.000035, 0.000032, 0.000046, 0.000022, 0.000043, -0.000037, 0.000027, 0.000081, -0.000010, -0.578746, 0.000002, -0.006344, -0.013857, 0.000064, 0.002630, 0.000023, 0.000026, 0.041391, -0.000020, -0.000014, 0.000303, -0.000013, 0.000037, 0.438490, -0.000021, -0.000458, 0.000017, 0.004481, -0.130905, 0.000046, 0.000024, 0.000151, 0.000026, -0.000017, 0.000103, -0.000042, 0.452842, 0.000037, -0.000247, -0.000052, -0.000036, -0.000020, -0.000013, -0.000007, -0.000008, 0.002499, -0.000107, 0.007527, 0.000051, -0.000037, 0.000024, 0.000011, -0.000116, 0.013570, 0.026300, 0.000017},
{-0.000041, -0.000812, -0.000003, 0.000062, 0.000024, 0.000073, 0.000012, -0.000051, 0.000001, -0.000014, -0.000018, 0.000075, 0.000028, -0.000009, -0.000012, -0.000005, -0.000009, -0.000011, 0.000014, 0.000056, -0.000032, -0.000057, 0.000026, -0.000055, 0.000044, -0.514201, -0.000070, -0.006450, -0.012180, -0.000027, 0.002464, -0.000002, -0.000000, 0.033491, 0.000028, -0.000013, 0.000113, -0.000005, 0.000064, 0.393884, -0.000025, -0.000202, 0.000011, 0.003989, -0.222900, -0.000044, 0.000004, -0.000024, -0.000017, 0.000006, -0.000000, 0.000029, 0.390957, -0.000082, -0.000980, 0.000015, -0.000090, -0.000007, -0.000010, 0.000007, 0.000005, 0.002369, -0.000026, 0.007963, -0.000041, 0.000052, -0.000063, -0.000026, 0.000008, -0.047651, 0.021506, -0.000025},
{0.000112, -0.000645, -0.000029, 0.000019, -0.000052, 0.000065, -0.000026, -0.000014, 0.000031, 0.000007, 0.000019, 0.000067, 0.000004, 0.000019, 0.000073, -0.000035, 0.000007, -0.000078, -0.000028, 0.000117, 0.000036, 0.000029, -0.000043, -0.000053, 0.000096, -0.524087, 0.000181, -0.007056, -0.012034, -0.000023, 0.002407, 0.000098, 0.000038, 0.070533, 0.000028, 0.000007, 0.000250, 0.000069, -0.000057, 0.348562, -0.000068, -0.000475, -0.000068, 0.004928, -0.147833, -0.000045, -0.000010, 0.000105, -0.000027, -0.000009, 0.000023, -0.000015, 0.291735, -0.000119, -0.000107, -0.000104, -0.000021, 0.000007, -0.000002, 0.000029, 0.000003, 0.002234, -0.000034, 0.007846, -0.000034, 0.000053, 0.000026, -0.000010, 0.000114, -0.208317, 0.032503, 0.000026},
{0.000078, -0.000655, -0.000008, 0.000061, 0.000067, -0.000020, 0.000011, -0.000018, 0.000043, -0.000008, -0.000028, -0.000379, -0.000023, -0.000010, -0.000025, -0.000013, 0.000032, -0.000053, -0.000023, -0.000081, -0.000056, -0.000005, 0.000032, 0.000055, 0.000076, -0.530500, -0.000093, -0.006021, -0.009673, -0.000008, 0.013084, 0.000019, 0.000047, 0.092319, -0.000050, -0.000033, 0.000138, -0.000012, 0.000032, 0.213375, 0.000018, -0.000163, 0.000019, 0.018122, -0.173159, 0.000035, -0.000045, 0.000047, 0.000058, 0.000011, 0.000093, 0.000007, 0.240372, 0.000064, 0.000237, -0.000012, -0.000029, 0.000002, 0.000021, -0.000010, 0.000002, 0.002291, 0.000019, 0.007775, -0.000026, -0.000019, 0.000042, 0.000007, -0.000086, -0.206222, 0.065738, 0.000013},
{0.000052, -0.000724, -0.000017, -0.000019, 0.000039, 0.000029, 0.000024, -0.000006, -0.000018, 0.000013, 0.000015, -0.000102, 0.000004, -0.000002, -0.000020, -0.000021, -0.000010, -0.000004, -0.000020, 0.000018, 0.000050, -0.000021, 0.000030, -0.000027, -0.000075, -0.503361, -0.000020, -0.006262, -0.010224, -0.000086, 0.016187, -0.000056, -0.000014, 0.120585, -0.000020, 0.000016, 0.000118, 0.000063, -0.000057, 0.153221, -0.000067, 0.000126, -0.000081, 0.028272, 0.120279, 0.000028, 0.000046, -0.000005, -0.000016, 0.000007, -0.000095, -0.000048, 0.082742, 0.000027, 0.000388, 0.000027, -0.000055, -0.000010, 0.000012, -0.000081, 0.000000, 0.002294, 0.000035, 0.008286, -0.000115, 0.000017, 0.000005, -0.000044, -0.000055, -0.305729, 0.066174, 0.000022},
{-0.000005, -0.000656, 0.000004, -0.000013, 0.000060, -0.000081, 0.000007, 0.000031, -0.000032, -0.000005, 0.000046, 0.000050, 0.000006, 0.000004, -0.000024, -0.000002, -0.000022, 0.000011, -0.000006, 0.000019, 0.000010, 0.000048, 0.000037, 0.000024, 0.000038, -0.344284, -0.000011, -0.006552, -0.010194, 0.000042, 0.002904, -0.000005, -0.000004, 0.080010, 0.000015, 0.000006, 0.000239, -0.000063, 0.000092, 0.161587, 0.000004, 0.000233, 0.000010, 0.010287, 0.205338, 0.000067, -0.000050, -0.000065, 0.000029, 0.000012, 0.000139, -0.000082, -0.140361, -0.000186, 0.000389, 0.000005, -0.000006, 0.000002, -0.000037, 0.000033, 0.000002, 0.002487, 0.000077, 0.008936, 0.000107, 0.000070, 0.000019, -0.000028, -0.000095, -0.300440, 0.044645, -0.000016},
{-0.000001, -0.000484, 0.000003, 0.000033, -0.000045, 0.000017, 0.000004, 0.000038, 0.000042, 0.000012, -0.000011, 0.000086, 0.000051, -0.000005, -0.000009, 0.000030, 0.000051, -0.000172, 0.000026, 0.000071, -0.000047, 0.000055, 0.000003, -0.000074, 0.000039, -0.173173, -0.000016, -0.006825, -0.010875, 0.000045, 0.001361, 0.000007, 0.000063, 0.021271, -0.000017, 0.000008, 0.000212, 0.000021, -0.000006, 0.168322, -0.000013, -0.000023, 0.000066, 0.002432, 0.475002, -0.000092, 0.000019, 0.000051, -0.000009, -0.000011, 0.000035, -0.000161, 0.003490, -0.000000, 0.000603, 0.000058, -0.000015, -0.000007, 0.000000, -0.000025, -0.000002, 0.002204, -0.000129, 0.009274, -0.000093, 0.000083, -0.000023, 0.000024, -0.000193, -0.185048, 0.008840, 0.000008},
{0.000040, -0.000307, 0.000013, 0.000033, -0.000042, 0.000121, 0.000032, 0.000071, -0.000035, -0.000014, -0.000013, -0.000157, 0.000065, -0.000037, -0.000009, 0.000015, -0.000005, -0.000043, -0.000043, 0.000004, 0.000025, -0.000017, 0.000030, -0.000003, -0.000055, -0.153375, 0.000056, -0.006667, -0.011723, -0.000101, 0.000834, -0.000026, -0.000040, 0.004383, 0.000030, 0.000025, 0.000020, -0.000047, -0.000065, 0.277520, 0.000025, -0.000048, 0.000048, 0.001688, 0.619739, 0.000029, -0.000044, 0.000086, -0.000031, -0.000009, -0.000106, -0.000147, -0.206244, -0.000021, 0.000222, -0.000017, -0.000046, -0.000004, 0.000006, 0.000071, 0.000009, 0.002379, 0.000069, 0.009442, 0.000048, -0.000060, 0.000022, -0.000023, -0.000045, 0.044986, 0.003422, -0.000016},
{0.000081, -0.000414, -0.000021, -0.000022, 0.000015, -0.000024, -0.000038, -0.000014, -0.000021, 0.000005, 0.000016, -0.000013, 0.000026, -0.000014, -0.000042, 0.000002, -0.000021, -0.000071, 0.000007, 0.000005, 0.000026, -0.000047, 0.000031, -0.000052, -0.000094, -0.053962, 0.000045, -0.006899, -0.011516, 0.000071, 0.000882, 0.000015, 0.000007, 0.004738, -0.000029, -0.000006, -0.000021, -0.000009, -0.000003, 0.223945, -0.000057, -0.000376, -0.000073, 0.001746, 0.629007, 0.000053, 0.000012, 0.000007, -0.000026, -0.000069, 0.000041, -0.000162, -0.077406, 0.000016, 0.000086, -0.000013, -0.000011, -0.000004, 0.000038, 0.000042, -0.000006, 0.002484, -0.000007, 0.008612, 0.000019, 0.000018, -0.000026, -0.000019, -0.000016, -0.081185, 0.003716, 0.000024},
{-0.000034, -0.000379, 0.000002, 0.000003, 0.000043, 0.000063, -0.000054, -0.000018, -0.000004, 0.000010, 0.000091, -0.000103, -0.000012, 0.000005, 0.000022, 0.000021, 0.000023, -0.000072, -0.000004, -0.000049, 0.000107, -0.000027, 0.000011, 0.000062, -0.000027, -0.155188, -0.000024, -0.006652, -0.012503, 0.000000, 0.001366, 0.000003, 0.000063, 0.010913, 0.000023, 0.000007, -0.000082, -0.000002, -0.000068, 0.174390, -0.000009, -0.000467, -0.000012, 0.002424, 0.638125, 0.000030, -0.000039, -0.000028, -0.000053, 0.000020, 0.000012, 0.000148, -0.269207, 0.000035, 0.000813, -0.000133, 0.000116, 0.000003, 0.000018, 0.000032, -0.000001, 0.002209, -0.000121, 0.008663, 0.000092, 0.000118, -0.000003, 0.000010, -0.000076, 0.080889, 0.006787, 0.000028},
{0.000024, -0.000329, 0.000002, -0.000050, -0.000072, -0.000035, -0.000030, 0.000002, 0.000042, 0.000004, 0.000019, -0.000267, -0.000036, -0.000021, 0.000022, -0.000018, -0.000011, 0.000001, 0.000039, -0.000044, 0.000056, 0.000056, 0.000051, 0.000020, -0.000039, -0.251942, 0.000001, -0.006167, -0.013358, 0.000070, 0.002281, 0.000041, -0.000089, 0.039868, -0.000002, 0.000002, 0.000182, 0.000003, -0.000001, 0.058788, -0.000021, 0.000100, 0.000025, 0.004406, 0.563404, -0.000018, -0.000006, 0.000063, 0.000008, 0.000005, 0.000146, -0.000079, -0.328537, -0.000001, 0.000790, -0.000041, -0.000010, 0.000006, -0.000047, 0.000048, 0.000002, 0.002429, 0.000071, 0.008420, -0.000029, -0.000012, 0.000019, -0.000009, 0.000129, -0.097142, 0.025124, 0.000008},
{0.000026, -0.000287, -0.000013, -0.000005, 0.000025, -0.000084, -0.000013, -0.000027, -0.000012, 0.000025, -0.000040, -0.000044, 0.000012, -0.000020, 0.000009, -0.000002, 0.000034, -0.000047, -0.000034, -0.000067, -0.000014, 0.000097, -0.000015, 0.000031, -0.000100, -0.128719, -0.000035, -0.006994, -0.013556, -0.000043, 0.002508, -0.000025, -0.000070, 0.057479, -0.000014, -0.000008, 0.000182, -0.000108, 0.000002, -0.014008, -0.000040, -0.000484, -0.000038, 0.008348, 0.270753, 0.000028, 0.000011, 0.000020, 0.000009, -0.000010, 0.000015, -0.000092, -0.203036, -0.000059, 0.000756, -0.000024, -0.000010, 0.000008, -0.000002, 0.000018, 0.000013, 0.002226, -0.000062, 0.009710, 0.000121, 0.000078, 0.000020, -0.000073, 0.000014, -0.274054, 0.037423, 0.000032},
{0.000022, -0.000024, -0.000016, -0.000044, -0.000103, -0.000020, 0.000037, 0.000029, 0.000046, -0.000005, 0.000028, -0.000014, -0.000023, -0.000027, 0.000015, -0.000016, -0.000052, -0.000141, -0.000039, 0.000105, 0.000025, 0.000027, 0.000024, -0.000059, 0.000028, -0.220323, 0.000092, -0.006335, -0.013401, 0.000070, 0.001655, -0.000052, -0.000036, 0.037108, 0.000021, 0.000026, 0.000106, 0.000061, 0.000085, 0.026166, 0.000007, 0.000189, 0.000090, 0.002979, 0.443601, -0.000035, 0.000061, 0.000020, -0.000010, 0.000070, 0.000034, -0.000072, -0.071700, 0.000083, 0.000318, -0.000105, 0.000051, 0.000008, -0.000050, 0.000048, -0.000022, 0.002065, -0.000096, 0.012486, 0.000032, -0.000004, 0.000029, 0.000016, 0.000097, -0.298020, 0.022985, -0.000032},
{-0.000021, 0.000116, 0.000007, -0.000061, 0.000006, -0.000047, 0.000022, 0.000098, 0.000065, -0.000005, -0.000044, -0.000448, -0.000113, 0.000000, -0.000010, -0.000078, -0.000050, 0.000000, 0.000007, 0.000021, -0.000027, 0.000097, -0.000015, -0.000059, 0.000009, -0.134631, 0.000093, -0.006333, -0.013076, 0.000019, 0.001270, -0.000043, 0.000006, 0.036128, -0.000019, -0.000016, 0.000079, -0.000130, -0.000056, 0.042541, -0.000068, -0.000114, 0.000031, 0.002394, 0.395622, 0.000011, -0.000025, -0.000035, -0.000019, 0.000019, 0.000063, -0.000079, 0.096326, -0.000209, 0.000393, 0.000019, 0.000039, 0.000008, 0.000000, -0.000059, 0.000007, 0.002168, 0.000014, 0.014998, -0.000023, 0.000148, -0.000017, 0.000028, -0.000198, -0.349035, 0.017483, -0.000026},
{-0.000045, 0.000098, -0.000045, 0.000032, 0.000033, -0.000027, -0.000003, 0.000003, -0.000066, 0.000025, -0.000047, -0.000144, -0.000004, -0.000002, 0.000008, 0.000031, 0.000002, 0.000083, 0.000070, -0.000012, -0.000040, 0.000010, 0.000042, 0.000022, 0.000044, -0.042273, -0.000012, -0.005929, -0.013588, 0.000037, 0.004090, -0.000032, -0.000062, 0.075973, 0.000008, -0.000004, 0.000194, -0.000016, -0.000004, -0.032195, 0.000017, 0.000013, -0.000048, 0.014343, 0.282615, -0.000070, 0.000009, 0.000002, -0.000008, 0.000003, 0.000042, 0.000006, 0.102125, -0.000236, 0.000497, -0.000024, 0.000018, 0.000023, -0.000001, 0.000007, 0.000019, 0.001981, 0.000034, 0.015117, -0.000052, 0.000083, -0.000007, 0.000102, -0.000036, -0.297997, 0.047591, 0.000019},
{-0.000084, 0.000131, -0.000039, 0.000001, 0.000062, 0.000046, 0.000010, -0.000042, -0.000048, -0.000003, 0.000019, 0.000093, -0.000086, -0.000002, 0.000016, -0.000027, -0.000033, 0.000014, 0.000009, -0.000077, 0.000159, -0.000107, -0.000026, -0.000018, 0.000007, 0.027651, -0.000012, -0.006377, -0.014386, 0.000052, 0.025975, -0.000034, -0.000084, 0.132483, -0.000024, -0.000001, 0.000182, 0.000022, 0.000034, -0.148634, -0.000015, 0.000197, -0.000014, 0.039637, 0.313187, 0.000034, -0.000030, -0.000067, -0.000004, -0.000042, -0.000049, -0.000136, 0.023754, -0.000170, 0.000693, -0.000026, 0.000030, -0.000006, 0.000009, -0.000029, 0.000014, 0.001945, -0.000105, 0.013741, -0.000013, -0.000001, -0.000045, 0.000016, 0.000103, -0.261864, 0.087061, -0.000008},
{0.000046, -0.000197, -0.000010, 0.000033, -0.000048, -0.000033, -0.000015, 0.000058, 0.000005, 0.000012, -0.000003, 0.000120, 0.000014, 0.000034, -0.000014, 0.000046, 0.000049, 0.000047, 0.000011, -0.000109, 0.000025, -0.000107, 0.000033, 0.000102, -0.000004, -0.033242, -0.000029, -0.006074, -0.014019, -0.000047, 0.036707, -0.000030, 0.000001, 0.149384, 0.000030, -0.000021, 0.000229, -0.000063, -0.000055, -0.237172, -0.000003, 0.000135, -0.000048, 0.051060, 0.119432, -0.000013, -0.000016, 0.000030, -0.000018, -0.000018, -0.000085, 0.000108, -0.061615, -0.000208, 0.000673, 0.000039, -0.000050, 0.000002, -0.000010, -0.000047, 0.000000, 0.002056, 0.000002, 0.012741, 0.000085, 0.000147, -0.000001, -0.000031, -0.000065, -0.101357, 0.100731, 0.000022},
{-0.000025, -0.000383, -0.000037, -0.000008, 0.000001, 0.000001, -0.000022, -0.000013, 0.000025, -0.000012, 0.000014, -0.000158, -0.000033, -0.000008, 0.000015, -0.000033, 0.000034, -0.000042, -0.000011, -0.000100, 0.000025, 0.000005, 0.000042, -0.000014, 0.000075, 0.177684, -0.000029, -0.005992, -0.014970, -0.000151, 0.040288, -0.000026, 0.000039, 0.154114, -0.000065, 0.000041, -0.000009, 0.000023, 0.000015, -0.234419, -0.000023, 0.000107, -0.000003, 0.054340, 0.112865, -0.000023, -0.000018, -0.000005, 0.000027, -0.000003, -0.000026, -0.000009, -0.036880, 0.000108, 0.000723, -0.000028, -0.000048, 0.000000, 0.000035, 0.000056, 0.000015, 0.002082, 0.000033, 0.010987, 0.000006, -0.000061, 0.000013, -0.000017, 0.000152, 0.012669, 0.102416, -0.000010},
{0.000107, -0.000299, -0.000044, -0.000054, 0.000025, 0.000008, 0.000054, -0.000057, 0.000016, -0.000001, 0.000001, 0.000006, 0.000042, -0.000001, -0.000022, -0.000007, -0.000030, 0.000003, 0.000040, -0.000054, -0.000038, 0.000035, -0.000048, 0.000036, -0.000024, 0.146891, -0.000055, -0.006203, -0.014521, 0.000088, 0.041175, -0.000017, 0.000066, 0.158000, 0.000052, 0.000011, 0.000251, 0.000082, 0.000006, -0.184266, 0.000062, 0.000241, -0.000028, 0.056382, 0.095178, -0.000017, -0.000010, -0.000041, 0.000049, -0.000013, -0.000004, 0.000073, 0.012661, 0.000033, -0.000095, -0.000050, 0.000033, -0.000013, 0.000003, 0.000018, -0.000006, 0.002328, -0.000185, 0.011068, 0.000045, -0.000063, -0.000032, 0.000041, 0.000071, 0.206448, 0.108901, 0.000010},
{0.000086, -0.000575, -0.000035, 0.000059, 0.000015, 0.000063, 0.000014, 0.000010, -0.000017, 0.000020, 0.000029, -0.000377, -0.000056, 0.000005, -0.000005, 0.000016, -0.000001, 0.000004, 0.000083, -0.000050, -0.000033, -0.000055, 0.000013, -0.000109, 0.000035, -0.038379, -0.000042, -0.005885, -0.014625, -0.000024, 0.046889, 0.000009, 0.000086, 0.141718, 0.000004, -0.000021, 0.000212, -0.000008, -0.000012, -0.137811, 0.000022, -0.000039, -0.000058, 0.059967, 0.074570, -0.000101, -0.000010, -0.000013, 0.000016, 0.000004, 0.000080, -0.000122, 0.010539, 0.000083, 0.000775, 0.000003, -0.000080, 0.000007, -0.000026, 0.000064, 0.000004, 0.002138, -0.000076, 0.012063, 0.000055, -0.000014, -0.000024, -0.000070, 0.000085, 0.225961, 0.111187, -0.000009},
{-0.000078, -0.000698, -0.000016, -0.000054, 0.000069, -0.000005, -0.000022, 0.000036, -0.000042, -0.000005, -0.000019, -0.000410, 0.000018, 0.000004, -0.000023, -0.000045, 0.000013, 0.000052, 0.000021, 0.000055, -0.000060, -0.000124, -0.000002, 0.000031, 0.000018, -0.106230, 0.000023, -0.005778, -0.013508, 0.000021, 0.032586, -0.000001, -0.000008, 0.120023, 0.000034, -0.000022, 0.000294, 0.000033, -0.000032, -0.077493, -0.000016, 0.000226, 0.000008, 0.043820, -0.010094, 0.000018, -0.000056, -0.000030, -0.000003, -0.000010, 0.000008, 0.000279, 0.036359, 0.000062, 0.000587, -0.000016, 0.000018, -0.000015, 0.000021, 0.000042, 0.000004, 0.002027, 0.000169, 0.012405, 0.000056, -0.000013, 0.000046, 0.000009, 0.000015, 0.323638, 0.086594, 0.000024},
{0.000056, -0.000791, -0.000032, 0.000004, -0.000142, -0.000079, -0.000003, -0.000050, -0.000022, 0.000005, 0.000002, -0.000238, 0.000028, -0.000009, -0.000015, 0.000050, 0.000016, 0.000029, 0.000088, 0.000022, -0.000070, -0.000013, -0.000059, -0.000111, 0.000085, -0.209982, 0.000094, -0.006089, -0.013428, 0.000027, 0.010892, -0.000064, 0.000088, 0.074218, 0.000004, -0.000006, 0.000249, 0.000060, 0.000026, -0.033851, -0.000023, -0.000326, 0.000021, 0.019569, 0.043055, 0.000004, 0.000004, -0.000052, 0.000032, -0.000013, -0.000098, 0.000154, 0.067829, -0.000089, 0.000243, -0.000017, 0.000011, -0.000004, -0.000007, 0.000015, -0.000008, 0.002277, 0.000022, 0.013452, 0.000019, 0.000074, -0.000028, -0.000043, -0.000081, 0.210493, 0.054289, 0.000013},
{0.000177, -0.000843, 0.000009, -0.000025, 0.000103, -0.000039, 0.000004, -0.000032, 0.000059, 0.000017, 0.000013, -0.000097, -0.000036, -0.000015, 0.000010, -0.000002, 0.000018, 0.000028, -0.000011, -0.000016, 0.000043, 0.000050, -0.000032, -0.000109, 0.000026, -0.356678, 0.000032, -0.005864, -0.013385, -0.000027, 0.002013, 0.000002, 0.000011, 0.040613, -0.000020, -0.000008, 0.000263, -0.000008, 0.000120, -0.022201, -0.000067, -0.000479, 0.000064, 0.003214, 0.145488, 0.000017, -0.000012, 0.000069, 0.000029, 0.000028, 0.000002, 0.000174, -0.062079, -0.000086, -0.000056, -0.000023, 0.000037, -0.000002, -0.000010, -0.000019, 0.000007, 0.002241, -0.000016, 0.014232, -0.000121, 0.000070, 0.000015, -0.000015, -0.000067, 0.198177, 0.027182, 0.000041},
{0.000029, -0.000824, 0.000017, 0.000005, -0.000022, 0.000027, 0.000013, -0.000024, 0.000027, -0.000010, 0.000025, -0.000015, -0.000022, -0.000017, -0.000005, 0.000039, -0.000036, -0.000027, 0.000035, 0.000019, -0.000133, 0.000022, -0.000026, 0.000078, 0.000022, -0.466137, 0.000080, -0.006236, -0.014179, -0.000034, 0.001513, -0.000041, 0.000025, 0.024575, -0.000012, 0.000011, 0.000324, -0.000056, -0.000053, 0.043347, 0.000055, -0.000283, 0.000115, 0.002509, 0.085013, 0.000033, 0.000036, -0.000027, 0.000011, -0.000040, -0.000067, -0.000069, -0.031520, -0.000133, 0.000660, -0.000026, 0.000004, 0.000003, -0.000011, 0.000026, 0.000001, 0.002587, 0.000034, 0.014148, 0.000001, 0.000112, -0.000017, 0.000072, -0.000039, 0.340908, 0.004767, 0.000007},
{-0.000033, -0.000841, -0.000030, 0.000026, -0.000044, 0.000049, 0.000027, 0.000043, 0.000065, -0.000007, -0.000039, 0.000059, -0.000020, 0.000007, -0.000042, -0.000025, -0.000045, -0.000077, -0.000012, -0.000018, -0.000000, -0.000068, -0.000019, 0.000036, 0.000024, -0.430657, -0.000023, -0.005807, -0.015017, -0.000081, 0.001763, -0.000005, 0.000028, 0.027732, -0.000027, -0.000012, 0.000255, -0.000054, -0.000004, 0.136767, 0.000033, 0.000193, -0.000024, 0.002898, 0.025040, 0.000014, -0.000019, 0.000076, -0.000031, 0.000009, 0.000010, 0.000151, -0.378095, -0.000147, -0.000496, 0.000053, 0.000052, -0.000005, 0.000018, 0.000039, 0.000003, 0.002312, -0.000108, 0.013918, -0.000063, -0.000152, -0.000018, 0.000012, -0.000137, 0.195773, 0.015505, 0.000001},
{0.000038, -0.000908, -0.000020, -0.000070, -0.000072, 0.000052, -0.000011, -0.000068, 0.000004, -0.000012, 0.000032, 0.000072, -0.000009, 0.000011, -0.000013, 0.000018, -0.000052, 0.000066, 0.000064, -0.000006, 0.000029, -0.000182, 0.000033, 0.000079, 0.000039, -0.522893, 0.000045, -0.005938, -0.015032, 0.000071, 0.002185, 0.000058, 0.000037, 0.032221, -0.000040, 0.000007, 0.000167, 0.000047, -0.000043, 0.137971, -0.000002, -0.000612, 0.000020, 0.003445, -0.145936, 0.000020, 0.000001, -0.000063, 0.000045, 0.000034, 0.000027, 0.000058, -0.376275, -0.000043, 0.000261, 0.000020, -0.000032, 0.000006, -0.000019, -0.000009, -0.000002, 0.002792, 0.000043, 0.012169, 0.000031, 0.000115, -0.000006, -0.000007, -0.000128, 0.337123, 0.015216, -0.000015},
{0.000053, -0.001018, -0.000017, 0.000030, -0.000057, 0.000033, 0.000031, -0.000040, 0.000025, 0.000006, -0.000055, -0.000395, -0.000028, -0.000016, 0.000030, 0.000006, -0.000028, -0.000077, 0.000029, -0.000000, -0.000057, 0.000008, -0.000037, -0.000019, 0.000048, -0.245700, 0.000032, -0.006579, -0.014760, -0.000034, 0.002140, -0.000038, -0.000102, 0.029400, 0.000007, 0.000031, 0.000115, 0.000081, -0.000013, 0.160071, 0.000006, -0.000280, -0.000024, 0.003289, -0.170816, -0.000020, -0.000021, -0.000008, -0.000018, 0.000033, -0.000115, -0.000142, -0.418006, -0.000054, -0.000735, -0.000031, 0.000007, 0.000007, -0.000007, 0.000016, -0.000011, 0.002805, 0.000015, 0.011894, 0.000065, 0.000080, 0.000024, -0.000031, 0.000001, 0.321205, 0.011184, -0.000009},
{-0.000018, -0.001085, 0.000013, 0.000032, -0.000059, -0.000248, -0.000042, 0.000024, -0.000020, 0.000004, 0.000023, -0.000330, 0.000047, 0.000029, -0.000028, -0.000003, 0.000006, -0.000058, 0.000002, -0.000043, 0.000003, 0.000000, -0.000016, 0.000025, 0.000034, -0.138084, 0.000139, -0.005967, -0.014604, 0.000046, 0.001981, 0.000006, -0.000006, 0.018561, -0.000008, -0.000001, 0.000153, 0.000021, -0.000017, 0.184314, 0.000028, -0.000273, 0.000047, 0.003084, -0.164385, 0.000059, -0.000021, 0.000021, 0.000007, 0.000009, -0.000094, 0.000121, -0.337523, -0.000045, -0.000786, 0.000020, -0.000119, -0.000005, -0.000001, -0.000016, 0.000001, 0.002435, -0.000015, 0.011378, 0.000019, 0.000082, -0.000030, -0.000002, 0.000126, 0.371965, 0.005352, -0.000001},
{-0.000015, -0.001067, -0.000014, 0.000022, -0.000042, -0.000029, -0.000014, -0.000014, -0.000104, 0.000005, 0.000031, 0.000063, 0.000009, 0.000002, 0.000012, 0.000011, 0.000001, -0.000051, -0.000007, 0.000057, 0.000082, 0.000168, -0.000016, 0.000053, 0.000020, 0.075220, 0.000025, -0.006842, -0.014160, -0.000044, 0.002052, 0.000032, -0.000033, 0.030987, 0.000021, 0.000019, -0.000017, 0.000097, 0.000049, 0.099769, -0.000104, -0.000171, -0.000018, 0.003199, -0.337401, 0.000012, 0.000006, 0.000016, -0.000023, -0.000016, 0.000206, 0.000056, -0.220515, -0.000082, -0.000346, 0.000042, 0.000032, -0.000008, 0.000050, -0.000021, 0.000003, 0.002378, 0.000016, 0.011952, 0.000056, -0.000128, -0.000049, -0.000105, 0.000074, 0.309618, 0.006071, -0.000001},
{-0.000049, -0.001333, 0.000009, -0.000072, -0.000019, 0.000063, 0.000006, -0.000007, -0.000025, -0.000020, 0.000092, -0.000167, -0.000033, 0.000037, -0.000024, -0.000073, 0.000001, -0.000159, -0.000002, 0.000077, -0.000006, -0.000001, -0.000003, 0.000106, -0.000005, -0.024746, 0.000084, -0.006101, -0.013538, -0.000086, 0.002587, 0.000098, 0.000025, 0.063734, -0.000030, -0.000021, 0.000059, 0.000021, -0.000000, 0.053702, -0.000010, 0.000078, -0.000028, 0.004157, -0.331334, 0.000030, 0.000050, -0.000008, -0.000000, -0.000050, -0.000048, 0.000052, 0.000210, -0.000074, -0.000977, -0.000069, 0.000025, 0.000006, -0.000035, -0.000020, 0.000000, 0.002106, 0.000070, 0.011938, -0.000017, 0.000070, 0.000005, 0.000036, 0.000045, 0.296537, 0.028780, 0.000017},
{-0.000021, -0.001014, 0.000017, -0.000072, 0.000016, -0.000023, -0.000028, 0.000010, 0.000065, -0.000019, 0.000020, -0.000294, 0.000020, 0.000005, 0.000020, -0.000031, -0.000047, -0.000002, 0.000054, -0.000021, -0.000044, 0.000013, 0.000045, 0.000040, 0.000076, -0.180827, -0.000053, -0.006276, -0.013485, 0.000024, 0.010124, -0.000013, 0.000008, 0.084304, 0.000016, -0.000033, 0.000264, 0.000108, -0.000036, 0.136076, 0.000039, -0.000060, -0.000024, 0.019793, -0.108886, 0.000008, -0.000016, 0.000013, -0.000005, -0.000020, 0.000001, -0.000128, -0.228837, -0.000076, -0.001396, 0.000014, 0.000030, -0.000005, 0.000008, 0.000015, 0.000016, 0.002182, 0.000110, 0.011389, -0.000000, 0.000105, -0.000025, 0.000050, 0.000016, 0.332201, 0.064162, 0.000010},
{0.000020, -0.001045, 0.000022, -0.000006, 0.000020, -0.000069, -0.000046, -0.000103, 0.000025, -0.000004, 0.000047, 0.000064, -0.000001, 0.000007, 0.000009, -0.000009, 0.000062, 0.000033, -0.000006, -0.000005, 0.000111, 0.000027, 0.000018, 0.000008, 0.000017, -0.186498, -0.000021, -0.006197, -0.013195, 0.000033, 0.007493, -0.000041, 0.000077, 0.090413, -0.000017, 0.000004, 0.000158, 0.000009, -0.000017, 0.218131, -0.000098, 0.000031, 0.000024, 0.015736, -0.007276, -0.000011, 0.000006, -0.000013, -0.000001, 0.000023, 0.000055, -0.000118, -0.241978, -0.000136, -0.000627, -0.000024, 0.000121, 0.000005, -0.000074, -0.000184, 0.000006, 0.002427, 0.000148, 0.011307, 0.000008, 0.000029, -0.000009, -0.000031, 0.000105, 0.234406, 0.057497, 0.000012},
{0.000085, -0.000994, -0.000016, -0.000006, -0.000022, 0.000001, 0.000008, 0.000026, -0.000005, 0.000018, 0.000104, -0.000229, -0.000018, 0.000008, 0.000023, 0.000033, 0.000091, 0.000026, 0.000026, -0.000038, 0.000111, -0.000129, -0.000028, 0.000000, -0.000004, -0.214626, -0.000102, -0.005837, -0.013111, -0.000010, 0.002617, -0.000009, 0.000001, 0.078918, 0.000005, -0.000011, 0.000239, 0.000077, 0.000067, 0.279289, -0.000061, -0.000064, 0.000017, 0.005416, 0.266602, 0.000051, -0.000029, 0.000150, -0.000009, -0.000002, 0.000027, -0.000172, -0.385057, 0.000003, -0.001557, -0.000007, -0.000050, -0.000009, 0.000022, -0.000002, 0.000005, 0.002412, 0.000059, 0.011306, 0.000014, -0.000154, 0.000028, 0.000060, 0.000080, -0.021820, 0.035304, 0.000007},
{-0.000017, -0.001004, -0.000010, 0.000007, -0.000022, 0.000016, 0.000011, 0.000030, -0.000016, -0.000007, 0.000015, 0.000102, -0.000050, 0.000013, -0.000004, -0.000002, 0.000023, 0.000123, 0.000057, -0.000026, 0.000042, 0.000051, 0.000038, 0.000011, -0.000102, -0.098522, -0.000012, -0.006392, -0.013993, 0.000003, 0.002146, 0.000055, 0.000039, 0.042282, -0.000013, 0.000021, 0.000329, -0.000057, -0.000069, 0.239281, -0.000003, -0.000246, -0.000025, 0.003350, 0.395711, 0.000051, -0.000043, -0.000028, 0.000018, -0.000002, 0.000043, 0.000159, -0.187952, -0.000011, -0.001748, -0.000051, 0.000063, -0.000002, -0.000020, 0.000039, 0.000003, 0.002024, -0.000035, 0.010547, -0.000070, -0.000041, 0.000014, -0.000071, -0.000047, -0.014101, 0.021883, -0.000009},
{0.000026, -0.001052, -0.000007, -0.000017, -0.000036, -0.000236, 0.000013, -0.000000, -0.000056, -0.000010, 0.000013, -0.000479, -0.000018, -0.000009, 0.000025, 0.000002, 0.000083, -0.000005, 0.000026, -0.000013, -0.000020, 0.000064, -0.000029, -0.000049, -0.000016, -0.081890, 0.000005, -0.006603, -0.015687, -0.000047, 0.002132, -0.000025, -0.000025, 0.030517, 0.000004, -0.000042, 0.000322, -0.000028, -0.000039, 0.243964, -0.000151, -0.000016, 0.000028, 0.003302, 0.207309, -0.000035, 0.000003, 0.000000, 0.000021, -0.000012, -0.000073, -0.000134, -0.288066, 0.000021, -0.002023, -0.000099, 0.000047, -0.000003, 0.000029, 0.000006, 0.000008, 0.002601, 0.000015, 0.011478, 0.000004, 0.000009, -0.000056, 0.000042, -0.000085, -0.246692, 0.017929, -0.000024},
{-0.000015, -0.000911, -0.000023, -0.000057, -0.000040, -0.000033, -0.000005, 0.000033, 0.000001, 0.000011, -0.000028, 0.000053, 0.000020, -0.000004, -0.000013, 0.000042, -0.000031, 0.000065, -0.000007, -0.000069, 0.000109, -0.000006, -0.000006, -0.000017, -0.000000, -0.178396, -0.000053, -0.005789, -0.015599, -0.000041, 0.002269, 0.000006, -0.000098, 0.032110, -0.000031, -0.000011, 0.000221, 0.000109, -0.000017, 0.261410, -0.000078, 0.000100, 0.000066, 0.003586, 0.176400, 0.000051, 0.000001, -0.000065, -0.000032, -0.000042, 0.000204, -0.000098, -0.136686, -0.000178, -0.002460, -0.000006, -0.000080, 0.000004, -0.000049, 0.000017, -0.000012, 0.002540, -0.000057, 0.011779, -0.000050, -0.000073, -0.000042, -0.000087, 0.000103, -0.292322, 0.019759, 0.000005},
{0.000033, -0.000934, 0.000040, -0.000061, 0.000066, -0.000109, 0.000010, 0.000017, -0.000016, -0.000008, 0.000005, -0.000207, -0.000023, -0.000015, 0.000023, 0.000011, 0.000017, 0.000083, 0.000022, -0.000125, 0.000022, 0.000023, -0.000014, 0.000070, 0.000039, -0.065432, 0.000029, -0.005843, -0.015991, -0.000075, 0.002201, 0.000014, -0.000044, 0.026486, -0.000004, -0.000022, 0.000314, 0.000057, 0.000040, 0.148202, -0.000039, -0.000241, 0.000049, 0.003568, 0.329167, 0.000051, -0.000017, -0.000014, 0.000024, -0.000019, 0.000083, -0.000092, 0.192238, -0.000084, -0.001458, -0.000040, 0.000030, -0.000001, -0.000020, 0.000046, -0.000004, 0.002846, -0.000035, 0.011794, 0.000065, -0.000106, -0.000072, -0.000020, -0.000018, -0.218241, 0.014646, -0.000026},
{0.000080, -0.000889, -0.000035, 0.000024, 0.000068, 0.000146, 0.000004, -0.000010, 0.000065, -0.000007, 0.000094, 0.000093, 0.000066, 0.000018, 0.000057, -0.000059, -0.000015, 0.000006, -0.000050, -0.000010, -0.000004, 0.000108, -0.000031, -0.000049, -0.000060, -0.049784, 0.000094, -0.005992, -0.015558, 0.000057, 0.002100, 0.000042, -0.000067, 0.033973, -0.000008, -0.000035, 0.000213, 0.000038, 0.000020, 0.057695, -0.000006, -0.000125, -0.000011, 0.003478, 0.255765, 0.000033, 0.000064, -0.000014, 0.000011, 0.000050, -0.000035, 0.000130, 0.115349, -0.000075, -0.001508, -0.000037, -0.000017, 0.000005, -0.000013, 0.000016, 0.000004, 0.002679, -0.000002, 0.013670, 0.000064, 0.000163, 0.000018, -0.000020, 0.000009, -0.448473, 0.015125, -0.000008},
{-0.000075, -0.000974, 0.000017, 0.000052, 0.000061, 0.000039, 0.000011, -0.000005, -0.000014, -0.000015, -0.000029, 0.000043, -0.000022, -0.000002, -0.000015, -0.000031, 0.000084, -0.000013, -0.000019, -0.000077, 0.000060, 0.000009, -0.000003, -0.000137, -0.000022, 0.025252, -0.000111, -0.005906, -0.015424, 0.000045, 0.002097, -0.000049, 0.000009, 0.031567, 0.000017, -0.000014, -0.000038, -0.000110, 0.000008, 0.021436, 0.000046, -0.000554, 0.000091, 0.003678, 0.238963, 0.000042, -0.000003, 0.000115, -0.000005, 0.000013, -0.000078, 0.000213, 0.262836, -0.000212, -0.001592, -0.000106, 0.000003, -0.000001, 0.000022, -0.000036, -0.000008, 0.002293, -0.000111, 0.013150, 0.000061, -0.000043, 0.000065, 0.000057, -0.000073, -0.408060, 0.018242, 0.000013},
{-0.000008, -0.001012, 0.000033, -0.000028, -0.000040, -0.000062, -0.000010, -0.000083, 0.000016, -0.000003, 0.000016, 0.000052, 0.000064, 0.000005, 0.000020, 0.000048, -0.000027, 0.000005, 0.000013, -0.000124, 0.000081, -0.000004, 0.000046, -0.000143, 0.000043, -0.013318, 0.000106, -0.006293, -0.015014, 0.000005, 0.002773, -0.000030, -0.000045, 0.053600, -0.000010, 0.000014, -0.000112, 0.000053, 0.000030, -0.185731, -0.000057, -0.000483, -0.000042, 0.007157, 0.228491, 0.000019, -0.000013, 0.000180, 0.000003, 0.000031, 0.000093, -0.000096, 0.293331, -0.000053, -0.001020, 0.000015, 0.000076, 0.000008, -0.000003, -0.000011, 0.000003, 0.002515, -0.000028, 0.013337, -0.000017, 0.000107, -0.000056, 0.000010, 0.000072, -0.662185, 0.037671, 0.000011},
{0.000055, -0.000996, 0.000018, 0.000010, 0.000004, 0.000138, 0.000036, -0.000092, 0.000016, 0.000003, -0.000028, 0.000070, -0.000030, -0.000021, -0.000017, -0.000002, 0.000028, -0.000004, 0.000056, -0.000106, 0.000060, 0.000032, 0.000021, -0.000051, 0.000016, 0.058840, 0.000013, -0.006573, -0.014860, 0.000014, 0.002709, -0.000031, -0.000042, 0.050323, 0.000010, 0.000028, -0.000289, 0.000005, -0.000062, -0.282075, -0.000024, -0.000027, 0.000092, 0.006497, 0.283942, -0.000060, -0.000020, -0.000052, 0.000046, -0.000008, -0.000019, 0.000154, 0.199296, -0.000050, -0.000955, 0.000070, -0.000047, -0.000002, 0.000019, -0.000047, -0.000018, 0.002538, 0.000041, 0.013212, -0.000045, -0.000046, 0.000019, -0.000014, -0.000010, -0.619591, 0.035321, 0.000011},
{-0.000028, -0.001010, 0.000006, 0.000038, 0.000061, 0.000006, 0.000008, -0.000027, 0.000043, -0.000021, -0.000003, -0.000385, 0.000016, -0.000017, -0.000073, -0.000033, -0.000012, 0.000009, -0.000018, -0.000006, 0.000088, -0.000056, -0.000012, 0.000076, 0.000004, 0.055395, -0.000032, -0.005897, -0.014684, -0.000090, 0.002029, 0.000024, 0.000044, 0.022967, -0.000067, -0.000017, -0.000187, -0.000048, 0.000091, -0.256436, -0.000004, -0.000118, -0.000059, 0.003549, 0.229553, -0.000009, 0.000012, -0.000057, -0.000033, -0.000039, -0.000056, -0.000165, 0.151966, 0.000014, -0.000065, 0.000035, 0.000014, -0.000003, -0.000017, 0.000003, 0.000006, 0.002127, 0.000006, 0.013574, -0.000102, 0.000024, -0.000012, 0.000063, -0.000051, -0.510784, 0.013189, -0.000014},
{0.000051, -0.001006, 0.000003, 0.000004, -0.000042, 0.000043, 0.000005, -0.000009, -0.000036, -0.000004, 0.000036, -0.000027, -0.000004, 0.000004, -0.000012, -0.000014, -0.000009, -0.000021, -0.000005, -0.000059, -0.000008, -0.000055, -0.000033, 0.000026, -0.000037, 0.119211, -0.000053, -0.006236, -0.013553, 0.000024, 0.001470, -0.000044, -0.000027, 0.007985, 0.000011, -0.000022, -0.000052, -0.000002, 0.000073, -0.301080, 0.000018, 0.000234, 0.000028, 0.002476, 0.131431, 0.000041, -0.000029, -0.000010, -0.000021, 0.000007, -0.000069, -0.000140, 0.209931, -0.000222, -0.000395, -0.000019, 0.000022, 0.000023, -0.000011, 0.000059, 0.000022, 0.002134, 0.000144, 0.014166, -0.000090, -0.000065, 0.000019, 0.000056, -0.000031, -0.192240, 0.005257, 0.000006},
{0.000090, -0.001004, 0.000040, 0.000008, -0.000007, -0.000021, -0.000022, 0.000038, -0.000033, 0.000003, 0.000020, -0.000358, -0.000036, 0.000030, -0.000001, 0.000021, 0.000028, -0.000075, 0.000005, 0.000078, 0.000141, -0.000025, -0.000048, -0.000017, -0.000078, 0.133614, -0.000057, -0.006194, -0.014704, 0.000085, 0.001360, -0.000018, -0.000107, 0.008333, 0.000014, -0.000022, -0.000031, 0.000074, -0.000016, -0.299920, 0.000007, 0.000044, 0.000024, 0.002363, 0.054843, 0.000038, 0.000021, -0.000041, 0.000048, -0.000024, 0.000029, -0.000059, 0.147964, -0.000155, -0.000637, -0.000048, 0.000014, 0.000005, -0.000002, -0.000121, 0.000007, 0.002288, -0.000011, 0.013701, 0.000046, -0.000006, -0.000065, -0.000052, 0.000001, -0.026204, 0.004769, 0.000017},
{-0.000166, -0.000853, 0.000055, -0.000040, 0.000008, 0.000217, 0.000030, -0.000007, 0.000111, 0.000001, 0.000014, -0.000399, 0.000047, 0.000028, -0.000008, 0.000016, 0.000046, 0.000017, -0.000017, -0.000019, 0.000074, -0.000151, -0.000012, -0.000044, 0.000017, -0.079560, -0.000012, -0.006744, -0.015143, 0.000110, 0.001804, 0.000029, 0.000000, 0.038101, 0.000019, -0.000009, -0.000119, 0.000054, -0.000063, -0.256171, -0.000004, 0.000067, -0.000078, 0.002910, -0.074506, 0.000019, -0.000031, 0.000067, -0.000036, -0.000016, -0.000058, 0.000005, 0.130855, -0.000240, -0.000601, -0.000023, 0.000030, 0.000001, -0.000025, -0.000000, 0.000001, 0.001939, -0.000007, 0.013400, 0.000003, 0.000116, -0.000018, 0.000022, 0.000145, 0.170056, 0.022017, 0.000005},
{-0.000032, -0.000791, 0.000009, 0.000062, -0.000047, 0.000006, 0.000007, 0.000036, -0.000025, 0.000006, 0.000014, -0.000408, -0.000010, 0.000014, -0.000043, 0.000051, -0.000020, -0.000024, 0.000030, 0.000038, 0.000024, -0.000008, 0.000011, 0.000026, -0.000023, -0.184685, -0.000072, -0.006303, -0.015746, 0.000049, 0.002096, 0.000002, -0.000103, 0.059384, 0.000014, -0.000010, 0.000012, -0.000033, 0.000077, -0.149225, -0.000002, -0.000241, -0.000021, 0.007722, -0.458382, 0.000003, 0.000066, 0.000001, -0.000005, 0.000003, 0.000095, 0.000132, 0.116117, -0.000001, -0.000319, -0.000004, -0.000008, 0.000000, -0.000009, 0.000023, 0.000005, 0.002156, 0.000019, 0.012984, -0.000020, -0.000126, 0.000018, 0.000040, -0.000088, 0.253134, 0.037896, -0.000004},
{-0.000027, -0.000867, 0.000062, -0.000045, -0.000084, -0.000045, -0.000013, -0.000087, -0.000029, 0.000012, 0.000025, -0.000183, -0.000004, -0.000034, 0.000012, 0.000051, 0.000010, 0.000089, -0.000015, 0.000119, -0.000013, -0.000039, 0.000010, 0.000047, -0.000014, -0.293329, -0.000011, -0.006765, -0.014375, -0.000148, 0.004311, -0.000048, 0.000099, 0.075371, 0.000022, -0.000008, 0.000060, -0.000032, 0.000004, -0.131352, 0.000031, -0.000143, 0.000115, 0.013756, -0.547918, -0.000050, -0.000033, -0.000021, -0.000021, 0.000033, 0.000078, -0.000108, 0.193347, 0.000045, -0.000125, -0.000042, 0.000009, -0.000012, 0.000033, -0.000037, -0.000001, 0.002300, -0.000068, 0.011567, 0.000044, -0.000104, 0.000006, -0.000012, 0.000054, 0.329325, 0.045375, 0.000010},
{-0.000013, -0.001043, -0.000024, -0.000017, -0.000014, 0.000101, -0.000014, 0.000036, -0.000053, -0.000003, -0.000028, 0.000043, 0.000059, 0.000002, -0.000027, -0.000048, -0.000043, 0.000000, 0.000024, -0.000128, -0.000061, -0.000086, -0.000024, -0.000007, -0.000004, -0.195543, -0.000016, -0.006791, -0.013970, 0.000056, 0.013495, -0.000052, 0.000027, 0.091861, 0.000009, -0.000022, 0.000133, 0.000026, -0.000026, -0.195697, 0.000002, 0.000040, -0.000027, 0.021496, -0.664747, 0.000025, 0.000009, -0.000029, -0.000021, 0.000014, 0.000062, 0.000075, 0.271281, 0.000122, -0.001077, 0.000019, 0.000031, 0.000004, -0.000029, -0.000072, 0.000006, 0.002113, -0.000050, 0.010912, 0.000035, 0.000150, 0.000024, 0.000007, -0.000166, 0.159620, 0.063705, 0.000027},
{-0.000037, -0.000963, 0.000012, -0.000022, 0.000004, 0.000085, -0.000006, 0.000001, -0.000037, -0.000012, 0.000053, 0.000076, -0.000031, -0.000002, -0.000012, 0.000042, -0.000021, -0.000025, 0.000017, -0.000031, -0.000017, -0.000056, 0.000009, 0.000054, -0.000007, -0.185737, 0.000054, -0.006820, -0.012523, -0.000047, 0.023205, -0.000030, 0.000024, 0.107334, -0.000019, -0.000012, 0.000204, -0.000014, 0.000015, -0.224794, 0.000028, 0.000137, -0.000011, 0.035065, -0.602353, 0.000011, -0.000004, 0.000076, -0.000020, 0.000011, -0.000041, -0.000189, 0.319547, -0.000081, -0.000579, -0.000058, 0.000117, 0.000013, -0.000007, -0.000053, -0.000005, 0.001979, -0.000034, 0.010028, 0.000038, 0.000034, -0.000001, -0.000101, 0.000051, 0.235404, 0.076232, -0.000010},
{0.000004, -0.001042, -0.000043, 0.000062, -0.000008, 0.000036, 0.000021, 0.000038, -0.000074, 0.000000, -0.000023, -0.000062, 0.000012, -0.000000, -0.000002, -0.000015, 0.000015, -0.000034, 0.000037, -0.000025, 0.000106, -0.000030, 0.000072, -0.000007, 0.000076, -0.003975, 0.000025, -0.006836, -0.012742, 0.000032, 0.023925, -0.000037, 0.000058, 0.103794, 0.000012, 0.000006, -0.000102, -0.000062, -0.000040, -0.172072, -0.000021, -0.000021, -0.000062, 0.034686, -0.504471, 0.000015, -0.000012, -0.000055, 0.000010, -0.000014, 0.000037, 0.000235, 0.241640, 0.000215, -0.000823, 0.000052, -0.000030, -0.000007, 0.000028, -0.000001, -0.000010, 0.002320, -0.000074, 0.009970, -0.000024, 0.000030, -0.000041, -0.000056, -0.000008, 0.194699, 0.076082, -0.000009},
{-0.000133, -0.001097, 0.000046, -0.000002, -0.000043, -0.000064, 0.000017, -0.000021, -0.000009, -0.000005, 0.000027, -0.000021, -0.000033, 0.000006, -0.000043, 0.000031, 0.000013, 0.000005, 0.000057, 0.000033, 0.000022, 0.000128, -0.000034, -0.000016, -0.000040, 0.046709, 0.000103, -0.006413, -0.012989, -0.000075, 0.012064, 0.000016, 0.000117, 0.072713, 0.000002, 0.000021, -0.000155, 0.000049, -0.000014, -0.170956, -0.000010, -0.000189, -0.000019, 0.021430, -0.492571, 0.000012, 0.000034, 0.000060, -0.000009, 0.000017, -0.000013, 0.000157, 0.194902, 0.000072, -0.001399, 0.000019, -0.000009, 0.000002, -0.000007, 0.000012, 0.000010, 0.002276, 0.000010, 0.009003, 0.000003, -0.000128, -0.000023, -0.000004, 0.000138, 0.375310, 0.053821, 0.000006},
{0.000065, -0.001152, -0.000003, 0.000015, -0.000010, -0.000087, -0.000022, -0.000061, -0.000031, -0.000035, -0.000002, 0.000033, 0.000031, 0.000008, -0.000013, 0.000031, -0.000087, -0.000006, -0.000036, 0.000040, -0.000043, 0.000028, -0.000009, 0.000073, 0.000103, -0.004389, 0.000025, -0.006778, -0.011300, -0.000018, 0.002114, -0.000043, -0.000049, 0.028586, 0.000001, 0.000073, 0.000063, 0.000118, -0.000010, -0.227139, -0.000068, -0.000193, 0.000039, 0.003583, -0.322786, -0.000014, 0.000014, 0.000088, 0.000076, -0.000008, 0.000086, -0.000000, -0.012935, 0.000015, -0.001000, 0.000015, -0.000026, 0.000015, 0.000008, 0.000062, -0.000001, 0.002302, 0.000042, 0.009255, -0.000002, 0.000047, -0.000032, -0.000079, 0.000157, 0.647554, 0.021731, 0.000064},
{0.000143, -0.000982, 0.000035, 0.000032, -0.000048, -0.000100, -0.000048, 0.000052, 0.000020, 0.000007, -0.000033, -0.000005, 0.000023, -0.000008, -0.000032, -0.000079, 0.000028, -0.000006, -0.000018, -0.000039, 0.000081, 0.000044, -0.000048, -0.000145, -0.000005, 0.044128, -0.000062, -0.007121, -0.012176, -0.000042, 0.002226, 0.000039, -0.000034, 0.032562, -0.000019, -0.000024, 0.000158, 0.000075, 0.000161, -0.194944, -0.000061, -0.000193, -0.000083, 0.003831, -0.330245, -0.000054, -0.000047, 0.000025, 0.000012, -0.000007, -0.000011, 0.000241, -0.227477, 0.000116, -0.000325, -0.000022, -0.000017, -0.000011, 0.000010, 0.000039, -0.000004, 0.001891, -0.000036, 0.010598, 0.000138, 0.000063, -0.000024, -0.000033, -0.000209, 0.695990, 0.021111, 0.000011},
{-0.000005, -0.001035, -0.000022, -0.000109, -0.000007, -0.000167, 0.000002, 0.000014, -0.000053, 0.000003, 0.000001, 0.000060, -0.000089, 0.000005, 0.000015, 0.000035, 0.000050, -0.000001, -0.000097, 0.000062, 0.000026, 0.000060, 0.000007, -0.000034, 0.000047, 0.027949, -0.000060, -0.006442, -0.013587, -0.000168, 0.002675, 0.000026, 0.000024, 0.042405, -0.000009, -0.000010, 0.000188, -0.000019, 0.000013, -0.156507, 0.000010, -0.000572, -0.000021, 0.006091, -0.492984, 0.000028, -0.000050, 0.000094, -0.000017, 0.000035, -0.000158, 0.000266, -0.338615, 0.000067, -0.000474, 0.000064, 0.000007, 0.000016, -0.000021, -0.000017, -0.000001, 0.001824, 0.000111, 0.010971, 0.000072, 0.000060, 0.000052, -0.000179, -0.000047, 0.775014, 0.029789, -0.000006},
{-0.000091, -0.001205, -0.000021, -0.000014, 0.000028, -0.000133, -0.000014, -0.000031, -0.000061, -0.000008, -0.000035, -0.000012, -0.000021, 0.000040, -0.000010, -0.000051, 0.000085, 0.000056, 0.000033, 0.000041, 0.000025, -0.000029, -0.000042, 0.000064, 0.000040, 0.032867, -0.000012, -0.007168, -0.013931, -0.000069, 0.011913, 0.000067, -0.000024, 0.076090, 0.000004, 0.000020, 0.000196, 0.000011, 0.000004, -0.098490, -0.000068, -0.000186, 0.000011, 0.021052, -0.413196, -0.000022, 0.000006, 0.000060, 0.000077, -0.000039, -0.000114, -0.000077, -0.444130, -0.000159, -0.001083, 0.000100, -0.000055, -0.000009, 0.000039, -0.000015, -0.000003, 0.002305, 0.000053, 0.011327, 0.000056, 0.000072, -0.000017, 0.000000, -0.000176, 0.814752, 0.053908, 0.000017},
{-0.000083, -0.001177, -0.000007, 0.000035, 0.000037, 0.000044, 0.000010, 0.000064, 0.000045, -0.000003, -0.000050, -0.000114, -0.000025, 0.000015, -0.000009, -0.000068, 0.000027, -0.000036, 0.000002, 0.000052, -0.000013, 0.000016, -0.000029, -0.000052, -0.000008, 0.014953, -0.000017, -0.006654, -0.015070, -0.000089, 0.028586, 0.000031, -0.000100, 0.129392, 0.000009, -0.000022, 0.000141, 0.000105, 0.000017, -0.006073, -0.000016, -0.000263, 0.000038, 0.037302, -0.497688, -0.000007, 0.000035, -0.000007, 0.000015, -0.000009, 0.000031, 0.000106, -0.428222, 0.000094, -0.000713, -0.000029, -0.000010, 0.000007, -0.000044, -0.000015, -0.000000, 0.002087, 0.000019, 0.010286, -0.000048, -0.000011, 0.000060, 0.000000, 0.000050, 0.747687, 0.088654, 0.000028},
{0.000062, -0.001137, -0.000019, 0.000006, 0.000022, -0.000030, 0.000014, 0.000031, -0.000045, -0.000015, 0.000019, 0.000045, -0.000039, 0.000006, -0.000012, 0.000027, -0.000081, 0.000037, -0.000010, 0.000033, -0.000044, -0.000000, 0.000013, -0.000031, -0.000009, 0.207064, 0.000006, -0.006928, -0.015445, -0.000024, 0.025359, -0.000030, -0.000053, 0.121622, -0.000014, 0.000025, 0.000046, 0.000029, 0.000021, 0.097600, -0.000031, -0.000427, -0.000073, 0.032408, -0.370670, -0.000011, -0.000029, -0.000033, 0.000012, 0.000102, 0.000063, -0.000000, -0.330447, -0.000049, -0.000758, 0.000025, -0.000036, -0.000009, -0.000014, 0.000061, 0.000001, 0.001976, -0.000073, 0.010174, 0.000036, 0.000067, -0.000014, 0.000007, 0.000269, 0.621343, 0.086086, 0.000011},
{-0.000015, -0.001009, 0.000025, -0.000034, -0.000144, -0.000085, 0.000014, 0.000027, 0.000025, -0.000014, -0.000027, 0.000071, 0.000024, -0.000004, 0.000035, 0.000039, -0.000007, 0.000001, 0.000028, 0.000151, 0.000009, 0.000012, 0.000016, -0.000013, 0.000040, 0.145618, -0.000089, -0.006642, -0.015552, -0.000047, 0.031069, 0.000052, -0.000075, 0.134460, 0.000012, 0.000011, 0.000017, -0.000131, -0.000016, 0.251011, -0.000034, -0.000023, -0.000053, 0.045894, -0.083434, 0.000021, -0.000051, -0.000005, -0.000002, 0.000036, 0.000094, -0.000189, -0.294361, 0.000002, -0.000815, 0.000059, -0.000028, -0.000001, 0.000038, 0.000002, -0.000002, 0.001968, 0.000036, 0.010209, 0.000082, 0.000074, 0.000011, 0.000016, -0.000002, 0.414526, 0.105173, -0.000004},
{0.000018, -0.000851, 0.000006, 0.000013, 0.000107, -0.000138, -0.000054, -0.000031, 0.000056, -0.000001, -0.000008, -0.000321, 0.000034, -0.000009, 0.000025, 0.000007, -0.000002, 0.000001, 0.000013, -0.000132, -0.000067, 0.000001, -0.000018, 0.000061, -0.000018, 0.321233, -0.000104, -0.006945, -0.015389, -0.000090, 0.019402, 0.000059, 0.000026, 0.112289, -0.000008, 0.000073, 0.000096, 0.000103, -0.000065, 0.310157, -0.000063, 0.000225, -0.000072, 0.032671, 0.243270, -0.000031, 0.000005, 0.000072, 0.000022, -0.000033, 0.000007, -0.000147, -0.341052, -0.000149, -0.001100, -0.000044, 0.000015, -0.000011, 0.000011, -0.000100, 0.000003, 0.002149, 0.000073, 0.009967, -0.000055, 0.000008, 0.000014, -0.000078, -0.000018, 0.247205, 0.079690, 0.000009},
{-0.000211, -0.000763, 0.000000, -0.000017, 0.000047, -0.000025, -0.000024, -0.000031, -0.000017, 0.000002, -0.000027, -0.000198, -0.000029, 0.000026, -0.000002, 0.000052, 0.000002, -0.000032, -0.000035, 0.000035, -0.000041, -0.000027, -0.000026, 0.000048, -0.000031, 0.466040, -0.000049, -0.006457, -0.016799, -0.000002, 0.027858, -0.000038, 0.000035, 0.138987, 0.000049, 0.000021, 0.000170, 0.000027, -0.000005, 0.236412, -0.000079, -0.000023, -0.000010, 0.038903, 0.345750, 0.000021, 0.000037, 0.000012, 0.000019, 0.000001, -0.000075, 0.000052, -0.303590, -0.000095, -0.000767, 0.000021, -0.000013, -0.000010, -0.000022, -0.000025, -0.000010, 0.002560, -0.000034, 0.009777, -0.000077, 0.000019, -0.000112, -0.000053, 0.000048, 0.097678, 0.085673, -0.000016},
{0.000024, -0.000591, 0.000001, -0.000020, -0.000036, -0.000009, 0.000034, -0.000007, 0.000022, -0.000023, -0.000042, -0.000304, -0.000022, 0.000002, -0.000010, 0.000016, 0.000007, -0.000005, -0.000008, -0.000067, -0.000026, 0.000069, -0.000065, 0.000115, -0.000130, 0.554044, -0.000087, -0.006450, -0.016093, -0.000071, 0.025519, 0.000006, 0.000040, 0.129666, -0.000020, 0.000029, 0.000303, 0.000003, -0.000020, 0.279127, -0.000047, 0.000101, 0.000033, 0.038081, 0.536434, 0.000018, -0.000085, 0.000002, -0.000004, -0.000009, 0.000035, 0.000087, -0.417930, -0.000115, -0.000721, 0.000007, 0.000066, -0.000010, -0.000019, 0.000015, 0.000006, 0.001977, -0.000035, 0.009339, 0.000049, 0.000000, 0.000030, -0.000041, 0.000067, -0.147342, 0.094076, 0.000008},
{0.000022, -0.000796, 0.000012, 0.000002, 0.000026, 0.000098, -0.000011, 0.000023, 0.000081, 0.000001, -0.000068, -0.000076, -0.000021, 0.000001, -0.000034, 0.000032, 0.000016, -0.000063, 0.000014, -0.000016, -0.000039, 0.000065, 0.000017, 0.000020, -0.000059, 0.676677, -0.000071, -0.006615, -0.014390, 0.000048, 0.030002, -0.000018, 0.000017, 0.132226, -0.000011, -0.000011, 0.000289, -0.000076, 0.000018, 0.079497, -0.000041, 0.000014, -0.000034, 0.038791, 0.582630, -0.000006, 0.000029, 0.000115, -0.000001, -0.000043, 0.000001, 0.000009, -0.800864, 0.000004, -0.000219, 0.000027, -0.000023, 0.000001, 0.000003, -0.000012, 0.000010, 0.002011, -0.000168, 0.009927, -0.000002, 0.000073, 0.000030, -0.000030, -0.000079, -0.133594, 0.090004, 0.000006},
{0.000061, -0.000893, -0.000007, -0.000079, -0.000008, 0.000034, -0.000048, -0.000002, -0.000049, -0.000006, 0.000014, 0.000078, 0.000053, 0.000037, -0.000012, -0.000022, -0.000027, -0.000098, 0.000017, -0.000027, -0.000037, -0.000049, -0.000005, -0.000046, 0.000020, 0.777044, -0.000054, -0.006846, -0.013293, 0.000049, 0.022041, 0.000002, -0.000036, 0.101584, -0.000012, 0.000044, 0.000259, 0.000087, 0.000055, 0.026388, -0.000029, -0.000299, 0.000049, 0.030930, 0.531460, -0.000055, 0.000070, -0.000004, 0.000003, 0.000008, -0.000102, -0.000187, -0.813618, -0.000078, -0.000650, -0.000153, -0.000037, 0.000001, 0.000035, 0.000008, 0.000007, 0.002220, -0.000051, 0.010930, 0.000219, 0.000037, -0.000099, 0.000045, -0.000068, -0.332208, 0.069926, 0.000005},
{0.000138, -0.001240, -0.000054, -0.000001, 0.000046, -0.000009, 0.000053, 0.000013, 0.000043, 0.000002, 0.000000, 0.000055, 0.000013, 0.000011, -0.000019, -0.000043, 0.000048, -0.000019, 0.000022, -0.000043, -0.000043, -0.000053, -0.000046, -0.000074, -0.000020, 0.919772, 0.000046, -0.006537, -0.013725, -0.000073, 0.010536, 0.000002, 0.000057, 0.084141, 0.000010, 0.000031, 0.000256, -0.000057, -0.000028, -0.062350, -0.000021, -0.000188, -0.000028, 0.022064, 0.419995, -0.000041, 0.000057, -0.000044, 0.000008, 0.000005, 0.000172, -0.000059, -0.632307, -0.000113, -0.000722, -0.000010, -0.000004, 0.000011, 0.000032, -0.000016, -0.000008, 0.002041, 0.000081, 0.011517, -0.000143, 0.000105, 0.000025, -0.000105, -0.000065, -0.260285, 0.063313, -0.000025},
{-0.000006, -0.001121, 0.000078, 0.000003, -0.000044, -0.000032, 0.000012, -0.000043, 0.000092, 0.000018, -0.000030, 0.000138, 0.000038, -0.000017, 0.000015, -0.000012, 0.000012, -0.000045, 0.000040, 0.000040, -0.000019, -0.000020, 0.000026, -0.000021, 0.000004, 0.833720, -0.000063, -0.006782, -0.014857, 0.000065, 0.020396, -0.000061, 0.000034, 0.097814, 0.000031, -0.000042, 0.000295, 0.000101, 0.000036, -0.197030, 0.000034, -0.000441, -0.000041, 0.027356, 0.262152, -0.000017, -0.000019, 0.000000, 0.000006, -0.000042, 0.000034, -0.000120, -0.579934, -0.000114, -0.000371, 0.000041, -0.000063, 0.000010, 0.000022, -0.000014, -0.000001, 0.002129, -0.000035, 0.011410, 0.000164, -0.000112, 0.000003, -0.000075, -0.000060, -0.412072, 0.074667, -0.000024},
{0.000155, -0.000940, 0.000040, -0.000043, 0.000009, -0.000016, 0.000008, 0.000005, -0.000042, -0.000012, 0.000012, 0.000064, -0.000045, -0.000038, 0.000043, 0.000007, 0.000027, -0.000012, -0.000048, 0.000000, 0.000087, 0.000067, 0.000010, -0.000063, 0.000073, 0.748954, 0.000078, -0.006182, -0.014624, 0.000008, 0.025940, -0.000019, 0.000032, 0.117900, 0.000020, 0.000015, 0.000340, 0.000064, -0.000021, -0.277362, -0.000007, 0.000139, -0.000009, 0.037494, 0.237872, 0.000016, -0.000006, -0.000046, 0.000003, -0.000022, -0.000055, 0.000146, -0.196345, 0.000104, -0.001358, -0.000100, -0.000018, -0.000006, -0.000038, -0.000027, 0.000004, 0.002309, 0.000028, 0.011486, -0.000048, 0.000090, 0.000013, -0.000008, -0.000118, -0.496581, 0.089358, -0.000007},
{0.000050, -0.000925, -0.000005, 0.000040, -0.000079, -0.000074, 0.000009, 0.000023, -0.000019, -0.000004, -0.000014, 0.000046, -0.000018, 0.000004, 0.000005, 0.000018, -0.000067, -0.000172, 0.000011, 0.000030, 0.000026, 0.000000, 0.000025, 0.000089, 0.000021, 0.736085, -0.000038, -0.006480, -0.014897, 0.000030, 0.030411, 0.000015, 0.000115, 0.124504, -0.000000, -0.000034, 0.000257, 0.000042, -0.000013, -0.147009, 0.000071, -0.000506, 0.000097, 0.041640, 0.094777, -0.000023, 0.000021, 0.000049, -0.000001, 0.000033, 0.000018, -0.000095, -0.058563, -0.000065, -0.000383, -0.000020, -0.000007, -0.000012, -0.000014, 0.000159, -0.000015, 0.002284, 0.000133, 0.010707, -0.000064, 0.000021, -0.000011, -0.000005, 0.000080, -0.598054, 0.096325, -0.000010},
{0.000078, -0.000916, -0.000034, 0.000018, -0.000003, -0.000066, 0.000005, -0.000016, -0.000107, 0.000007, -0.000030, 0.000077, -0.000022, 0.000017, 0.000023, 0.000015, -0.000015, -0.000037, -0.000033, 0.000108, -0.000031, -0.000041, 0.000011, 0.000050, -0.000066, 0.528324, -0.000102, -0.006567, -0.014814, -0.000002, 0.028532, -0.000023, 0.000139, 0.111969, -0.000010, -0.000014, 0.000282, -0.000089, -0.000016, -0.041481, -0.000032, -0.000031, 0.000043, 0.036107, 0.013515, -0.000025, 0.000013, -0.000015, -0.000011, -0.000015, 0.000130, 0.000035, 0.343852, -0.000153, -0.000447, 0.000042, 0.000002, -0.000003, -0.000009, -0.000056, 0.000000, 0.001694, -0.000000, 0.010794, -0.000168, 0.000061, 0.000044, -0.000092, -0.000047, -0.537297, 0.087506, 0.000029},
{0.000079, -0.000943, -0.000053, 0.000063, -0.000083, -0.000229, 0.000004, 0.000071, 0.000139, -0.000002, 0.000045, 0.000102, -0.000020, 0.000033, -0.000022, -0.000032, 0.000038, 0.000061, -0.000032, -0.000015, 0.000053, 0.000037, 0.000014, -0.000010, 0.000030, 0.294757, -0.000045, -0.006172, -0.014337, 0.000020, 0.012000, -0.000032, 0.000007, 0.086403, -0.000001, -0.000029, 0.000091, 0.000101, -0.000008, 0.068134, -0.000041, -0.000197, 0.000010, 0.026204, 0.020228, 0.000013, 0.000022, 0.000086, -0.000011, 0.000020, 0.000041, -0.000129, 0.475929, -0.000096, -0.000658, -0.000014, 0.000062, 0.000004, -0.000005, -0.000057, -0.000012, 0.001797, 0.000137, 0.011072, -0.000048, 0.000056, 0.000029, -0.000007, -0.000080, -0.539656, 0.071186, 0.000028},
{-0.000006, -0.000825, 0.000032, -0.000034, 0.000006, -0.000005, -0.000007, 0.000040, -0.000029, 0.000002, 0.000034, -0.000013, 0.000049, -0.000004, 0.000022, -0.000022, -0.000024, 0.000081, 0.000004, -0.000096, 0.000026, 0.000014, -0.000041, 0.000012, -0.000006, 0.369667, -0.000096, -0.006596, -0.013988, 0.000051, 0.009616, 0.000006, 0.000084, 0.097202, 0.000031, 0.000019, 0.000244, -0.000137, -0.000072, 0.158773, -0.000078, -0.000176, -0.000033, 0.019671, -0.059640, 0.000004, 0.000012, 0.000034, 0.000030, -0.000002, -0.000035, 0.000043, 0.681119, -0.000186, -0.000670, 0.000015, -0.000071, 0.000007, 0.000001, -0.000037, 0.000008, 0.001784, 0.000047, 0.011871, -0.000009, -0.000079, 0.000013, 0.000001, -0.000206, -0.722393, 0.049562, -0.000012},
{-0.000106, -0.000543, -0.000033, 0.000034, 0.000025, -0.000047, 0.000012, -0.000032, 0.000022, -0.000021, -0.000018, 0.000045, -0.000019, 0.000008, -0.000025, 0.000049, 0.000027, 0.000011, -0.000079, -0.000006, -0.000045, -0.000045, 0.000046, -0.000035, -0.000008, 0.229799, 0.000013, -0.006183, -0.012990, -0.000081, 0.009789, -0.000004, -0.000127, 0.104791, 0.000031, 0.000013, 0.000107, -0.000024, 0.000104, 0.103719, 0.000004, -0.000181, -0.000027, 0.015208, -0.038296, 0.000002, 0.000047, -0.000059, -0.000009, 0.000028, 0.000020, -0.000126, 0.645687, -0.000086, -0.000091, -0.000071, -0.000020, 0.000004, -0.000035, 0.000184, 0.000006, 0.002302, 0.000175, 0.011728, 0.000060, 0.000097, 0.000066, -0.000030, -0.000042, -0.764963, 0.063471, 0.000016},
{-0.000113, -0.000599, -0.000026, -0.000029, 0.000045, 0.000000, 0.000010, -0.000012, -0.000025, 0.000000, 0.000018, -0.000235, 0.000025, 0.000023, -0.000010, -0.000032, -0.000016, 0.000126, -0.000044, 0.000014, -0.000058, -0.000174, -0.000001, 0.000111, 0.000007, 0.018938, 0.000004, -0.006429, -0.012910, 0.000020, 0.014975, -0.000006, 0.000013, 0.122013, 0.000006, -0.000008, 0.000165, -0.000103, 0.000029, 0.015618, -0.000046, -0.000669, 0.000046, 0.028217, 0.112492, -0.000039, -0.000014, -0.000034, -0.000081, -0.000019, 0.000046, -0.000172, 0.600487, -0.000152, -0.000630, -0.000016, -0.000014, 0.000021, 0.000019, 0.000013, 0.000009, 0.002156, 0.000019, 0.010379, 0.000080, 0.000048, 0.000002, -0.000158, 0.000109, -0.827195, 0.069876, 0.000025},
{-0.000104, -0.000485, -0.000040, 0.000023, -0.000037, -0.000242, 0.000030, -0.000038, 0.000060, -0.000002, -0.000002, -0.000210, -0.000022, -0.000010, 0.000005, 0.000059, 0.000021, 0.000072, 0.000048, 0.000019, 0.000048, -0.000037, 0.000014, 0.000049, -0.000050, -0.076280, -0.000096, -0.006175, -0.012650, 0.000017, 0.016637, 0.000028, 0.000059, 0.106093, -0.000014, 0.000011, 0.000226, -0.000010, -0.000030, 0.003761, 0.000048, -0.000502, 0.000047, 0.028053, 0.189859, 0.000010, -0.000001, 0.000110, -0.000012, 0.000043, -0.000194, -0.000160, 0.608590, -0.000114, -0.000783, 0.000137, 0.000031, -0.000007, 0.000043, 0.000089, -0.000000, 0.002227, -0.000016, 0.008791, 0.000000, -0.000010, -0.000033, 0.000002, 0.000033, -0.716505, 0.058582, 0.000011},
{0.000079, -0.000419, -0.000042, 0.000009, 0.000059, 0.000024, -0.000039, 0.000011, 0.000138, -0.000010, 0.000059, 0.000037, 0.000013, 0.000004, -0.000049, -0.000012, -0.000001, -0.000033, 0.000053, -0.000063, -0.000044, 0.000149, -0.000047, -0.000135, 0.000062, -0.344207, 0.000002, -0.006269, -0.013167, -0.000011, 0.004915, -0.000057, -0.000025, 0.075268, -0.000001, 0.000021, 0.000154, 0.000032, 0.000019, -0.074611, 0.000015, -0.000207, 0.000067, 0.015065, 0.080559, -0.000045, 0.000053, 0.000115, 0.000045, 0.000005, 0.000073, -0.000041, 0.645080, 0.000030, -0.000827, -0.000007, -0.000015, 0.000000, 0.000029, -0.000017, 0.000004, 0.002226, -0.000088, 0.008157, -0.000016, 0.000028, -0.000112, -0.000021, -0.000165, -0.384107, 0.048286, 0.000008},
{0.000069, -0.000538, 0.000032, -0.000023, -0.000020, -0.000127, 0.000013, -0.000014, 0.000043, 0.000007, 0.000051, -0.000413, -0.000017, -0.000031, -0.000031, -0.000021, 0.000084, 0.000007, -0.000039, 0.000028, -0.000005, 0.000012, -0.000046, 0.000072, -0.000004, -0.362758, 0.000027, -0.006324, -0.013260, -0.000008, 0.002634, -0.000032, 0.000016, 0.055062, 0.000023, 0.000000, 0.000081, -0.000032, 0.000016, -0.090435, -0.000078, -0.000245, -0.000084, 0.004840, 0.021515, -0.000016, 0.000067, -0.000086, -0.000008, 0.000027, -0.000036, -0.000135, 0.746003, -0.000084, -0.000293, 0.000041, -0.000093, -0.000018, -0.000037, -0.000010, 0.000003, 0.001724, -0.000045, 0.006934, -0.000107, -0.000272, 0.000041, -0.000114, -0.000149, -0.319380, 0.029620, -0.000009},
{-0.000036, -0.000505, -0.000046, -0.000006, -0.000064, -0.000028, 0.000000, 0.000010, -0.000072, -0.000004, -0.000013, -0.000218, -0.000029, -0.000003, -0.000013, 0.000045, 0.000002, -0.000073, 0.000023, 0.000016, -0.000049, 0.000048, -0.000012, 0.000105, -0.000040, -0.543836, -0.000084, -0.006272, -0.012322, 0.000046, 0.002448, 0.000025, -0.000003, 0.036328, -0.000012, 0.000010, -0.000083, 0.000039, -0.000014, -0.218054, -0.000024, 0.000196, 0.000031, 0.004337, -0.102849, -0.000038, 0.000013, -0.000015, 0.000017, 0.000009, 0.000042, -0.000177, 0.758435, 0.000206, -0.000683, -0.000047, 0.000017, 0.000010, 0.000009, 0.000034, -0.000007, 0.001806, -0.000151, 0.006038, -0.000049, -0.000044, -0.000016, -0.000077, 0.000052, -0.047027, 0.025458, 0.000007},
{0.000084, -0.000469, -0.000034, 0.000023, 0.000063, 0.000132, 0.000004, 0.000036, 0.000023, 0.000008, -0.000008, -0.000055, 0.000060, -0.000013, 0.000034, -0.000021, 0.000038, 0.000017, -0.000058, -0.000028, -0.000031, -0.000068, -0.000039, -0.000031, -0.000009, -0.543715, -0.000032, -0.006420, -0.012051, -0.000077, 0.004490, 0.000026, -0.000085, 0.065557, 0.000016, -0.000010, -0.000055, -0.000024, 0.000034, -0.315941, -0.000021, -0.000682, 0.000113, 0.015443, -0.285812, 0.000091, -0.000086, -0.000005, -0.000021, 0.000034, 0.000020, -0.000109, 0.535974, 0.000071, -0.000644, -0.000042, 0.000036, 0.000002, 0.000024, -0.000042, 0.000003, 0.001764, 0.000054, 0.006307, 0.000062, -0.000089, -0.000076, -0.000097, -0.000107, 0.106188, 0.039930, -0.000013},
{0.000090, -0.000620, 0.000056, 0.000002, 0.000027, 0.000006, -0.000005, 0.000049, -0.000064, 0.000002, 0.000002, 0.000065, -0.000036, -0.000001, -0.000027, -0.000042, -0.000015, 0.000053, 0.000064, -0.000088, -0.000068, 0.000035, -0.000002, 0.000018, 0.000075, -0.719592, 0.000024, -0.006633, -0.011105, 0.000010, 0.004738, -0.000057, -0.000040, 0.078484, 0.000008, 0.000042, -0.000167, -0.000036, -0.000050, -0.400585, 0.000003, -0.000335, -0.000026, 0.013984, -0.344491, 0.000047, -0.000089, 0.000030, -0.000018, -0.000006, -0.000116, 0.000181, 0.696802, -0.000043, -0.000716, 0.000032, -0.000068, 0.000025, 0.000020, -0.000054, -0.000021, 0.002100, -0.000229, 0.006764, 0.000109, 0.000008, -0.000025, 0.000045, 0.000168, 0.141154, 0.044705, -0.000021},
{0.000002, -0.000689, -0.000031, 0.000007, 0.000001, -0.000041, -0.000027, -0.000043, -0.000030, 0.000002, 0.000030, -0.000204, 0.000020, -0.000035, -0.000028, 0.000030, -0.000004, 0.000024, -0.000008, 0.000037, -0.000086, 0.000036, -0.000075, -0.000116, -0.000007, -0.771843, -0.000033, -0.007220, -0.011076, -0.000025, 0.007251, -0.000001, 0.000034, 0.071127, -0.000008, 0.000019, 0.000179, -0.000118, 0.000034, -0.324741, -0.000016, 0.000178, 0.000051, 0.016939, -0.295797, 0.000042, -0.000049, 0.000041, 0.000028, -0.000021, 0.000048, 0.000035, 0.608042, -0.000106, -0.000481, -0.000042, -0.000024, 0.000000, -0.000015, -0.000083, 0.000002, 0.002013, -0.000051, 0.007960, -0.000026, -0.000123, -0.000044, 0.000032, 0.000081, 0.354559, 0.050614, -0.000008},
{0.000014, -0.000937, 0.000002, 0.000029, -0.000053, -0.000061, 0.000010, -0.000010, 0.000065, -0.000004, -0.000010, -0.000363, 0.000010, -0.000017, -0.000032, -0.000046, 0.000003, 0.000003, -0.000005, -0.000015, 0.000046, -0.000031, -0.000026, -0.000038, 0.000054, -0.803270, -0.000034, -0.007524, -0.009843, 0.000007, 0.001716, 0.000044, 0.000010, 0.054388, -0.000052, 0.000010, 0.000302, -0.000090, 0.000024, -0.280526, -0.000007, -0.000183, 0.000023, 0.003437, -0.299363, 0.000009, -0.000032, -0.000028, 0.000001, -0.000013, 0.000011, 0.000225, 0.469996, 0.000087, 0.000203, -0.000041, 0.000045, 0.000003, 0.000021, 0.000033, -0.000004, 0.002043, 0.000087, 0.009624, -0.000051, 0.000075, 0.000076, -0.000067, -0.000016, 0.361902, 0.027378, -0.000004},
{-0.000075, -0.000994, -0.000034, -0.000005, -0.000019, -0.000053, 0.000001, -0.000036, -0.000018, 0.000025, 0.000014, 0.000005, -0.000014, 0.000020, -0.000015, -0.000009, 0.000067, 0.000011, 0.000006, 0.000007, -0.000043, -0.000096, 0.000025, -0.000036, -0.000035, -0.721141, 0.000013, -0.007353, -0.010785, -0.000047, 0.001457, 0.000030, -0.000085, 0.039506, -0.000034, 0.000012, 0.000362, -0.000030, 0.000125, -0.063609, -0.000004, -0.000275, 0.000085, 0.002672, -0.235021, 0.000018, -0.000015, 0.000006, 0.000008, 0.000033, -0.000070, -0.000167, 0.255028, -0.000082, -0.001186, 0.000001, -0.000004, 0.000004, -0.000044, 0.000070, -0.000007, 0.002078, 0.000018, 0.009892, -0.000026, 0.000013, 0.000009, -0.000050, -0.000058, 0.425819, 0.012419, -0.000022},
{-0.000061, -0.001162, -0.000004, -0.000047, -0.000060, 0.000143, 0.000010, 0.000034, -0.000051, -0.000009, 0.000014, -0.000445, -0.000001, -0.000034, -0.000043, -0.000029, -0.000017, 0.000083, -0.000000, -0.000000, 0.000009, -0.000030, -0.000039, 0.000035, 0.000038, -0.479525, -0.000064, -0.007634, -0.012216, 0.000050, 0.001342, 0.000073, -0.000133, 0.019703, -0.000021, 0.000040, 0.000217, -0.000129, -0.000002, 0.116091, -0.000153, -0.000001, 0.000038, 0.002295, -0.169554, 0.000034, -0.000074, 0.000017, 0.000058, 0.000012, 0.000098, -0.000205, 0.026329, -0.000020, -0.001033, -0.000008, -0.000035, 0.000006, 0.000022, 0.000013, 0.000013, 0.001958, -0.000042, 0.009167, 0.000051, -0.000194, -0.000003, -0.000015, 0.000029, 0.565806, 0.008403, -0.000005},
{0.000052, -0.001229, -0.000068, 0.000058, -0.000030, -0.000011, -0.000001, 0.000026, 0.000082, -0.000002, -0.000005, 0.000107, 0.000033, -0.000041, 0.000013, -0.000020, -0.000019, 0.000053, -0.000019, -0.000038, -0.000046, 0.000055, -0.000016, -0.000027, 0.000048, -0.473131, 0.000007, -0.007993, -0.013215, -0.000024, 0.001631, 0.000067, -0.000045, 0.036809, -0.000015, 0.000023, 0.000065, -0.000004, -0.000068, 0.182110, -0.000080, -0.000565, -0.000021, 0.002693, -0.119545, 0.000033, -0.000012, 0.000122, -0.000011, 0.000022, -0.000050, -0.000158, -0.078822, -0.000007, -0.000689, -0.000040, 0.000016, -0.000008, -0.000011, -0.000037, -0.000006, 0.002784, 0.000111, 0.007921, 0.000005, -0.000172, 0.000006, 0.000051, 0.000004, 0.478985, 0.015107, 0.000008},
{0.000000, -0.001099, 0.000036, 0.000047, -0.000018, 0.000107, -0.000009, -0.000003, 0.000018, -0.000012, 0.000028, -0.000337, 0.000026, 0.000013, -0.000000, -0.000031, -0.000033, 0.000021, 0.000050, 0.000029, 0.000066, 0.000023, 0.000017, 0.000003, 0.000004, -0.388385, 0.000028, -0.007778, -0.013215, -0.000011, 0.002176, -0.000030, -0.000079, 0.064013, 0.000011, -0.000012, 0.000167, -0.000030, -0.000024, 0.178872, 0.000003, -0.000640, -0.000042, 0.007066, -0.071436, 0.000000, -0.000014, -0.000032, 0.000042, -0.000004, 0.000008, 0.000305, -0.506827, -0.000117, -0.001040, 0.000012, -0.000018, -0.000001, 0.000037, -0.000027, 0.000000, 0.002622, -0.000005, 0.007644, -0.000007, 0.000063, -0.000008, -0.000100, 0.000083, 0.501818, 0.032157, -0.000033},
{-0.000009, -0.001128, 0.000012, 0.000035, -0.000022, -0.000028, 0.000009, -0.000014, 0.000086, 0.000006, -0.000003, -0.000021, -0.000094, 0.000025, 0.000038, -0.000018, -0.000045, 0.000059, -0.000010, -0.000076, 0.000009, 0.000007, -0.000024, -0.000016, 0.000050, -0.294632, -0.000040, -0.007614, -0.013206, 0.000027, 0.002312, 0.000024, 0.000022, 0.064143, -0.000021, 0.000056, 0.000264, -0.000052, 0.000048, 0.080726, -0.000071, -0.000209, 0.000086, 0.007934, -0.044118, 0.000008, 0.000007, 0.000024, 0.000032, 0.000007, 0.000100, 0.000177, -0.478447, -0.000011, -0.000737, 0.000024, 0.000016, 0.000000, -0.000027, 0.000065, -0.000009, 0.002016, 0.000055, 0.007551, 0.000083, 0.000084, 0.000054, 0.000055, -0.000050, 0.460062, 0.040386, -0.000044},
{-0.000054, -0.001247, -0.000010, -0.000001, -0.000043, 0.000013, -0.000030, -0.000014, 0.000044, -0.000022, 0.000035, 0.000070, -0.000026, 0.000006, -0.000023, -0.000016, -0.000014, 0.000051, -0.000058, -0.000041, -0.000026, -0.000035, -0.000029, 0.000189, 0.000031, -0.115759, -0.000046, -0.007543, -0.012427, 0.000010, 0.001844, 0.000025, 0.000029, 0.038142, 0.000018, -0.000009, 0.000310, -0.000020, 0.000003, 0.186176, 0.000029, -0.000521, -0.000019, 0.003303, 0.201058, -0.000046, -0.000051, 0.000020, -0.000025, 0.000013, 0.000028, 0.000241, -0.495215, 0.000098, -0.000737, 0.000171, 0.000059, -0.000005, 0.000021, 0.000070, -0.000003, 0.001944, 0.000033, 0.008790, 0.000061, -0.000022, 0.000028, -0.000127, -0.000056, 0.637569, 0.024378, 0.000026},
{0.000003, -0.001064, 0.000023, 0.000008, -0.000017, 0.000025, -0.000002, -0.000013, -0.000010, -0.000022, -0.000005, -0.000448, -0.000005, -0.000000, -0.000038, 0.000050, -0.000006, -0.000029, 0.000064, 0.000152, 0.000039, -0.000100, -0.000020, 0.000023, 0.000003, -0.005086, -0.000092, -0.006984, -0.011974, -0.000003, 0.001284, -0.000020, 0.000027, 0.018416, 0.000021, 0.000036, 0.000181, 0.000024, -0.000015, 0.211002, -0.000068, -0.000801, 0.000197, 0.002345, 0.063877, -0.000013, -0.000040, -0.000002, -0.000037, -0.000008, 0.000021, -0.000061, -0.677764, -0.000021, -0.000659, 0.000020, -0.000056, 0.000007, -0.000037, 0.000037, 0.000004, 0.001968, 0.000070, 0.010236, -0.000108, -0.000057, -0.000018, -0.000045, 0.000096, 0.573723, 0.005676, 0.000043},
{0.000036, -0.001060, -0.000021, -0.000046, 0.000026, -0.000008, 0.000012, 0.000003, 0.000008, -0.000011, 0.000027, -0.000113, 0.000065, -0.000010, 0.000023, -0.000033, -0.000041, 0.000033, -0.000022, 0.000007, 0.000015, -0.000075, -0.000002, 0.000036, -0.000004, 0.180829, -0.000036, -0.007318, -0.012530, -0.000047, 0.001121, 0.000042, -0.000036, 0.010325, -0.000027, 0.000013, 0.000279, -0.000098, 0.000026, 0.341145, 0.000079, -0.000295, 0.000079, 0.002162, -0.033739, -0.000016, 0.000031, 0.000053, -0.000005, -0.000006, 0.000014, -0.000178, -0.664137, -0.000197, -0.000938, 0.000044, -0.000056, -0.000002, -0.000011, 0.000002, -0.000003, 0.002179, -0.000006, 0.011355, -0.000072, 0.000096, -0.000010, 0.000063, 0.000084, 0.306976, 0.005423, 0.000018},
{-0.000051, -0.000714, 0.000037, 0.000016, 0.000023, -0.000040, -0.000034, 0.000037, 0.000014, -0.000021, -0.000024, -0.000357, 0.000023, -0.000014, 0.000015, -0.000031, -0.000015, -0.000084, 0.000072, -0.000022, 0.000084, 0.000083, -0.000046, 0.000059, -0.000075, 0.279051, 0.000010, -0.007710, -0.013552, -0.000085, 0.001658, -0.000009, -0.000044, 0.055421, -0.000014, -0.000056, 0.000266, -0.000013, 0.000013, 0.374309, 0.000007, -0.000051, -0.000026, 0.003073, -0.149917, 0.000012, 0.000006, 0.000055, 0.000014, 0.000012, -0.000062, -0.000095, -0.732271, -0.000155, -0.000447, 0.000002, 0.000018, 0.000007, 0.000025, -0.000002, 0.000001, 0.001916, -0.000084, 0.011880, -0.000074, 0.000036, 0.000019, 0.000019, -0.000053, 0.117795, 0.023011, -0.000007},
{-0.000091, -0.000686, 0.000003, 0.000006, 0.000023, 0.000005, -0.000022, 0.000039, 0.000048, -0.000010, 0.000016, -0.000015, 0.000087, -0.000000, -0.000043, -0.000002, -0.000012, -0.000004, 0.000039, 0.000004, 0.000109, -0.000006, -0.000023, 0.000048, 0.000024, 0.387090, -0.000086, -0.007857, -0.014243, 0.000072, 0.002156, -0.000030, 0.000043, 0.048604, -0.000011, 0.000022, 0.000265, -0.000101, 0.000128, 0.478707, 0.000022, 0.000112, 0.000068, 0.007991, -0.125620, -0.000041, -0.000059, -0.000011, -0.000017, 0.000011, 0.000056, -0.000136, -0.740258, -0.000067, -0.001249, 0.000102, 0.000027, -0.000000, -0.000009, -0.000035, 0.000004, 0.002277, -0.000229, 0.011234, -0.000017, 0.000064, 0.000018, 0.000004, -0.000107, -0.136572, 0.031581, 0.000002},
{0.000068, -0.000860, -0.000028, 0.000008, 0.000018, -0.000126, -0.000048, -0.000033, -0.000003, -0.000003, -0.000028, -0.000273, -0.000006, -0.000058, -0.000004, -0.000027, 0.000008, -0.000010, -0.000104, 0.000044, 0.000067, 0.000084, -0.000029, -0.000083, 0.000092, 0.456011, -0.000145, -0.007845, -0.014602, -0.000044, 0.002252, -0.000042, -0.000025, 0.032087, -0.000014, 0.000011, 0.000244, 0.000007, 0.000020, 0.571784, -0.000028, 0.000198, 0.000028, 0.003751, -0.027702, -0.000028, 0.000048, 0.000071, 0.000046, 0.000013, 0.000131, 0.000127, -0.551747, -0.000143, -0.000550, -0.000092, 0.000009, -0.000007, -0.000073, 0.000016, 0.000001, 0.001933, 0.000079, 0.010593, 0.000002, 0.000049, 0.000005, 0.000005, 0.000039, -0.147720, 0.017762, -0.000028},
{-0.000035, -0.000718, -0.000026, -0.000051, -0.000044, -0.000054, -0.000016, 0.000013, -0.000019, -0.000025, 0.000035, -0.000369, 0.000067, 0.000023, -0.000034, -0.000033, -0.000018, 0.000074, 0.000026, -0.000011, 0.000034, 0.000023, 0.000066, -0.000017, -0.000064, 0.550748, -0.000012, -0.009138, -0.014575, -0.000032, 0.002029, -0.000015, -0.000098, 0.009817, -0.000015, 0.000021, 0.000306, -0.000054, 0.000027, 0.657727, 0.000010, -0.000279, 0.000006, 0.003359, -0.032450, -0.000040, 0.000036, -0.000043, 0.000003, 0.000022, 0.000143, -0.000150, -0.376566, 0.000032, -0.000099, -0.000076, -0.000007, 0.000005, 0.000030, 0.000093, 0.000011, 0.002103, -0.000033, 0.010678, -0.000025, 0.000133, 0.000097, 0.000012, -0.000010, -0.036779, 0.006899, -0.000018},
{-0.000025, -0.000907, -0.000001, 0.000045, -0.000083, -0.000009, 0.000034, 0.000031, -0.000008, -0.000010, -0.000011, -0.000043, -0.000014, -0.000004, 0.000058, -0.000024, 0.000023, -0.000135, -0.000004, -0.000035, 0.000032, -0.000036, -0.000104, 0.000052, 0.000008, 0.385636, 0.000057, -0.009028, -0.014936, -0.000088, 0.001963, 0.000033, -0.000002, 0.006366, 0.000005, -0.000004, 0.000200, -0.000033, 0.000030, 0.657201, -0.000068, -0.000338, 0.000047, 0.003000, 0.138878, -0.000062, 0.000005, -0.000035, 0.000010, 0.000001, -0.000108, 0.000209, -0.300711, -0.000073, -0.000073, -0.000025, -0.000118, 0.000024, 0.000047, -0.000095, 0.000008, 0.001980, 0.000001, 0.010078, 0.000006, -0.000039, -0.000031, 0.000075, -0.000029, -0.185210, 0.005237, 0.000002},
{0.000069, -0.000780, -0.000006, -0.000015, -0.000103, 0.000077, 0.000011, -0.000018, -0.000047, 0.000004, 0.000020, 0.000050, 0.000017, 0.000008, -0.000023, 0.000011, 0.000077, -0.000073, 0.000022, 0.000008, 0.000087, 0.000004, -0.000013, -0.000040, 0.000021, 0.502048, -0.000032, -0.008869, -0.016106, 0.000051, 0.002277, -0.000004, 0.000029, 0.011720, -0.000023, 0.000017, 0.000083, 0.000173, 0.000112, 0.629687, -0.000099, -0.000858, -0.000010, 0.003468, 0.026598, 0.000003, -0.000049, 0.000042, -0.000026, -0.000015, 0.000020, -0.000047, -0.408944, 0.000033, -0.000341, 0.000039, 0.000048, -0.000021, 0.000019, -0.000020, -0.000003, 0.001623, 0.000012, 0.010868, -0.000048, 0.000065, 0.000003, -0.000031, 0.000056, -0.160755, 0.007327, -0.000011},
{0.000081, -0.000574, -0.000004, 0.000013, 0.000025, 0.000018, 0.000017, 0.000019, 0.000013, -0.000006, 0.000029, -0.000360, -0.000016, 0.000004, -0.000031, 0.000032, 0.000011, 0.000015, -0.000043, -0.000025, 0.000076, 0.000080, 0.000038, -0.000029, -0.000015, 0.388783, 0.000048, -0.007790, -0.016055, -0.000035, 0.002820, -0.000037, 0.000069, 0.054296, -0.000003, -0.000004, -0.000089, 0.000063, -0.000032, 0.502825, 0.000028, -0.000128, 0.000024, 0.005906, -0.020177, -0.000003, -0.000019, -0.000114, 0.000009, -0.000033, -0.000080, 0.000095, -0.469436, 0.000012, -0.000677, -0.000029, 0.000017, 0.000001, 0.000006, 0.000094, -0.000009, 0.001967, 0.000135, 0.011589, -0.000121, 0.000040, 0.000013, -0.000066, 0.000022, -0.413131, 0.033959, 0.000023},
{-0.000046, -0.000481, -0.000001, 0.000015, -0.000042, 0.000046, -0.000008, -0.000015, 0.000053, -0.000006, -0.000013, 0.000142, 0.000015, -0.000010, -0.000012, 0.000060, -0.000089, -0.000016, -0.000007, -0.000057, 0.000024, -0.000047, -0.000033, -0.000060, -0.000015, 0.263915, -0.000033, -0.008535, -0.016379, 0.000146, 0.003089, 0.000051, -0.000035, 0.069675, 0.000009, 0.000019, 0.000022, -0.000048, -0.000000, 0.418192, 0.000080, -0.000099, -0.000032, 0.010270, 0.150184, -0.000005, -0.000028, 0.000061, 0.000035, 0.000008, -0.000044, 0.000173, -0.252103, -0.000100, -0.000658, 0.000019, -0.000024, -0.000018, 0.000028, 0.000017, 0.000003, 0.001988, -0.000029, 0.011774, -0.000016, 0.000125, 0.000028, -0.000013, -0.000035, -0.284096, 0.039080, 0.000042},
